-5.2710e-02
1.9478e-02
9.3391e-03
-2.1993e-04
-3.7570e-03
1.4066e-01
-1.5204e-01
2.9142e-01
2.0867e-01
1.9530e-02
-2.8615e-02
-2.2102e-03
6.0219e-02
4.0391e-02
2.2221e-01
-1.0832e-03
3.5185e-02
1.8799e-02
3.9953e-02
4.6031e-02
8.7960e-03
7.2185e-02
1.0531e-01
-5.5280e-03
-4.9369e-02
3.2012e-02
-1.2457e-01
-6.6049e-03
6.4808e-02
4.1601e-01
-5.4459e-02
2.0670e-01
-6.9217e-02
1.4279e-01
7.7550e-02
9.7330e-02
1.3815e-07
-9.5141e-03
2.9706e-01
1.9198e-02
3.1304e-02
-4.4103e-03
-4.5489e-02
-4.5401e-03
3.2861e-01
-1.5481e-03
-2.4677e-03
1.7781e-01
2.0163e-02
2.6315e-01
2.9351e-02
-2.2094e-03
5.3773e-02
1.9365e-02
-1.0601e-01
-4.5576e-03
1.0242e-01
-3.2087e-03
-4.5727e-02
4.4889e-01
4.2786e-02
-1.6210e-05
8.0599e-02
9.8819e-02
-4.1234e-02
7.4900e-02
1.8256e-01
1.4455e-02
2.4262e-01
5.6231e-03
-1.0970e-03
1.5002e-02
1.7173e-01
-1.8029e-02
-5.6177e-03
3.4842e-01
-1.6568e-02
-1.3285e-02
1.5707e-02
-3.0731e-02
-5.1374e-03
5.3840e-02
6.7804e-02
3.2475e-04
4.5022e-02
-4.1127e-04
1.5091e-01
3.2092e-02
-1.3101e-03
-7.7950e-03
2.8673e-01
6.2944e-02
1.7957e-02
-1.6824e-02
-1.2628e-02
8.8537e-03
2.8642e-02
-9.7944e-03
1.4324e-01
2.5444e-02
-1.2113e-03
8.7573e-02
-1.2672e-02
1.1419e-01
2.1328e-01
2.1149e-01
4.0807e-03
-5.2670e-03
4.4967e-03
2.4543e-03
-2.8856e-03
2.8356e-03
-1.6262e-03
-2.8709e-04
1.0121e-02
-1.7094e-02
6.5073e-02
1.2871e-01
2.6069e-02
-7.0901e-03
3.3715e-02
-4.7745e-02
8.4331e-02
-8.7979e-03
-2.2853e-03
9.2436e-02
6.3525e-02
-2.5554e-02
1.1753e-01
-6.1695e-03
-6.8806e-02
1.0934e-02
9.4662e-02
-6.9240e-04
-8.2543e-03
8.5489e-02
1.4340e-01
1.6855e-01
-2.3286e-02
1.1028e-01
2.4819e-02
1.4598e-02
1.6335e-01
1.1853e-01
1.4209e-01
2.0397e-01
2.5333e-01
-5.8313e-03
4.3964e-03
2.4166e-02
7.7467e-02
1.1247e-01
-2.9552e-02
4.3170e-02
8.9753e-02
1.8088e-01
-9.0813e-03
7.5347e-03
7.9482e-02
7.1249e-02
7.4570e-02
3.8731e-02
1.3869e-01
3.0098e-01
-2.6797e-03
-1.6322e-03
1.2055e-01
7.1734e-02
8.0169e-02
-8.8895e-03
3.0743e-01
1.1827e-03
1.5226e-02
-5.0432e-02
7.2098e-02
9.3109e-03
-6.3746e-02
2.0969e-03
7.5182e-03
-4.6607e-03
1.3840e-01
2.0031e-02
-6.3452e-02
6.8434e-02
-4.1012e-02
0.0000e+00
1.9190e-01
2.0233e-01
4.3511e-01
2.1585e-02
-1.1072e-03
1.4191e-01
7.1660e-02
8.1695e-02
-3.5179e-02
1.0649e-02
1.9176e-02
-1.0154e-03
5.4688e-02
6.7430e-02
-2.5252e-02
1.6134e-01
1.8631e-03
1.0642e-02
-2.5603e-03
5.2568e-02
1.4279e-02
-6.7582e-02
3.2417e-02
-5.6550e-04
-4.5958e-03
5.2342e-02
1.0555e-01
3.3464e-02
2.1228e-01
-2.3884e-03
-4.5069e-02
7.6285e-03
1.2133e-01
-2.2750e-02
-2.1975e-03
3.2186e-01
4.8886e-04
1.4648e-01
3.8864e-01
2.7900e-01
1.1776e-02
-9.2757e-02
1.1965e-02
6.9742e-03
-1.4897e-02
8.4794e-02
2.2261e-01
-1.1064e-02
-2.8995e-02
3.7672e-03
1.2069e-02
7.2740e-02
1.1603e-02
-9.6149e-02
1.4753e-01
2.5051e-01
6.7342e-02
1.1645e-01
9.9776e-02
-2.1451e-03
-5.8385e-03
7.2246e-03
7.3409e-02
6.4559e-04
7.7433e-02
5.9169e-02
6.8058e-04
-5.9782e-03
-3.4935e-03
2.0538e-01
