-5.7178e-02
9.9850e-02
-1.0410e-01
3.0759e-03
9.5833e-02
5.7617e-03
8.3533e-02
1.0424e-01
-4.4356e-02
-5.1814e-03
2.4163e-01
3.4675e-02
4.7989e-02
1.1416e-01
1.0951e-01
2.8694e-02
3.6699e-02
4.7060e-02
-9.9762e-03
8.8020e-02
3.4357e-02
3.5913e-01
-1.3233e-03
2.8881e-03
-5.1226e-03
5.7387e-02
1.5296e-02
4.7392e-02
8.5872e-02
5.3850e-02
1.4569e-01
1.7317e-01
-5.0713e-02
1.0481e-02
-1.0440e-02
-9.4211e-04
9.2659e-02
2.4309e-03
2.5386e-01
-2.1718e-03
1.0409e-01
1.4288e-02
-3.9328e-03
3.3578e-01
-3.1364e-02
3.2949e-02
9.8479e-03
-1.2936e-02
3.5329e-02
1.3520e-01
2.8062e-02
5.5318e-02
-2.9965e-04
-2.2863e-02
9.0622e-02
1.3006e-01
7.9796e-02
4.5758e-03
-6.8584e-04
-4.5746e-04
-9.7159e-03
1.8225e-01
2.1488e-03
1.0810e-01
7.8477e-02
1.3465e-02
3.3369e-02
4.3539e-03
1.2631e-01
-2.7275e-03
1.9933e-01
1.2211e-02
-7.9775e-02
-5.9417e-02
7.2585e-03
2.6431e-02
1.7063e-01
1.6532e-01
-5.1783e-02
1.4760e-01
-6.1060e-02
9.7525e-02
5.4361e-02
5.2553e-02
2.9543e-02
1.2188e-01
3.3347e-03
-1.8023e-04
-1.0788e-03
-6.7473e-02
1.3392e-01
2.0465e-03
3.2212e-02
2.9485e-01
-6.0845e-03
-7.8760e-03
2.7009e-01
1.0553e-01
7.8513e-02
-2.1334e-02
-1.3323e-02
1.7259e-01
-1.7288e-02
-2.8384e-04
2.3366e-02
9.5908e-03
2.0292e-03
-6.0167e-02
1.0436e-01
5.1898e-04
9.5068e-02
-9.1097e-04
-1.6146e-02
1.7194e-01
1.0965e-01
-6.4918e-03
5.6090e-02
1.4552e-01
2.2838e-01
1.4906e-01
-1.6183e-02
1.8838e-01
7.9739e-02
2.1494e-02
7.0867e-04
6.4306e-02
2.8687e-02
1.0412e-01
-3.0742e-02
-6.5793e-02
1.0508e-01
3.5486e-03
2.2930e-03
9.9256e-02
1.7669e-01
1.9553e-02
6.9802e-02
2.3273e-01
2.1247e-01
2.3495e-04
-7.7874e-04
1.9681e-01
1.8910e-01
1.0487e-01
2.1132e-02
2.8675e-02
-2.3373e-01
-2.4252e-02
8.7589e-02
1.2885e-01
1.1537e-01
-2.7225e-03
3.9376e-02
2.6706e-01
1.1778e-01
3.3624e-02
-2.4653e-01
2.8979e-01
9.4494e-02
7.3659e-02
-1.4870e-02
4.2800e-03
-1.0495e-03
1.0659e-01
2.6578e-01
-3.4269e-02
4.0546e-03
1.5916e-01
6.9643e-02
9.7096e-03
-9.4886e-02
-4.7631e-02
-1.0843e-02
6.2762e-02
1.2922e-02
1.1913e-01
1.9409e-03
-5.8835e-02
2.6748e-02
-1.7450e-04
5.8737e-02
-8.1347e-02
3.9507e-01
1.8731e-01
8.9520e-02
8.6692e-03
9.6611e-02
2.8741e-01
-1.9618e-02
-4.4633e-02
2.6126e-03
1.4752e-01
-1.9974e-02
2.0380e-02
7.2845e-02
-4.1722e-03
1.7809e-01
1.2400e-01
1.3273e-01
-1.0284e-03
3.8141e-02
-3.4659e-03
1.8512e-01
7.8566e-02
-2.6765e-03
2.0265e-01
2.2151e-01
-1.6428e-03
1.6216e-02
1.3508e-02
-3.9423e-03
-4.2799e-02
3.2393e-02
6.8455e-02
2.4534e-01
-7.3827e-03
-5.9020e-03
1.2252e-01
1.0971e-02
-5.5660e-03
2.0438e-01
-1.3674e-02
5.7153e-02
1.1921e-01
1.8610e-02
1.7937e-02
5.2947e-01
2.1100e-01
1.4171e-01
8.5630e-03
2.4724e-02
5.3979e-03
1.4903e-01
1.2178e-03
7.9864e-02
3.5552e-02
-4.0890e-02
1.9443e-01
1.9476e-01
4.5488e-02
2.7981e-01
1.7046e-01
-1.3613e-01
-3.0094e-03
3.0365e-01
2.5156e-02
8.1939e-02
-8.0278e-03
9.7399e-02
1.1820e-02
4.7338e-02
-6.7922e-02
6.9823e-02
-1.5495e-03
-1.6485e-03
-5.3162e-02
