-1.1755e-01,-1.0726e-01,-1.1342e-01,-1.8897e-01,-1.8616e-01,-2.0435e-01,-1.8505e-01,-3.2903e-01,-2.6220e-01,-2.3318e-01,-1.6130e-01,2.5390e-01,-5.7972e-02,-7.9262e-02,5.0862e-02,-5.4339e-02,-3.4973e-01,4.2449e-02,-1.1212e-01,3.1870e-01,1.4044e-01,2.7697e-01,1.6996e-01,3.9586e-01,2.8424e-01,1.6203e-01,2.9760e-01,2.5378e-01,2.7530e-01,2.8150e-01,2.4952e-01,9.0614e-02,-7.4600e-02,1.1291e-01,-1.1990e-01,-1.2721e-01,-1.0351e-01,-5.2725e-02,-7.8462e-02,-1.3335e-01,-3.6380e-02,-3.0469e-02,-4.9338e-02
-1.9543e-02,1.1105e-01,-8.9682e-02,1.8654e-01,-2.4634e-01,9.8501e-02,-1.2419e-01,-7.8571e-02,2.9047e-02,1.0214e-01,3.3613e-01,-1.6689e-01,2.4426e-02,2.0391e-01,1.6277e-01,1.1648e-01,-1.0727e-01,-2.5557e-02,-3.0318e-01,-3.2392e-02,-1.2167e-01,-1.6221e-01,-9.4367e-03,-7.4184e-02,-7.8562e-02,2.1391e-01,-2.5487e-01,-2.6790e-01,-9.3869e-02,8.8467e-02,-1.3673e-01,2.7460e-02,-6.0639e-02,2.5709e-01,5.7558e-02,5.2101e-01,6.6976e-03,1.3662e-01,3.3384e-03,1.1118e-01,-1.6170e-01,-1.3120e-01,5.7737e-02
-1.1025e-02,1.4694e-02,5.1971e-02,-3.7328e-02,-1.2579e-02,3.8259e-02,-4.1790e-02,1.1604e-02,1.9592e-02,-3.6038e-02,2.8795e-02,6.4275e-02,5.2393e-02,-3.9789e-02,-3.7524e-02,-4.4319e-02,3.8317e-02,-2.7834e-02,4.0122e-02,4.4271e-02,-3.6901e-02,-1.4811e-03,-4.5509e-02,-5.1338e-02,4.8188e-02,4.9664e-02,1.3861e-02,4.6831e-02,1.0785e-02,-3.2367e-02,6.9381e-03,3.5574e-03,-1.7073e-02,5.0025e-02,-4.7116e-02,-4.8633e-02,-4.7133e-02,5.6409e-02,1.8349e-03,-4.3784e-03,-2.5866e-02,-4.7983e-02,4.0722e-02
3.7145e-02,1.5465e-03,-3.9921e-03,4.7283e-04,-3.9900e-03,5.2880e-02,3.6001e-02,-4.2338e-02,4.8585e-02,1.3148e-02,-4.1454e-02,4.5260e-02,4.9659e-02,3.2039e-02,1.4950e-02,4.0258e-02,2.4290e-02,-2.3157e-02,2.9744e-02,3.3205e-02,2.8597e-02,-1.3635e-02,3.5607e-02,3.7186e-02,-3.7351e-03,4.5433e-02,-3.8433e-02,4.7870e-02,1.8494e-02,-2.6840e-02,-4.1351e-02,3.4649e-02,1.5675e-02,4.3065e-02,-2.6248e-02,3.7353e-02,2.3303e-02,-2.4202e-02,4.0517e-02,4.1918e-02,-1.5242e-02,1.4742e-02,1.1649e-02
-2.2848e-01,-2.2873e-01,-4.3146e-01,-9.3963e-02,-3.8861e-02,-7.5683e-02,-2.3101e-01,-4.2224e-01,-3.8534e-01,1.4716e-01,-9.1091e-02,-1.6100e-01,-1.5251e-01,4.5054e-02,2.5268e-01,2.3250e-01,-1.7863e-01,3.8106e-02,6.2890e-02,1.4029e-01,1.4393e-01,-1.4981e-01,5.0113e-01,3.4887e-02,1.6024e-01,2.0270e-01,3.3929e-01,1.7690e-02,2.3990e-01,2.0195e-01,8.0971e-02,-1.7270e-01,-3.4892e-02,-1.1532e-01,1.7357e-01,4.4244e-02,2.0426e-01,7.7487e-02,1.5623e-01,7.2156e-02,-2.3849e-01,-5.2307e-02,-2.7180e-01
-2.1232e-01,-9.2804e-02,-2.3635e-01,-3.7329e-01,1.6302e-01,-2.6951e-01,-3.7225e-01,1.0324e-01,2.7808e-01,7.6752e-02,-5.8138e-02,1.1333e-02,8.7193e-02,-3.4351e-02,5.2162e-02,1.7414e-01,-8.4296e-02,8.4661e-02,3.8012e-02,1.6192e-02,-5.5304e-05,1.7539e-01,1.8195e-01,-1.2421e-01,1.5064e-01,3.9871e-02,3.2986e-01,8.1973e-02,-8.4833e-02,7.4775e-02,1.8218e-01,2.7418e-02,-1.9915e-01,1.9897e-01,-2.3215e-01,-8.8654e-02,-1.2371e-01,2.5988e-01,3.7742e-02,2.2444e-01,1.5486e-02,-2.2820e-01,-2.7750e-01
1.0769e-01,-1.6017e-01,-1.2564e-01,-3.9882e-01,-4.3038e-01,-5.9797e-02,8.4611e-02,3.2048e-01,-2.5188e-01,4.9515e-02,3.5002e-01,2.9346e-01,3.2842e-01,-1.9914e-01,-9.9340e-02,-1.1650e-01,4.0268e-01,-3.7908e-01,2.1324e-01,-1.4418e-02,4.2104e-02,8.7343e-02,-3.0115e-01,1.8230e-01,-6.1761e-02,-1.5611e-01,-1.7750e-03,2.8594e-01,-1.9333e-01,-1.3532e-01,-5.4260e-02,-2.0520e-01,1.5029e-01,-2.6261e-01,-6.9265e-02,5.0025e-02,-2.3975e-01,1.6389e-01,5.4822e-02,-1.1993e-01,2.6123e-01,3.3982e-01,3.7604e-01
-3.0130e-01,-1.1674e-01,-8.5751e-02,1.8554e-01,-2.7566e-02,1.9433e-01,2.2169e-01,-1.8820e-01,-9.4053e-02,-7.4318e-02,-1.0922e-01,9.9557e-02,1.9145e-01,-1.7392e-01,1.4162e-01,-2.9440e-01,1.0619e-01,-9.1317e-02,4.2341e-01,-9.1583e-02,1.6446e-01,-3.2781e-02,-1.2806e-01,4.2667e-02,-7.7270e-02,4.9349e-01,-7.8250e-02,1.0369e-01,-1.7231e-01,-1.4590e-01,-4.2898e-02,1.3990e-01,8.3584e-02,-3.0267e-01,1.8427e-01,-1.1170e-01,1.3938e-02,-1.7749e-01,5.8798e-01,-2.8544e-01,-1.8157e-01,8.7794e-02,-8.0123e-03
9.7585e-02,1.1367e-01,-1.4205e-01,2.3365e-01,-1.0423e-01,3.1792e-01,2.9816e-01,1.4768e-01,4.9721e-02,-2.3419e-01,2.3487e-01,1.0354e-01,-6.2438e-02,1.2868e-01,-1.2986e-01,-1.3602e-01,-7.9494e-02,7.7440e-02,-9.6960e-02,-1.0414e-01,-2.8661e-02,-1.5561e-01,-1.7026e-01,-2.6975e-02,-1.1212e-01,-1.1398e-01,-1.5533e-01,-2.1413e-01,-1.6585e-01,-7.9011e-02,-1.4767e-02,1.4302e-02,5.0403e-02,-3.6259e-02,1.2625e-01,1.2377e-01,1.7772e-02,-2.2015e-01,1.5131e-01,-2.6290e-01,3.3908e-02,9.1399e-02,2.6123e-01
-1.3836e-01,-7.7098e-02,1.6546e-01,-4.0883e-02,-3.9077e-01,-1.3828e-01,2.4387e-01,-9.3301e-02,5.4700e-02,-1.6315e-02,-4.5663e-01,1.8549e-01,1.9461e-01,-2.1574e-01,1.2001e-01,1.1465e-01,4.9810e-02,-1.1034e-01,2.7568e-01,-5.6889e-02,5.9818e-02,3.3687e-02,-2.9328e-02,-5.7326e-02,7.1550e-02,1.3381e-01,8.2831e-02,2.9983e-01,-2.2090e-01,-1.7923e-01,1.1722e-01,6.5668e-02,2.8584e-01,-3.7717e-01,1.1774e-01,-5.1653e-01,2.1849e-01,-1.8074e-01,3.2237e-01,-2.7368e-01,1.5116e-01,3.1638e-01,1.1665e-02
2.6669e-02,2.4196e-01,4.6692e-01,2.5884e-01,1.4688e-01,2.7521e-01,-2.4421e-01,8.3309e-02,-2.0733e-02,9.4540e-02,7.0797e-02,-3.6517e-01,-2.4524e-01,-8.4969e-02,-6.6610e-02,1.9057e-01,-4.9912e-02,-1.0485e-01,-1.3890e-01,6.2864e-02,-5.5731e-02,-3.5605e-03,8.4553e-02,-9.4760e-02,-3.2587e-02,2.8013e-01,-1.7375e-01,-1.6467e-01,-9.6169e-02,1.2378e-01,-3.1562e-01,3.2366e-01,-2.6781e-01,7.2464e-02,-2.2324e-01,4.6819e-01,4.6093e-02,2.9479e-01,-1.8390e-01,2.9591e-01,-2.1195e-01,-2.0745e-01,-1.8841e-01
4.8443e-02,2.0744e-02,3.3713e-02,2.0751e-02,2.1128e-02,-1.5438e-02,2.6435e-03,3.9615e-02,-4.9128e-02,-3.0398e-02,-2.6055e-02,-2.5828e-02,4.8653e-02,2.1830e-02,1.1224e-02,3.3358e-02,2.5783e-02,-1.0771e-02,4.8410e-02,1.7581e-02,2.1957e-02,-3.9609e-02,4.9171e-02,-1.4250e-03,1.2541e-03,4.1344e-02,9.3488e-03,3.6499e-02,1.7433e-02,-1.5609e-02,4.9252e-02,1.3615e-02,-3.6816e-02,4.3731e-02,-1.2308e-02,8.7860e-03,7.3392e-03,-7.8889e-03,-4.4327e-02,3.7121e-02,-3.6243e-04,-2.4447e-02,-9.6659e-03
-2.9966e-01,-1.3634e-01,3.8874e-02,4.2797e-02,-4.9355e-01,-2.5979e-01,-2.2001e-01,-3.1499e-01,-4.3474e-01,1.0338e-01,1.9299e-01,4.1325e-01,2.0884e-01,-2.5925e-01,3.4539e-01,2.0968e-02,-1.4579e-01,-1.5897e-01,-6.4039e-02,9.8718e-02,8.1561e-02,1.6503e-01,1.1511e-01,2.3322e-01,1.1589e-01,2.9453e-01,7.8551e-03,6.9889e-02,-7.4775e-02,1.5189e-01,4.6751e-01,-5.8058e-02,-7.8612e-02,4.0377e-01,2.7887e-01,2.2209e-01,-3.3064e-01,2.0780e-02,-1.8497e-01,-1.3386e-01,-2.1945e-01,-5.5203e-02,1.8126e-02
-2.3635e-01,-4.6144e-01,-2.9253e-01,-1.5394e-01,-8.3973e-02,-2.8988e-01,-1.6161e-01,-5.1711e-01,-2.5941e-01,6.5747e-02,-2.6606e-01,-9.3472e-03,1.7578e-01,2.5575e-01,2.0965e-01,-4.0747e-02,-1.6139e-01,-7.6217e-02,-4.2570e-02,2.2679e-01,6.6844e-02,7.9684e-02,3.2683e-01,2.0029e-01,1.6425e-01,1.3170e-01,2.1642e-01,1.9304e-01,1.8779e-01,9.6296e-02,2.1721e-01,1.0688e-01,4.2471e-02,2.4015e-02,1.0726e-01,-1.5927e-01,8.8862e-02,-1.7015e-01,5.4641e-02,-4.3594e-02,2.4372e-05,2.7328e-02,-1.2994e-01
1.1803e-02,-1.5845e-01,-1.4953e-01,1.6247e-01,3.0682e-01,-1.0758e-01,-1.2634e-01,3.6313e-01,3.8371e-01,-6.1487e-02,-3.3263e-01,-1.5071e-01,-7.4716e-02,1.0629e-01,2.1854e-01,7.4659e-02,-5.0991e-02,3.5568e-01,-5.0843e-02,-8.6733e-02,2.0476e-02,-5.2747e-02,1.0932e-01,-1.4686e-01,-1.5989e-01,-7.0572e-02,7.6280e-02,-1.9257e-01,-1.1827e-01,-3.7830e-02,-4.0414e-02,8.2414e-02,-1.2755e-02,-6.3139e-02,6.0138e-02,-1.0844e-01,1.3894e-01,-5.1357e-02,2.0949e-01,1.0094e-01,5.4761e-02,-1.3968e-01,-2.4429e-01
-2.9273e-03,-3.6224e-02,1.7302e-02,4.8682e-02,-4.1321e-02,9.0525e-03,1.8652e-02,4.4235e-02,3.7887e-02,-2.6749e-02,-4.0194e-02,4.8195e-02,4.1881e-02,-2.9290e-02,2.5105e-02,8.8697e-03,9.0743e-03,-3.4189e-02,1.6540e-02,4.2327e-02,-8.0492e-03,-2.3695e-03,-3.2828e-02,-3.5931e-02,3.4124e-02,4.9123e-02,-1.4081e-02,-5.3100e-03,2.0049e-02,3.5496e-02,5.9495e-03,4.4851e-02,-2.3516e-02,4.5649e-02,4.4354e-04,-4.0163e-02,4.7683e-02,-1.3325e-02,-4.1018e-02,-3.2331e-02,-1.0958e-02,-1.6328e-02,-4.8993e-02
1.5287e-02,1.8362e-02,-1.0123e-01,-1.1529e-01,1.2648e-01,-1.5070e-01,-2.0362e-01,-4.1710e-01,-2.4251e-01,-1.8302e-03,-1.6092e-01,-2.7259e-01,-6.2255e-02,2.2283e-01,3.4384e-01,2.3941e-01,-3.8806e-01,3.8602e-01,-1.1372e-02,-4.0280e-02,-1.3379e-01,-1.0515e-01,3.1074e-01,-2.5818e-02,-4.7671e-02,7.2655e-02,9.0866e-02,-2.0364e-01,6.8196e-02,5.5150e-02,-8.9156e-02,-2.7868e-02,-1.6830e-01,4.3583e-01,1.0782e-01,7.7506e-02,3.5574e-02,1.6888e-01,2.0305e-01,3.4114e-01,-3.2429e-02,-1.8751e-01,-1.9452e-01
8.2630e-02,5.1022e-02,1.7708e-01,1.4084e-02,-2.5524e-01,1.1488e-02,-6.9468e-03,-3.1147e-02,9.4934e-02,-1.7607e-01,-1.1936e-01,6.8661e-02,1.1335e-01,1.4152e-01,2.9476e-01,1.0427e-01,-3.2855e-01,3.1257e-01,-5.4552e-02,-2.1828e-01,-1.3558e-01,2.0672e-02,5.2143e-02,-1.6826e-01,-1.9875e-01,-2.0105e-01,-1.5601e-02,-2.0761e-01,-1.2977e-02,-3.2072e-02,-2.8853e-02,-8.8372e-02,-5.7765e-02,2.6329e-01,4.5031e-01,1.3348e-01,-5.5732e-02,-6.0022e-02,3.4813e-01,7.0999e-02,-1.8192e-01,-1.4745e-01,-7.2556e-02
3.9985e-02,3.0586e-01,2.3753e-01,3.4623e-01,-6.3110e-02,2.4358e-01,-1.0960e-01,-1.1468e-01,-3.5619e-01,1.7105e-01,3.8365e-01,5.5790e-03,-3.6301e-01,5.1912e-02,-1.7741e-01,3.9872e-02,-6.4145e-02,-2.2389e-01,-3.2758e-01,2.0434e-01,-1.6769e-01,2.1760e-01,-7.2569e-02,1.7031e-01,9.4302e-02,2.3899e-01,-2.9245e-01,-1.5455e-01,-1.1129e-01,1.0635e-01,1.8283e-01,1.4190e-01,-2.7889e-01,4.4366e-01,2.1629e-01,2.1318e-01,-1.0729e-01,-1.5856e-01,-2.1480e-01,1.0423e-01,-3.5207e-01,-1.2350e-01,-4.0336e-02
4.2066e-01,3.2837e-01,2.6085e-02,-1.5100e-01,6.9245e-01,9.3536e-02,9.0701e-02,7.3676e-02,3.3357e-01,-2.7637e-01,-2.7599e-01,-4.4472e-01,-1.8941e-01,1.9172e-01,-6.8427e-02,-3.6914e-02,-1.6118e-01,3.6749e-01,9.7194e-02,2.7279e-02,-2.5876e-01,5.4825e-02,1.4960e-01,-3.4575e-01,6.1499e-02,-2.2073e-02,1.4383e-01,-3.8820e-02,-7.8325e-02,1.1713e-02,-1.9608e-01,2.1593e-01,-6.7176e-02,-3.6094e-02,-2.7267e-01,-1.7512e-01,5.7233e-03,1.1977e-01,-2.3238e-01,3.5528e-01,9.0519e-02,-1.6121e-01,-1.3583e-01
3.3786e-02,2.4314e-02,5.0850e-02,7.1116e-02,3.1864e-02,1.7277e-01,-1.2210e-02,-5.1231e-02,-2.1298e-01,-1.0651e-01,1.6102e-01,1.1754e-01,-1.2689e-01,6.3360e-03,-4.1421e-02,-3.2564e-02,-1.5951e-02,-4.4077e-02,5.6268e-02,-2.7502e-02,4.0418e-02,-2.6499e-02,3.8011e-03,-4.5451e-02,4.9494e-02,1.6371e-01,8.9852e-02,3.3878e-02,-1.0516e-01,-2.1487e-02,-2.9084e-02,1.0054e-02,4.1340e-02,6.6931e-02,-1.8943e-03,-2.4383e-02,8.2931e-02,6.3402e-02,-8.2708e-03,-5.9911e-02,-8.9623e-02,6.7429e-02,3.7519e-02
-6.3921e-02,-8.1381e-02,-4.6722e-02,1.2566e-01,3.7379e-02,-7.1398e-03,5.6436e-03,-5.8563e-02,1.3817e-02,1.8125e-03,-1.4117e-01,-2.5318e-02,-2.6214e-02,1.6715e-03,-1.1888e-01,2.2706e-02,6.1976e-02,6.3497e-02,2.8424e-02,6.1061e-02,-2.8838e-02,-2.7226e-02,-1.5149e-02,1.5170e-01,6.1669e-02,-2.0329e-01,-4.8751e-02,-5.0882e-02,5.4990e-02,5.8268e-02,1.6339e-01,5.6449e-02,1.4239e-02,-2.6628e-02,5.0162e-02,-2.4973e-02,6.6093e-02,-2.2582e-01,9.7565e-02,-4.2673e-02,3.3031e-02,8.2005e-02,-1.0056e-03
-8.5335e-02,-4.5256e-01,-7.4618e-02,-2.2604e-01,2.7323e-01,-1.1838e-01,-5.4220e-02,-9.1597e-02,1.0105e-01,8.8863e-02,8.2854e-02,-2.7795e-01,3.5110e-02,1.2432e-01,1.3874e-02,8.6288e-02,-1.3515e-02,3.8063e-02,2.9927e-01,-1.1548e-01,9.1558e-02,-3.0325e-01,1.9392e-01,-1.1726e-01,-2.9261e-02,-9.1169e-02,2.6524e-01,-1.5242e-01,1.3922e-01,6.2805e-03,-2.0183e-01,-4.3785e-02,-1.6833e-02,-3.2910e-01,-1.1904e-01,1.2111e-01,3.3593e-01,-2.5813e-02,3.9019e-01,7.4498e-02,3.8758e-02,8.9027e-02,-7.2348e-02
-1.3267e-02,3.7757e-02,2.7272e-04,-4.0229e-02,-4.3842e-02,-1.7019e-02,-3.1541e-02,1.3982e-02,-3.8747e-02,-4.2761e-02,-1.2349e-02,-1.7162e-02,5.2156e-02,4.6062e-02,-2.5573e-02,-2.0618e-03,-1.4422e-02,-2.7288e-02,6.7623e-03,-3.9190e-03,-1.1413e-02,-2.0649e-04,-2.8997e-02,4.2886e-02,9.1852e-03,-2.8617e-02,2.5651e-02,-4.2339e-02,-1.1763e-02,9.7431e-03,-4.5416e-02,-1.2782e-03,4.0462e-02,1.6530e-04,-2.4954e-03,4.5299e-02,2.8347e-02,4.8763e-02,4.6777e-02,-2.7909e-02,-5.2981e-03,2.0038e-02,2.5612e-02
1.5321e-01,4.2567e-03,-1.4885e-01,-1.3765e-02,1.0683e-01,1.1822e-01,-2.2962e-01,4.6328e-02,-4.5186e-02,1.8833e-01,-3.0612e-02,-1.9882e-01,-2.8570e-01,1.1795e-01,1.6486e-02,1.5295e-01,-2.1590e-01,-9.1260e-02,-2.8225e-01,3.2358e-02,1.0930e-01,1.4428e-02,1.5826e-01,-7.8349e-02,3.5152e-02,1.1590e-01,1.6555e-01,-2.1686e-02,2.1671e-01,1.5045e-01,1.5327e-02,-5.4045e-02,-2.1956e-02,1.4602e-01,7.7860e-02,2.9437e-02,7.8263e-02,1.2420e-01,-1.0228e-01,-4.7881e-03,-1.9599e-01,-7.1008e-02,-1.1834e-01
2.3085e-01,2.1448e-01,-6.7254e-02,-4.6355e-02,1.9820e-01,1.0805e-01,-1.1330e-01,2.0775e-01,2.4611e-01,1.2391e-02,1.0925e-01,-5.5932e-02,2.1625e-01,1.8545e-02,2.7344e-01,1.3796e-01,-1.2333e-01,1.2474e-01,-1.8305e-01,-1.2230e-01,-2.6071e-01,-1.3724e-01,-1.1522e-01,-1.8757e-01,-1.9472e-01,-1.1653e-01,-1.9569e-01,-1.9640e-01,-1.3355e-01,7.5573e-02,-4.2910e-02,-1.4951e-01,4.4911e-02,2.3061e-01,-3.0141e-02,1.1122e-01,1.6185e-01,4.4116e-02,-3.2381e-01,1.0827e-01,-4.2528e-03,-1.5378e-01,-1.7518e-03
8.3985e-02,1.9374e-01,8.9934e-03,-4.5510e-01,1.2410e-01,-4.7186e-01,-2.6342e-01,-1.8757e-01,-7.7264e-02,-3.6427e-01,-4.5141e-01,-1.4405e-01,5.8561e-02,-1.0649e-01,4.8944e-01,1.3846e-01,-4.5952e-01,5.2111e-01,3.3579e-02,1.6920e-01,-7.0868e-02,1.0439e-01,4.4327e-01,-6.5663e-02,2.7649e-01,-6.2595e-03,2.2879e-01,1.7406e-01,1.6556e-01,2.0773e-01,2.4152e-01,-1.5567e-02,7.0637e-02,-9.0487e-02,-1.0368e-01,-2.6115e-01,-1.3248e-02,2.1162e-01,-1.3544e-01,2.9540e-01,1.1557e-01,-1.5176e-01,-2.8682e-01
3.0318e-02,-1.7570e-01,-4.0946e-01,-1.5621e-01,2.5242e-02,-3.9966e-02,-1.9378e-01,1.7673e-01,4.0244e-02,3.1169e-01,4.4431e-01,-8.1807e-02,-8.5041e-02,3.1861e-01,-3.3580e-01,7.7263e-02,3.4719e-01,-2.9710e-01,1.8952e-01,-3.7769e-03,-1.9347e-02,-1.0485e-01,-1.2408e-01,-5.2520e-02,-1.0269e-01,-4.7270e-01,6.1874e-02,5.6928e-02,-1.8005e-02,6.1390e-04,-2.0316e-01,-1.1237e-01,-2.3936e-01,1.5278e-01,6.8143e-02,3.0118e-01,-2.7071e-01,2.9852e-01,1.2521e-01,2.7762e-01,2.5162e-01,-7.2013e-02,-1.9047e-02
-9.7772e-02,-6.6925e-02,2.6218e-01,-6.7096e-02,2.1382e-02,-9.9196e-02,-8.8446e-02,2.5827e-02,-3.7429e-02,7.0397e-02,3.0507e-01,4.1887e-02,2.1497e-01,-1.0116e-01,1.1570e-01,-4.0769e-02,1.3171e-02,-2.7697e-02,-1.1837e-01,7.8036e-02,1.7699e-02,-1.7771e-02,-3.1346e-02,6.4293e-02,-1.8980e-03,-2.8413e-01,-1.1141e-01,-1.5139e-02,1.0178e-01,-3.0461e-02,-5.8705e-03,-2.6744e-02,-5.9873e-02,2.0446e-01,-1.0961e-01,1.0180e-01,-6.4317e-02,8.4212e-04,-1.4326e-01,1.5376e-01,2.4620e-02,-5.2048e-02,-5.0268e-03
-9.0153e-02,-6.0089e-02,2.2633e-01,3.4100e-01,-1.4473e-01,-1.8038e-02,1.5610e-01,9.9782e-02,2.9936e-01,-1.1812e-01,-1.3312e-01,9.6313e-02,1.4388e-01,3.6706e-01,3.8515e-01,1.4610e-01,-3.1064e-01,3.6548e-01,-4.1698e-02,-2.8151e-01,-7.4354e-02,-2.0002e-01,-2.9691e-02,-3.2890e-01,-2.3823e-01,8.1497e-02,-2.4761e-01,-2.9800e-01,-2.3128e-01,-1.6910e-02,1.3032e-01,-7.5516e-02,8.0924e-03,3.4228e-01,2.8041e-01,-6.3849e-02,1.9307e-01,-1.3589e-01,1.8456e-01,-1.7624e-01,-1.3702e-01,-1.9069e-01,-6.0689e-02
4.4176e-01,1.9255e-01,2.1078e-01,-1.2826e-01,4.5916e-01,-3.9771e-02,-4.5764e-02,1.4325e-01,2.3519e-01,-2.0360e-01,-4.8942e-01,-4.1965e-01,-3.0948e-01,1.0555e-01,-6.7925e-02,1.8405e-01,-1.0022e-01,2.5876e-01,8.5551e-02,-5.6759e-04,-2.0510e-02,-1.7654e-01,1.4400e-01,-3.2835e-01,2.2096e-02,-1.8029e-01,2.0801e-01,1.2209e-02,1.3707e-01,-6.4464e-02,-1.6769e-01,3.1825e-03,1.5248e-01,-1.2999e-01,-2.1426e-01,-2.8566e-01,2.5137e-01,2.0781e-01,-1.5385e-01,8.6460e-02,1.5317e-01,1.4046e-03,-7.9740e-02
1.3930e-01,2.1149e-01,-7.5196e-02,8.7528e-02,1.6000e-01,1.6267e-01,3.3123e-01,6.5594e-02,-6.9888e-02,9.0406e-02,2.2199e-01,-2.6301e-01,8.4164e-02,1.2558e-01,1.2557e-01,-2.1777e-01,2.2816e-01,4.4202e-03,7.0967e-02,-1.4804e-01,-8.3955e-02,-2.0086e-01,-9.8615e-02,-4.8326e-02,-2.6235e-01,2.1004e-01,-2.9743e-01,-1.8901e-01,-1.8240e-01,-2.5586e-01,-8.5913e-02,-1.4574e-01,9.4014e-02,-2.6672e-01,1.5534e-01,1.2230e-01,2.7556e-01,-2.7841e-01,3.7019e-01,-9.7679e-02,-6.1377e-02,1.1800e-01,2.1551e-01
3.2058e-02,7.9784e-02,-1.1285e-01,-1.3532e-01,-3.0740e-01,-2.8372e-03,3.6424e-02,1.0217e-01,-7.5190e-02,1.4098e-01,2.5709e-01,9.9433e-02,4.3805e-02,-1.4513e-01,-4.4541e-02,6.8530e-02,1.4934e-01,-2.2446e-01,-7.2977e-02,-9.2442e-02,4.4555e-02,8.9785e-02,-1.6409e-01,1.9902e-01,6.2873e-02,-3.3912e-01,-9.0700e-02,-1.7783e-03,-5.8380e-02,-8.7080e-02,1.1426e-02,-7.6377e-02,1.7733e-01,-2.5942e-01,1.3508e-02,-8.4709e-02,-1.3845e-01,-5.4036e-02,1.3458e-01,-1.1317e-01,2.3661e-01,1.6568e-01,2.6442e-01
-3.4571e-02,-9.3546e-02,8.1579e-02,3.0385e-01,-2.9637e-01,1.9120e-01,7.1054e-02,-2.9913e-01,-1.3974e-01,3.3501e-01,1.5753e-02,3.1130e-02,-2.8934e-01,1.3972e-01,-1.1673e-01,-2.2833e-02,-8.8627e-02,-2.1098e-01,-3.2713e-01,1.2183e-01,2.8489e-02,1.0811e-01,-2.6623e-02,2.9538e-01,1.6185e-01,1.5572e-01,-1.2824e-01,-1.9411e-02,1.9800e-01,2.1450e-01,2.3074e-01,-1.3915e-03,-8.8291e-02,2.4363e-01,7.8094e-02,1.0841e-01,-7.9829e-02,-2.4273e-01,-1.7701e-01,-1.1695e-01,-2.4097e-01,-1.0135e-02,-3.3301e-02
-2.6762e-03,4.7554e-02,1.2209e-01,2.3989e-01,-1.0385e-01,1.1395e-01,4.2311e-02,2.6186e-01,1.9992e-01,8.8272e-02,1.1537e-01,8.0646e-02,8.9012e-02,-1.3760e-01,1.3602e-02,2.2959e-01,1.7057e-01,-4.7364e-02,-9.7669e-02,-7.8673e-02,-7.5073e-02,-1.4585e-01,-2.0953e-01,-4.6704e-02,-1.6213e-01,-3.3182e-01,-9.4147e-02,-6.0468e-02,-1.6758e-01,-9.4160e-02,-3.6467e-02,-2.5896e-01,1.3530e-01,-2.1000e-02,1.8779e-01,-5.4513e-02,6.6537e-02,6.6510e-02,1.0621e-01,-1.0907e-01,9.5667e-02,8.2895e-02,3.4252e-02
-2.3710e-01,-2.3024e-01,-2.3869e-01,-3.2391e-02,-4.8546e-02,7.7064e-02,-3.6393e-01,1.3818e-01,-8.0545e-03,5.9122e-01,3.0251e-01,-7.6706e-03,-2.4322e-01,1.4263e-01,-4.2859e-01,1.5270e-01,5.4097e-01,-5.8278e-01,6.7247e-02,1.0721e-01,1.3279e-01,1.2538e-02,1.1913e-02,9.8068e-02,1.5698e-01,1.0317e-01,1.0661e-01,2.0386e-01,1.2280e-01,9.0511e-03,-5.0704e-02,-1.3775e-01,-2.8662e-01,-1.6275e-01,-9.6839e-02,1.7780e-01,-9.7805e-02,3.1989e-01,-3.4852e-01,1.2173e-01,4.3931e-02,3.4568e-03,-1.5110e-01
3.9312e-02,-2.3841e-02,4.1035e-02,6.5627e-04,1.1544e-02,2.5453e-02,6.1166e-03,2.2013e-02,-3.0453e-02,-2.3531e-03,-3.7286e-02,-5.4545e-04,4.2270e-02,-4.0924e-02,4.8499e-02,4.8553e-02,2.7009e-03,-4.9063e-02,-8.3629e-03,4.3063e-03,-1.6950e-02,-1.7109e-02,3.8817e-02,9.3027e-03,6.4016e-03,-1.8938e-02,4.7973e-03,-4.5443e-02,3.2742e-02,3.5028e-03,-2.7173e-02,3.3179e-02,-3.5237e-02,-1.4666e-02,-4.4797e-03,-4.6778e-02,2.1389e-02,-3.4892e-02,-1.2955e-02,-3.1558e-02,2.4352e-02,4.5895e-02,-3.3480e-02
-6.2989e-02,-3.6967e-01,1.0838e-01,1.3528e-01,-2.9214e-01,5.4374e-02,-1.9211e-01,-1.3040e-01,-1.0608e-01,1.2772e-01,2.4423e-02,-1.3831e-01,-3.0766e-01,6.1056e-02,5.2521e-02,1.0434e-01,-1.2269e-03,-2.6426e-01,6.6745e-02,-8.4668e-02,2.9448e-01,-1.0821e-01,8.5447e-02,4.4138e-02,1.8316e-01,7.2104e-02,1.6976e-01,7.7720e-02,1.1852e-01,7.8635e-02,8.9514e-02,-1.1342e-01,-9.5975e-02,-8.9723e-02,1.5457e-01,-5.4685e-03,-4.3459e-02,1.0065e-01,2.4067e-01,-2.8024e-02,-3.5975e-02,-1.3545e-02,-1.1299e-02
3.9612e-03,-3.4735e-01,-8.3881e-02,-3.2752e-02,-1.4314e-01,2.2528e-02,3.1747e-01,5.3557e-01,-2.2081e-02,3.4264e-01,5.9347e-01,3.0802e-01,6.8617e-01,-1.4490e-01,-1.7816e-01,-2.1285e-01,5.8459e-01,-4.2476e-01,-1.4248e-01,-2.7063e-02,-7.7267e-02,-7.6592e-02,-5.0433e-01,9.1768e-02,-1.4213e-01,-3.6048e-01,-2.4009e-01,-2.2029e-02,-6.7718e-02,-2.9951e-01,1.1117e-01,-2.7097e-01,9.5630e-02,-9.2530e-02,-2.5403e-01,3.9003e-02,-8.4830e-02,-1.2720e-01,-1.3552e-01,-1.6991e-01,2.0898e-01,3.5526e-01,4.7830e-01
-1.9406e-01,-5.2573e-01,7.8991e-02,-1.9246e-01,-2.0390e-02,6.7325e-02,-2.6242e-01,-1.3479e-01,-9.1527e-02,-1.9179e-01,-4.6172e-02,-1.7467e-01,-2.4139e-01,1.1531e-01,4.4228e-01,-1.3110e-02,-2.0467e-01,1.5985e-01,4.9988e-01,-9.7664e-02,1.6907e-01,-1.3556e-01,3.1721e-01,-2.1869e-03,8.3030e-02,1.4359e-01,3.4145e-01,5.9984e-02,-1.7137e-03,1.0615e-01,3.3670e-02,-7.8165e-02,-2.1125e-01,-1.0575e-01,2.3472e-01,-1.1314e-01,9.5523e-02,3.0847e-01,5.2221e-01,2.4014e-01,-1.8509e-01,-2.3641e-01,-2.7193e-01
1.2010e-01,-1.2692e-01,-2.1411e-01,1.0630e-01,3.6373e-01,2.9070e-01,-5.4777e-02,-2.0660e-01,9.1324e-03,7.8687e-02,-1.6825e-01,-4.0842e-01,-8.7303e-02,2.1332e-01,1.3138e-01,2.0388e-01,8.6689e-02,1.6822e-02,1.1876e-02,9.6870e-03,-5.1523e-02,-1.9360e-01,1.8157e-01,-8.6271e-02,-6.2174e-02,2.9104e-01,8.7870e-02,-1.3201e-02,-7.9270e-02,-6.3947e-02,-3.3689e-01,6.8835e-03,2.6492e-02,-2.5333e-01,-1.2258e-02,3.1999e-02,5.0999e-01,-1.0815e-01,1.6896e-01,-4.4167e-02,-1.0798e-01,-8.6167e-02,-1.3753e-01
-1.3923e-02,-3.8492e-03,-3.6300e-02,2.3709e-02,1.8815e-02,2.2444e-02,-4.9071e-02,1.9204e-02,-2.6167e-02,-1.8993e-02,-4.0107e-04,-3.9189e-02,1.5933e-02,2.3350e-02,2.3422e-02,-1.8995e-02,3.4638e-02,-4.1811e-02,-2.7316e-02,4.7631e-02,-1.8753e-02,-6.4182e-03,3.6313e-02,-2.8942e-02,9.5822e-03,1.1875e-02,1.7276e-02,-4.8801e-02,1.7508e-02,2.1074e-02,3.7958e-02,1.5890e-02,-2.0615e-03,3.2852e-02,4.4396e-03,-3.2656e-02,2.3227e-02,4.0024e-02,4.0662e-02,-4.0477e-02,3.4353e-02,3.2318e-02,4.0200e-02
1.2402e-01,2.9425e-01,3.5497e-01,3.1343e-01,-1.5856e-01,8.7072e-02,4.2978e-03,3.5751e-01,-8.1051e-02,2.4768e-01,-1.0064e-01,3.0968e-01,-2.7768e-01,-2.7023e-01,-5.1015e-01,2.9224e-02,2.8400e-01,-4.4341e-01,-3.8086e-01,2.1666e-01,-2.6932e-02,3.4725e-01,-3.4692e-01,1.5525e-01,1.0184e-01,-4.2356e-01,-4.3659e-01,6.8328e-02,2.9024e-01,-5.8096e-03,2.3849e-01,4.6016e-02,8.4861e-02,8.8083e-02,6.4766e-02,-2.0884e-03,-2.0143e-01,-1.7463e-01,-4.0521e-01,-1.8194e-01,6.3626e-02,1.1368e-01,6.5840e-02
8.8971e-03,2.9057e-02,1.5603e-02,-1.3394e-02,7.1545e-03,3.3918e-02,-4.8313e-03,-2.9192e-02,4.7906e-02,-3.2503e-02,3.4402e-02,-8.5898e-03,-4.0648e-02,-1.1292e-02,5.6693e-03,2.7683e-02,2.1544e-02,-3.7312e-02,2.6161e-02,-3.9540e-02,1.5154e-03,9.1461e-03,3.7540e-02,-3.4640e-02,2.3323e-03,-3.8170e-03,-4.3573e-02,4.9297e-02,3.7925e-02,-2.3916e-04,3.3461e-02,3.0423e-02,-2.3610e-02,3.1779e-02,3.6433e-02,-4.5867e-02,-1.2232e-02,-3.3615e-02,-3.5550e-02,-7.6999e-03,6.6750e-03,-3.6726e-02,1.1520e-02
-4.0936e-01,-3.7482e-01,-3.5820e-01,-2.5756e-01,-2.9716e-01,-1.3851e-01,1.5429e-01,8.7779e-02,1.5029e-01,-3.6808e-03,1.8733e-01,3.4490e-01,1.8713e-01,-2.3173e-01,9.0362e-02,-6.4673e-02,-5.9962e-02,-5.4654e-02,2.9931e-01,-9.3580e-02,1.3657e-01,-3.3007e-02,-1.2848e-02,7.9669e-02,8.6338e-02,1.3835e-01,2.0274e-01,1.6663e-01,4.4634e-02,1.2399e-02,4.0490e-01,-2.0479e-02,5.2445e-02,-1.0827e-01,3.0769e-02,-1.7925e-01,-4.9577e-02,-1.3976e-01,1.7902e-01,-2.8763e-01,-6.7865e-03,7.5026e-02,1.2414e-01
-1.6533e-02,-4.4650e-02,-4.0877e-02,2.3768e-02,1.3591e-02,-4.3013e-02,-1.2518e-02,-3.5741e-02,-2.3035e-02,2.1302e-02,7.0242e-03,2.1525e-02,-4.3074e-02,-1.2540e-02,-3.5415e-03,4.5892e-02,2.5431e-02,3.4590e-02,-2.5665e-02,3.3251e-02,8.0007e-03,9.0450e-03,2.8921e-02,2.7338e-02,1.4199e-02,-1.7057e-02,-3.0576e-02,3.9276e-02,-3.5740e-02,2.4125e-02,2.9608e-02,-1.7342e-02,1.5532e-02,4.2129e-02,2.5658e-02,2.5103e-02,2.7492e-03,1.3165e-02,4.7454e-02,-3.0172e-02,-2.6018e-02,2.8248e-02,1.2076e-02
4.3924e-02,-3.9156e-02,-2.1577e-02,1.7209e-02,-4.3832e-02,-4.5024e-02,3.1575e-02,-2.7431e-03,2.9975e-02,1.5363e-02,1.8635e-02,-3.0878e-02,4.3461e-02,-3.2062e-02,-2.5217e-03,-2.7992e-02,-3.5700e-02,-9.5242e-04,-4.6564e-03,2.9969e-02,4.0001e-02,4.4310e-02,-9.6932e-03,3.8421e-03,-2.8773e-02,-3.4267e-02,-7.3400e-03,-4.0459e-02,-3.8368e-02,3.0962e-02,-1.3842e-02,-8.9635e-03,-2.9798e-02,-4.7116e-02,4.1066e-04,-1.5558e-03,-2.7784e-02,-2.5217e-02,-4.6353e-02,-1.1967e-03,-3.2384e-02,-2.9917e-02,-1.3631e-02
-1.4777e-01,-3.3434e-02,-3.2789e-01,-1.9640e-01,4.8069e-02,1.4974e-01,-1.0518e-01,1.8811e-02,-1.2393e-01,1.1904e-01,1.4558e-02,1.2440e-01,-3.7417e-02,2.1064e-01,-3.9795e-01,6.2452e-02,-5.6375e-02,-1.8148e-01,4.0538e-01,-5.7899e-03,-2.6174e-02,2.7859e-02,-4.2404e-02,-4.4092e-02,7.8203e-02,2.2381e-01,2.5304e-01,1.6523e-01,-7.4339e-02,2.5594e-02,8.8892e-02,1.9921e-01,-1.2552e-01,1.0971e-01,-1.1344e-01,-1.9920e-01,-9.1586e-02,-2.3099e-02,-8.8035e-02,7.2359e-03,-1.0472e-01,-3.2400e-02,-3.7880e-02
2.3730e-01,1.9596e-01,-3.1994e-01,-5.1848e-02,5.6392e-01,9.8059e-02,6.3971e-03,-2.9663e-01,-6.5631e-02,-3.4708e-01,-3.9423e-02,-2.7784e-01,8.0165e-02,9.4314e-02,-1.0059e-01,7.5312e-02,-1.0585e-01,3.1841e-01,1.0892e-01,-1.7399e-02,-1.3960e-01,-6.2413e-02,1.5136e-01,-1.9526e-01,3.2019e-02,-1.2182e-01,5.0402e-02,-5.7499e-02,-6.5496e-02,1.2382e-01,-9.4081e-02,5.5700e-02,1.0544e-02,-6.8649e-02,-5.1009e-02,1.9507e-01,-3.2060e-02,1.0606e-01,-2.7249e-01,2.5003e-01,4.0631e-02,-1.9897e-01,-8.1690e-02
-1.6854e-01,-1.4605e-01,-2.4382e-01,5.1041e-02,-2.5006e-01,3.4761e-01,1.1393e-01,1.9848e-01,3.2572e-01,-5.2279e-02,1.8738e-01,8.3287e-02,-5.9024e-02,-3.6705e-01,-1.8216e-01,9.0562e-02,1.5924e-03,-5.1668e-02,2.1937e-03,1.0682e-01,3.0127e-01,3.2920e-01,3.0968e-02,4.4381e-01,-1.9066e-01,1.1004e-01,4.4537e-02,1.0987e-01,1.3275e-01,1.9175e-01,4.0296e-03,3.2723e-01,-6.3491e-02,-1.5977e-01,-1.5357e-01,-2.1251e-01,-2.7563e-01,-1.3881e-01,-3.1546e-01,1.6579e-02,-2.9677e-01,-1.5897e-01,-9.8405e-03
-1.4427e-02,1.1858e-01,-4.9803e-02,-5.8460e-02,-8.5127e-02,-3.6036e-02,1.3426e-02,-1.4099e-03,-6.7138e-03,-1.0489e-02,-5.5014e-02,1.6181e-02,8.9272e-02,-2.9733e-02,-3.6425e-02,-2.5909e-02,-1.7546e-02,3.4725e-02,1.0307e-02,-6.1579e-02,3.0939e-02,-3.1520e-02,-5.3616e-02,5.4669e-02,-4.9082e-02,-1.8248e-02,-7.0546e-02,-2.1030e-02,-9.5144e-03,-2.4685e-02,8.3047e-03,4.4913e-02,-3.0584e-02,-2.3454e-02,4.7279e-07,1.1204e-01,-1.3746e-04,-3.9934e-03,1.3909e-02,1.2756e-01,-2.0119e-02,-5.5240e-02,1.3405e-03
2.6102e-02,-1.0536e-02,4.4376e-02,9.6362e-03,-1.2382e-02,-8.4284e-03,-1.0855e-02,-2.8687e-02,2.3897e-02,-3.9335e-02,-3.6601e-02,-4.5628e-02,-4.0607e-02,-1.7862e-02,-2.8919e-03,2.6809e-02,4.6806e-03,9.3915e-03,4.4149e-02,-3.9389e-02,9.8525e-03,-2.0441e-02,2.7818e-02,6.9089e-03,-4.4595e-03,-2.5189e-03,-2.4792e-02,-6.4290e-03,3.2735e-02,-2.1972e-02,3.2226e-02,2.2591e-02,3.8990e-02,4.6645e-02,-4.3732e-02,2.6025e-02,-2.0055e-02,-2.4039e-02,2.4956e-02,1.3156e-03,1.2401e-02,-2.0936e-03,2.2921e-02
6.6952e-02,-8.9678e-02,1.3083e-01,1.3808e-01,-8.2877e-02,5.5536e-02,1.4515e-01,2.3305e-01,-5.4747e-02,-4.2531e-02,-1.3638e-03,7.5852e-02,-1.1033e-01,-8.6882e-03,-2.3263e-02,-1.0512e-01,3.5641e-02,-1.0242e-02,6.2514e-02,-6.8211e-02,-7.2787e-02,-2.5758e-02,-1.0712e-01,-7.9797e-04,-7.9639e-02,8.0780e-02,3.9079e-03,3.3095e-03,-1.1966e-01,-1.0341e-01,-2.9891e-02,1.6518e-02,-7.8698e-02,1.4572e-02,-5.0313e-02,-4.3276e-02,-9.2591e-02,9.6826e-02,9.4121e-03,-3.5263e-02,-3.5087e-02,-5.1407e-02,7.5395e-02
-5.6562e-02,-5.1280e-02,3.4472e-02,-6.2529e-02,4.0759e-03,5.3878e-02,1.7533e-02,-1.0716e-01,-2.8395e-02,2.7907e-02,3.9116e-02,4.7755e-02,-1.7437e-02,9.2304e-02,4.6432e-02,-6.4601e-02,1.4598e-02,1.0497e-02,-4.7210e-02,3.7641e-02,-4.2879e-02,9.3108e-03,-5.5251e-03,3.8833e-03,-3.0816e-02,-2.1591e-02,2.6873e-02,-4.4593e-02,-7.0690e-03,-3.4234e-02,2.2058e-02,-1.0547e-01,3.9712e-02,5.7545e-02,3.9996e-03,-4.5332e-02,-8.5727e-03,-2.8897e-02,2.8357e-02,-1.1399e-02,1.1321e-01,-6.2000e-03,7.8978e-02
-1.3176e-02,-1.4108e-01,-1.8351e-01,7.6974e-02,1.3668e-01,-1.7724e-01,-2.0511e-01,-1.6135e-01,-1.5982e-01,1.0205e-01,-2.6093e-01,-1.5097e-01,-1.5620e-01,-6.5176e-02,-1.1003e-02,-4.6228e-03,1.8517e-01,-7.6441e-02,3.9074e-02,7.2236e-02,1.0911e-01,7.7584e-02,1.9816e-01,8.5637e-02,9.4586e-02,-2.7277e-01,6.0347e-03,8.1214e-02,2.9622e-01,6.0543e-02,4.4064e-02,-1.3677e-01,5.5596e-02,-4.6534e-02,3.6613e-01,5.7483e-02,1.7905e-01,6.3719e-03,2.7898e-01,6.9086e-02,-3.2299e-02,-7.1264e-03,-2.3098e-01
3.1517e-01,4.8125e-01,6.9177e-02,-2.6211e-01,3.6362e-01,-1.1809e-01,-1.0719e-01,7.9258e-02,6.3798e-02,-2.4587e-02,-2.9468e-01,-2.6862e-02,2.3801e-01,-2.6050e-01,2.5170e-01,7.9956e-02,-1.8190e-01,3.2582e-01,1.1677e-01,6.2702e-03,-2.5968e-01,2.7659e-02,-8.5904e-02,-7.0631e-02,8.8433e-02,-1.5877e-01,-9.3606e-02,8.9046e-02,-8.5411e-02,3.4939e-02,-7.2487e-02,9.4458e-02,-4.5715e-02,9.5919e-02,-1.7895e-01,-3.0242e-01,-2.4084e-01,1.1193e-01,-3.6030e-01,3.2071e-01,7.0167e-02,-2.3073e-01,-1.8040e-01
1.4642e-01,2.7099e-01,1.4400e-01,4.3354e-01,1.0925e-01,5.3726e-01,-1.6495e-02,3.1173e-01,5.0662e-02,1.8860e-01,4.5436e-01,-3.4150e-01,-4.2469e-02,-1.5040e-01,-4.9950e-01,5.7324e-02,2.9906e-01,-3.7468e-01,-3.8372e-01,1.5250e-02,3.5045e-02,7.9395e-02,-2.8930e-01,1.9764e-02,-8.7675e-02,-9.4532e-02,-3.4180e-01,-1.9737e-01,1.0336e-01,-8.8914e-02,-9.3049e-02,-1.3486e-01,-9.6099e-02,-7.3183e-02,-1.0547e-01,4.0341e-01,-4.9578e-02,4.1987e-02,-1.2669e-01,7.9241e-03,-1.2091e-01,6.4508e-02,1.2596e-01
4.3274e-02,-3.4591e-02,-3.9690e-02,-3.6328e-02,4.9688e-02,2.7435e-02,3.2002e-02,-4.5468e-02,4.1100e-02,-7.7700e-03,-3.6174e-03,3.9303e-02,-1.7745e-02,-3.1810e-02,-1.1782e-02,1.3500e-02,2.3682e-02,-4.4543e-02,-9.1942e-03,-4.0507e-02,2.8498e-02,-2.3416e-03,-2.7881e-02,-9.2806e-04,2.6018e-02,-1.1882e-02,-2.5532e-02,-2.8888e-02,-4.7569e-02,-3.8380e-02,2.6388e-03,3.4101e-02,2.7810e-02,-2.6400e-02,-5.1735e-03,4.4212e-02,4.8423e-02,-2.2435e-02,3.7873e-02,-1.1905e-02,4.9166e-02,-1.5498e-02,-2.7237e-02
-1.1332e-01,-9.4337e-02,1.7506e-01,-4.9399e-01,-1.3256e-01,-3.2173e-01,-2.1513e-01,2.0462e-01,1.4109e-01,-5.7323e-02,1.7751e-01,4.6473e-02,3.0195e-01,1.8121e-01,1.8729e-01,9.3833e-02,5.5398e-02,1.1426e-01,1.7270e-01,-1.6696e-02,-2.2238e-01,1.5348e-01,7.9272e-03,-4.2856e-02,-1.2591e-02,-2.9822e-01,1.1440e-01,8.3229e-02,-1.7523e-01,-5.3496e-02,-2.3225e-02,1.1216e-02,-9.8814e-02,3.3791e-01,-2.4126e-01,-1.0733e-01,-3.2185e-01,3.8339e-01,-1.6379e-01,2.8305e-01,2.8431e-01,-1.6775e-01,1.3394e-03
-3.0300e-01,-5.8065e-02,4.6137e-01,3.2515e-01,-3.0508e-01,2.8099e-01,-1.4420e-01,3.6100e-01,1.7399e-01,2.2217e-01,8.2080e-01,2.6005e-01,-1.0985e-02,2.4860e-01,-2.4374e-01,-1.7754e-01,-4.2663e-03,-2.9597e-01,-1.5540e-01,-1.9087e-02,1.4907e-02,-2.6533e-02,-3.6974e-01,1.2927e-01,-1.3444e-01,1.0379e-01,-2.5510e-01,-3.0335e-01,-2.7922e-01,-5.7375e-02,1.7119e-02,1.9774e-01,-4.0296e-01,3.3764e-01,-1.8984e-01,3.4671e-01,-4.1295e-01,8.7528e-02,-6.1698e-02,9.6203e-02,-9.9113e-02,-2.0457e-01,1.1020e-01
-2.3073e-01,-4.6869e-01,-1.4156e-02,9.8433e-02,-1.9324e-01,2.5388e-01,-3.1405e-01,3.7535e-01,2.8433e-01,5.7156e-01,5.9093e-01,-3.7019e-01,-2.3386e-01,-7.1561e-03,-1.2051e-01,2.9352e-01,1.7429e-01,-4.4103e-01,-3.6637e-01,5.9676e-02,5.2490e-02,-4.3726e-02,1.3305e-02,1.0077e-01,-1.3304e-01,5.4416e-02,-2.7610e-01,-2.0960e-01,1.0183e-01,1.0355e-01,-2.7035e-01,-3.8119e-02,-1.9333e-01,3.0778e-02,-6.2897e-02,7.0595e-01,3.0527e-01,6.7584e-02,1.5446e-01,1.9145e-01,-2.6625e-01,-1.7285e-01,-7.9908e-02
-4.4353e-02,-2.6902e-02,3.9202e-02,-3.7301e-02,2.3895e-02,-4.3622e-02,4.2391e-02,3.6553e-03,-4.0989e-02,2.7167e-02,-1.1232e-02,3.3313e-02,2.1386e-02,2.0223e-02,-3.9959e-02,-2.9171e-02,-4.3228e-02,-4.1028e-02,-1.2186e-02,-2.5269e-02,-3.4898e-02,3.5182e-03,-6.3987e-03,1.3865e-02,1.0283e-02,-4.9375e-02,4.7429e-02,-3.0724e-03,-8.9287e-03,2.9474e-02,-2.7254e-02,4.1999e-02,3.0718e-02,3.7587e-02,-1.5856e-02,-2.6168e-02,4.7088e-02,4.9477e-02,2.2542e-02,-4.4014e-02,1.1206e-02,-1.0012e-02,3.7441e-02
1.0908e-01,-8.7067e-02,-7.0571e-02,1.7114e-02,2.2886e-01,8.5722e-02,2.3631e-01,1.2174e-01,1.0041e-01,-9.3258e-02,-1.2214e-01,-4.9501e-02,-1.5709e-01,-8.3509e-02,-1.6202e-01,-5.7308e-02,-2.8419e-02,7.0670e-03,6.4594e-02,-6.6173e-02,-1.9884e-02,-1.2822e-02,-8.0238e-02,-6.9211e-03,-4.1634e-02,-9.3732e-02,-1.9651e-02,-2.6069e-02,1.4892e-01,-1.9301e-02,1.5259e-02,1.0721e-01,-1.5862e-02,-1.1208e-01,-2.7336e-02,3.5258e-02,7.2553e-02,-1.5494e-01,-5.6290e-03,-4.8305e-02,1.3450e-02,7.4468e-02,9.9351e-02
2.5148e-01,1.4657e-01,-1.3134e-01,8.9116e-02,3.5717e-01,-8.7825e-02,1.9776e-01,2.0632e-01,2.1549e-01,-1.1192e-01,-2.1549e-01,-6.2427e-02,4.0283e-02,3.4744e-01,-4.8360e-02,5.6295e-02,5.9871e-03,2.9535e-01,-2.6498e-02,-2.1612e-02,-1.9427e-01,-1.9595e-01,-9.1073e-02,-1.4317e-01,-2.4351e-01,-3.9097e-01,-1.7477e-01,-1.3137e-01,-1.0313e-02,-6.6893e-02,-1.5860e-01,-9.2578e-02,6.1449e-02,5.6130e-02,2.2710e-01,1.5590e-01,7.7588e-02,-3.5177e-02,1.5950e-02,1.2114e-02,3.5629e-02,-8.8496e-02,-3.1937e-02
-1.3014e-01,6.6674e-02,1.3593e-01,7.3884e-02,3.1225e-02,2.1012e-01,3.5967e-02,1.4579e-02,1.8329e-01,2.7576e-02,1.5909e-01,-1.4353e-01,-2.6398e-01,2.8353e-02,5.6433e-02,-1.8715e-02,5.0738e-02,4.7698e-02,-1.7979e-01,-1.0838e-01,-6.8021e-02,7.2273e-02,-6.4845e-02,5.7188e-03,-1.6919e-01,-1.8039e-01,-1.3195e-02,3.3719e-02,-1.5271e-01,-3.0871e-02,-1.7016e-01,-1.2025e-01,1.9558e-01,1.1018e-01,1.2155e-01,-1.0595e-02,-5.5302e-02,1.0859e-01,1.9012e-01,-1.8203e-03,1.4887e-01,-3.8147e-02,2.3197e-01
3.1576e-02,-2.1263e-03,1.7070e-01,1.0804e-03,2.7097e-01,1.2778e-01,-6.9638e-02,-1.6179e-01,-2.8569e-01,1.5453e-01,1.5945e-01,-1.2583e-01,-1.7857e-01,-2.3913e-01,-8.0816e-02,5.9933e-02,-5.7644e-02,-1.2966e-01,1.5832e-01,-5.1233e-02,2.2786e-01,-1.5433e-01,-1.7958e-02,1.3187e-01,1.0817e-01,-8.8112e-02,1.0777e-01,2.6735e-02,3.7493e-03,-1.3490e-01,-1.1892e-01,-1.3418e-01,-8.1203e-03,-2.7364e-01,-1.2897e-01,-1.3996e-01,1.2905e-01,-1.4683e-01,4.9316e-01,-1.4905e-01,2.5026e-02,1.0752e-01,-1.5882e-02
-3.0534e-01,4.0843e-02,-1.1971e-01,-1.3102e-01,-8.1598e-02,-2.3244e-01,-2.1044e-01,-6.6651e-02,-5.7769e-02,3.6932e-01,-2.8435e-02,1.9762e-01,3.4451e-01,-2.0332e-01,-1.4031e-03,-4.0459e-02,2.3053e-01,-2.3057e-01,1.4999e-01,3.6331e-02,1.1950e-01,-7.3375e-02,-6.2392e-02,7.0389e-02,-5.9255e-02,1.4425e-01,1.4348e-01,9.3777e-02,-8.3384e-02,-1.3118e-01,-3.7801e-02,-1.8732e-02,7.7547e-03,4.1750e-02,-8.4969e-03,-1.5352e-01,-8.0841e-02,-1.2565e-01,3.5485e-01,-2.3922e-02,1.9376e-02,9.3417e-02,-5.5610e-02
-5.3416e-03,5.4669e-02,4.4628e-02,-2.9007e-02,-6.0793e-02,8.6367e-03,1.2942e-02,-1.2521e-02,7.4029e-02,3.9698e-03,2.8963e-02,1.2115e-02,-4.1086e-02,7.7220e-03,1.9802e-02,-2.7294e-02,-1.2110e-02,5.7808e-03,-4.1717e-02,2.9385e-03,2.6130e-02,-2.5816e-02,3.1116e-02,-2.9990e-03,-3.5232e-02,2.7642e-02,5.4692e-02,-4.1449e-02,3.7940e-02,-2.0358e-02,1.2047e-02,9.4182e-03,-5.6962e-02,1.1683e-02,-2.4893e-02,-2.5916e-03,-4.9247e-02,5.2374e-02,2.1358e-02,3.5667e-02,5.3063e-02,-7.2045e-03,-3.2388e-02
1.8497e-01,3.6470e-01,2.2661e-01,-5.3231e-02,6.9161e-01,1.4193e-01,1.5448e-01,2.5472e-02,2.8722e-01,-3.2556e-01,-2.8884e-01,-1.5991e-01,3.5882e-02,6.2741e-02,1.0605e-01,-1.4042e-01,-2.6236e-01,4.2190e-01,-1.4932e-01,5.3590e-02,-2.0227e-01,-2.2516e-02,-1.4835e-01,-2.1480e-01,-2.3702e-02,-1.8691e-01,-3.9730e-03,-1.7158e-01,1.1983e-01,3.3164e-02,-1.3684e-01,2.7267e-01,3.8422e-02,1.4971e-01,-3.7126e-01,-7.3585e-02,-1.6373e-02,-8.7934e-02,-1.0039e-01,1.3215e-01,4.0653e-02,-1.4668e-01,-1.6733e-01
3.4006e-01,-8.1841e-02,-3.7145e-01,-2.8533e-01,1.3917e-01,-2.5938e-01,-6.0500e-02,1.5182e-01,1.9784e-01,-2.2211e-01,-1.6817e-01,8.7414e-02,4.7271e-01,3.0119e-01,3.7968e-02,7.3859e-02,-2.4672e-01,2.3838e-01,-2.0195e-01,-1.1259e-01,-1.0761e-01,-8.3985e-02,-5.8468e-02,-1.4685e-01,-7.3765e-02,-7.7203e-02,2.4613e-01,-9.5726e-02,1.0617e-01,-1.0434e-02,-2.7672e-02,-2.2843e-01,1.4633e-01,7.0610e-02,-2.2083e-02,-9.4789e-03,5.4807e-02,3.9417e-02,-1.1035e-01,-4.4189e-02,9.0169e-02,6.0666e-02,4.2079e-02
1.5999e-02,3.3663e-02,5.4214e-02,3.9779e-02,1.7532e-02,2.3289e-02,-2.4594e-02,-3.6401e-02,-1.5485e-02,4.3041e-02,-1.2222e-02,4.1627e-02,-3.6328e-03,-2.6895e-02,-2.4569e-02,4.6812e-02,1.9349e-02,2.6691e-02,1.9839e-02,2.6366e-02,2.4958e-02,1.8473e-02,-2.7711e-02,1.6188e-02,5.5114e-03,5.1869e-02,1.3972e-02,-2.1800e-02,-6.8340e-03,2.8068e-02,-2.6017e-02,3.1325e-02,1.0537e-02,1.2947e-02,2.0142e-02,2.9023e-02,-3.2513e-02,2.1039e-02,-2.0887e-02,4.0793e-03,2.7408e-03,1.3478e-02,1.1655e-02
7.2900e-02,1.2006e-01,-1.1385e-01,5.4257e-02,-2.1727e-01,-2.2696e-01,1.0212e-01,-1.4949e-01,-1.3878e-01,-6.5726e-02,-1.1308e-01,2.0301e-01,3.7785e-01,5.3569e-02,-3.3747e-02,-1.6947e-01,1.0122e-01,3.3733e-02,-2.0725e-01,-7.7486e-03,5.5007e-02,-8.6530e-02,-5.1801e-02,-4.4476e-02,-2.8157e-02,-9.9163e-03,-1.2398e-01,-6.0171e-02,7.4754e-02,-3.9864e-02,3.5578e-03,-2.0446e-01,1.1562e-01,4.4478e-02,1.4942e-01,1.0070e-01,4.0105e-02,-3.7560e-02,-9.5214e-02,-1.1211e-01,1.0858e-02,1.4782e-01,1.2677e-01
1.1386e-01,3.7059e-01,1.8257e-01,-2.2775e-01,3.2072e-01,3.7642e-02,1.1215e-01,1.5836e-01,3.2779e-01,-5.0373e-01,-1.2858e-01,1.9124e-01,4.3341e-02,-1.8397e-01,-7.9929e-02,-1.2558e-01,-8.5056e-02,2.4083e-01,2.6730e-01,4.7579e-02,-1.0569e-01,-4.4677e-02,-2.2929e-01,-1.2813e-01,8.9476e-02,-1.5485e-01,2.2236e-01,2.4005e-02,-1.3579e-01,-2.3090e-02,1.7459e-02,1.0492e-01,2.1075e-02,1.2277e-01,-2.5303e-01,-4.8155e-01,-1.2903e-01,1.8792e-01,-3.1257e-01,3.7915e-03,1.3016e-01,-1.2920e-01,-2.1689e-02
7.1834e-04,3.4269e-02,2.2231e-02,1.1210e-02,-6.4361e-02,1.0985e-01,2.3499e-02,9.4488e-02,-3.1370e-02,-5.4380e-02,-1.8669e-02,-1.0265e-02,6.4133e-02,3.7038e-02,-1.7574e-02,3.3867e-02,-2.3619e-02,-2.3317e-02,-2.6102e-02,-1.4771e-02,3.4882e-02,3.5395e-02,1.0849e-02,-4.9099e-02,-4.9055e-02,4.8678e-02,3.7644e-03,2.4211e-02,-3.3622e-02,-5.8896e-02,1.6948e-02,-5.4122e-02,-8.6064e-03,4.9442e-02,-7.1669e-03,2.2989e-03,-4.4273e-02,3.6821e-02,4.7841e-02,-2.7111e-02,3.6694e-02,-2.7520e-02,-4.2266e-02
2.4342e-01,9.8461e-02,1.7124e-01,9.8024e-02,4.1722e-02,-1.6382e-01,4.9069e-02,-4.1298e-02,2.4123e-01,-1.2430e-01,-7.2692e-01,2.1200e-01,-1.2985e-01,-2.0110e-01,-2.0111e-01,-2.3811e-02,3.9086e-02,-1.7503e-02,3.6882e-02,-3.8323e-02,1.7558e-01,-1.7103e-01,1.7628e-02,-3.8712e-02,2.0952e-01,-3.3578e-01,1.5842e-01,1.8857e-01,3.0445e-01,5.2847e-02,1.0643e-01,-9.7231e-03,2.7924e-01,-3.5391e-01,3.1525e-02,-3.4899e-01,1.1465e-01,-4.4110e-02,4.7899e-02,-3.6404e-01,1.2403e-01,2.6038e-01,8.3023e-03
-3.9016e-02,1.4391e-02,2.7196e-01,3.3739e-01,1.2674e-01,-7.8762e-02,3.3882e-02,2.5230e-02,5.4781e-01,5.5506e-02,-1.1283e-01,-1.7305e-01,9.2841e-01,4.5592e-01,-1.0332e-01,-1.1804e-01,-1.0214e-01,5.0927e-02,-3.7392e-01,-1.7646e-01,-6.2422e-03,-4.8421e-02,-1.3256e-01,-4.3267e-01,-1.9103e-01,-4.1335e-01,2.9072e-02,-9.6546e-02,-1.0776e-01,-1.1502e-01,-4.3171e-02,-4.0121e-01,3.5120e-01,-8.0612e-02,9.0044e-02,-2.0435e-01,2.7045e-02,-3.7762e-02,-1.7354e-01,-7.1789e-02,9.9475e-02,1.4517e-01,2.8417e-01
2.7480e-02,1.5001e-02,4.9212e-03,3.5216e-02,3.9781e-02,-1.9195e-02,3.2548e-03,-5.4656e-02,-4.2262e-02,-5.0400e-02,3.9297e-02,2.6185e-02,1.1700e-02,3.2348e-02,1.0071e-02,-1.5475e-02,-1.5065e-02,1.6021e-02,1.0262e-02,1.2325e-02,-4.1115e-02,2.3634e-02,4.0009e-02,-1.8145e-02,-3.3537e-02,-1.7760e-02,2.8416e-02,4.1443e-02,-1.2499e-02,2.1662e-02,-5.9343e-02,-5.2633e-02,4.1344e-02,6.6915e-03,7.9788e-03,-2.6053e-02,6.6479e-02,2.4423e-02,-4.9625e-03,2.4970e-02,-1.5524e-02,5.4717e-04,5.1696e-02
1.9411e-01,1.1948e-01,2.9034e-01,4.6136e-01,1.6144e-01,2.1236e-01,6.1296e-03,-6.3990e-02,-1.0483e-01,-1.1790e-01,-1.5967e-01,-2.2847e-01,-3.8784e-01,2.2614e-01,2.8948e-02,9.7378e-02,-6.3774e-02,3.3202e-02,-3.8896e-01,6.0959e-02,-9.7336e-02,-4.5803e-02,1.0062e-01,3.1572e-03,-8.3775e-02,6.6393e-02,-3.1503e-01,-2.6623e-01,5.1099e-02,8.1526e-02,-1.4714e-01,3.6623e-02,-1.2975e-01,3.6979e-01,2.0191e-01,3.8692e-01,3.4628e-02,5.2542e-03,-1.6986e-01,8.2532e-03,-3.3594e-01,-1.0438e-01,-6.1695e-02
-1.9627e-02,-4.7208e-02,1.4901e-02,8.0034e-02,-3.9316e-02,-2.3659e-02,-3.9393e-02,-4.4154e-02,-4.3628e-02,-1.0169e-02,4.4291e-02,2.8646e-02,-4.9462e-02,4.8948e-02,-3.5129e-02,-3.0116e-02,-4.8713e-02,4.1759e-02,-3.9053e-02,1.1781e-02,-5.7694e-02,6.7061e-04,2.9379e-02,-2.4490e-02,-5.5737e-02,1.3506e-02,5.2139e-03,3.6607e-02,2.8403e-02,-2.7191e-02,2.4492e-02,2.2529e-02,-5.6915e-02,-6.0054e-03,1.0820e-02,5.7403e-04,-2.9678e-02,-4.2086e-02,4.7644e-02,1.4193e-03,4.4483e-02,4.6000e-02,-3.8173e-02
8.4331e-02,-5.7940e-02,-1.0625e-01,-7.5270e-02,-4.1568e-02,8.1720e-02,1.0222e-01,4.7811e-02,-5.8401e-02,-3.7043e-02,2.2008e-01,-5.1557e-02,-2.2119e-02,1.5670e-02,1.0148e-01,3.7424e-02,-8.4687e-02,3.5257e-02,-1.1159e-02,7.1908e-03,3.6003e-02,-9.6804e-02,-5.8065e-02,1.3857e-01,-1.0147e-01,2.5842e-02,-1.0144e-01,6.6225e-03,-1.0906e-01,-9.5734e-03,3.1621e-02,-7.3834e-02,7.0571e-02,-6.8445e-02,3.2545e-02,7.0518e-02,-6.8834e-02,7.4874e-03,-5.2035e-02,-8.7341e-02,-3.9337e-03,5.1461e-02,1.5777e-01
-1.0257e-01,-1.6232e-01,-4.9807e-01,7.0054e-02,-1.4187e-01,-1.1330e-01,-7.2893e-02,-1.8264e-01,-1.2031e-02,2.9140e-01,-1.4169e-01,-3.1809e-01,-2.2433e-01,3.9709e-01,-1.1733e-01,1.2349e-01,1.5561e-01,-1.5128e-01,-2.4848e-01,-5.8092e-02,2.5563e-01,-1.7012e-01,2.3065e-01,1.1993e-01,-2.2122e-02,2.6535e-01,-4.0718e-02,-1.4480e-01,1.0809e-01,8.5084e-02,-8.1489e-02,-1.4119e-01,1.3992e-01,-2.1100e-01,3.1573e-01,2.1421e-01,3.7066e-01,-1.8600e-01,4.8146e-01,-1.5645e-01,-1.2549e-01,1.3471e-01,-4.4714e-03
5.7951e-02,-6.7921e-02,-2.5874e-01,-3.4567e-01,1.8304e-02,-1.3521e-01,1.5780e-01,-1.0383e-01,-4.2643e-02,-2.2402e-03,-3.0573e-01,1.5109e-02,2.9599e-01,1.2833e-01,-5.6057e-02,-1.2802e-01,-5.5669e-02,2.9559e-02,1.7649e-01,4.6182e-02,-1.1633e-01,2.1324e-01,1.8006e-02,-1.5506e-01,8.9917e-02,-4.1417e-02,1.9041e-01,1.6255e-01,1.3467e-02,-1.5176e-02,1.8708e-01,7.8226e-02,1.0220e-02,7.6780e-02,2.2637e-02,-1.5079e-01,-8.6588e-02,-2.2497e-03,-1.9220e-01,8.3202e-02,1.0814e-01,1.6502e-02,-4.0588e-02
-8.5659e-02,-1.1358e-01,1.0822e-01,2.4743e-01,-3.1812e-01,2.9046e-02,4.1360e-02,1.1850e-01,-2.8406e-03,1.5257e-01,-2.0000e-01,1.0391e-01,-5.4557e-02,-5.2730e-02,-2.3591e-01,-1.7123e-01,2.1252e-01,-3.2077e-01,-2.6302e-01,7.6253e-02,1.7521e-01,1.4833e-01,-1.8469e-01,1.4670e-01,1.5571e-01,1.5776e-01,-7.0350e-02,1.5319e-01,1.5773e-01,1.3065e-03,-2.5869e-02,2.4076e-01,-7.9552e-02,-1.0770e-01,-1.1254e-01,2.3554e-01,-6.5981e-02,-1.3402e-01,-4.2041e-02,-1.4436e-01,1.4947e-02,8.7610e-02,-2.3641e-03
-2.4990e-02,-1.6900e-02,4.7929e-02,-2.2128e-03,3.7954e-03,1.1232e-02,3.1459e-02,-2.0206e-02,-2.2946e-02,3.4990e-02,-1.7500e-02,3.4730e-02,-3.6643e-02,-4.1061e-02,1.3592e-02,1.4531e-02,1.4929e-03,2.0477e-02,-9.7664e-03,-1.0114e-02,-3.3200e-02,4.5763e-02,-4.7030e-02,3.5174e-02,4.3164e-02,4.2253e-02,7.8122e-04,-3.5957e-02,-9.8852e-03,4.0526e-02,2.8812e-02,3.5768e-02,-2.5891e-02,1.4454e-02,-3.2169e-02,-1.8065e-02,3.0399e-02,3.5245e-02,-2.6924e-02,1.5003e-02,-4.6543e-02,-4.9329e-02,-4.3645e-02
-6.0751e-02,-2.0034e-01,-3.0164e-01,-4.3326e-02,-8.3446e-02,-1.7312e-01,-3.2101e-01,-1.0167e-01,1.1951e-01,1.7957e-01,-1.7961e-01,2.1268e-02,5.6332e-02,4.1314e-01,7.4697e-03,2.2162e-01,-1.4683e-01,-7.1003e-02,-1.1977e-01,3.9559e-02,-1.4455e-01,7.4645e-02,2.7959e-01,-1.6931e-02,3.2819e-02,1.4376e-01,1.5782e-01,-4.3016e-03,8.7900e-02,1.5916e-01,3.1112e-01,2.6622e-02,-4.4039e-02,3.1534e-01,1.6746e-01,-9.4728e-02,7.9266e-02,7.4346e-02,-4.1693e-01,1.8107e-01,-2.7756e-01,-1.4132e-01,-1.8921e-01
3.1998e-02,-4.4917e-02,2.8187e-02,-2.1022e-02,2.5915e-04,-4.0340e-03,-1.8380e-02,-3.9355e-02,3.4457e-02,9.7942e-03,-4.9076e-02,-1.5539e-02,-4.3174e-02,-1.0484e-02,-1.6193e-02,-4.8393e-03,2.8272e-02,3.4157e-02,4.1186e-02,-2.5592e-02,1.5242e-02,1.3406e-02,1.9103e-02,2.3172e-02,1.9903e-02,3.0658e-03,-5.0410e-03,-4.1079e-02,-8.0699e-03,-4.0898e-02,3.8611e-03,1.8403e-02,1.4231e-02,1.4574e-02,4.5141e-02,-1.1890e-02,1.4839e-02,2.5169e-02,-3.2344e-02,-1.6348e-02,9.3477e-03,-4.1709e-02,-4.9767e-02
-2.5066e-03,-1.3075e-01,-1.5081e-01,4.9181e-02,-1.2759e-01,-6.9791e-02,8.7717e-02,-2.9095e-02,3.5631e-01,-1.7782e-01,-2.3059e-01,1.6321e-02,2.9674e-01,-1.0060e-02,1.4339e-01,9.1722e-02,-8.7797e-02,2.2372e-01,-1.0344e-01,-2.1679e-01,6.7536e-02,-1.3568e-01,-5.9961e-02,-1.9027e-02,-1.2237e-01,-9.7472e-02,-8.5221e-02,-9.0090e-02,4.1522e-02,4.5281e-02,1.2954e-01,-6.9409e-03,1.5381e-01,-4.8711e-02,2.7540e-01,-2.2718e-02,2.5045e-01,-2.3335e-01,3.4130e-01,-2.3499e-01,-1.5387e-03,7.8689e-02,4.8829e-02
-1.8161e-01,-9.4399e-02,-1.6921e-02,7.1519e-02,-1.4947e-01,-3.4905e-02,-1.3408e-01,-4.5540e-02,-1.7222e-01,8.3997e-02,1.7314e-01,3.5718e-02,-5.4484e-02,4.6448e-02,4.3736e-02,2.0877e-02,-9.9653e-02,-6.6494e-02,4.4133e-02,7.8814e-02,5.9475e-02,1.5401e-01,-2.1120e-02,9.6490e-02,2.8913e-02,1.8899e-01,4.6155e-02,-1.1008e-02,-1.4622e-01,-6.2493e-02,6.4843e-02,1.0843e-01,2.0365e-03,-1.1687e-02,4.7354e-02,-3.3801e-02,6.1293e-02,-3.2237e-02,-3.7432e-02,5.7806e-02,-1.1391e-01,2.2971e-02,-8.0135e-02
8.7179e-03,2.3527e-02,-3.4912e-02,2.1280e-02,-1.7520e-02,-4.0865e-02,3.5115e-03,4.7286e-02,4.6792e-02,-3.7727e-02,-3.2860e-02,5.2291e-02,-1.9004e-02,-3.3989e-02,2.5094e-02,3.1493e-02,-2.6522e-02,-4.6497e-02,4.8522e-03,-2.7321e-03,1.8726e-02,2.7494e-02,-4.5626e-02,2.3534e-02,-2.9521e-02,1.6438e-02,-4.1724e-02,-2.4841e-02,-2.5641e-02,-3.9495e-02,7.9876e-03,4.0398e-02,-4.5829e-02,-1.2723e-02,-4.7643e-02,6.5869e-03,3.5586e-02,-2.8446e-02,-2.4079e-02,-1.6653e-02,3.4969e-02,4.2762e-03,-3.5112e-02
1.8334e-02,4.9003e-02,-2.4385e-02,4.5137e-02,-4.7582e-02,-2.4698e-02,3.0543e-02,1.9802e-02,5.7856e-03,2.7016e-03,-2.1345e-02,-3.0688e-02,2.7649e-02,-1.0001e-02,1.6292e-02,1.6943e-02,1.1910e-02,-2.9486e-02,4.5572e-02,1.6271e-02,3.2945e-02,7.7829e-03,1.6782e-02,-4.7204e-02,-1.2814e-03,1.8292e-02,1.5970e-02,-5.0441e-03,1.2651e-02,-1.1428e-02,-1.0088e-02,1.8994e-02,-1.4817e-02,-2.9626e-02,-1.3507e-03,-3.5516e-02,-2.5552e-02,4.4156e-02,-8.4806e-04,4.5687e-02,4.7423e-02,1.9502e-03,-3.7218e-02
6.4017e-02,1.5710e-01,4.8680e-01,4.0003e-01,-9.2646e-02,9.7759e-02,3.0280e-01,2.0604e-01,7.9109e-02,-9.8656e-02,5.0431e-02,3.1001e-01,-2.5984e-02,1.8554e-02,-1.9916e-01,-1.7239e-01,1.0074e-02,-5.3530e-02,-2.1101e-01,-8.6434e-03,-4.7310e-02,-1.1116e-01,-2.8862e-01,2.6865e-02,-9.1117e-02,6.6619e-02,-3.4793e-01,-1.6083e-01,2.8751e-02,7.3114e-03,1.1738e-01,-6.1743e-02,6.0370e-02,6.2341e-02,-7.5050e-02,2.3005e-02,-1.2204e-02,-1.3228e-01,-9.6323e-02,-2.8063e-01,-4.5866e-02,-1.7226e-02,1.5308e-01
-1.7761e-01,-1.3631e-01,-3.7723e-02,-1.6540e-02,-1.2967e-01,-3.2028e-01,3.0096e-02,-3.9402e-01,-2.2494e-01,1.3846e-01,-5.3018e-01,-4.3578e-02,-3.9749e-03,-2.4326e-02,3.6762e-01,5.2088e-02,-1.2401e-01,4.5011e-02,1.3471e-01,-3.2772e-03,1.3898e-01,-1.5280e-02,1.9242e-01,1.2719e-01,1.4384e-01,-2.0958e-02,-2.9391e-02,-8.4031e-03,1.2047e-01,3.4746e-02,2.3835e-01,-1.2890e-01,7.6856e-02,-2.8476e-02,5.2907e-01,-2.0229e-01,7.4760e-02,-2.6375e-01,5.0935e-01,-3.6977e-02,-3.9305e-02,7.6625e-02,-2.4364e-01
1.0936e-01,1.3138e-02,1.1633e-01,-4.8486e-02,-2.3891e-01,-1.8225e-02,1.5434e-01,1.7235e-02,-5.8234e-02,-1.5958e-01,7.3244e-02,2.9765e-01,1.6660e-01,-8.2589e-02,-2.6639e-01,-1.4329e-01,9.1169e-02,-1.1342e-01,-2.2033e-02,-1.0148e-01,1.0720e-01,7.3216e-03,-2.4206e-01,1.2906e-01,-2.8863e-02,-4.2511e-01,5.0641e-02,1.0052e-01,1.4066e-01,-1.8410e-01,9.4154e-03,-1.4810e-01,2.0785e-01,-8.1515e-02,3.8607e-02,-7.1365e-02,-1.1994e-01,-8.3836e-02,2.7828e-01,-3.6449e-01,1.4935e-01,2.1946e-01,3.1752e-01
-1.3109e-01,-2.9186e-02,5.9631e-02,1.2797e-01,6.3645e-02,6.4666e-02,-2.4043e-03,8.7541e-02,-6.4808e-04,1.8593e-02,-1.8405e-02,-2.6763e-02,-1.9721e-01,1.4372e-02,-1.6202e-02,2.6938e-02,-6.5936e-02,-1.5559e-04,-1.8796e-02,-3.9046e-02,-1.9800e-02,1.0151e-01,-5.7583e-02,-3.4422e-02,-1.4802e-01,-6.9313e-02,-8.0833e-02,9.0279e-02,-6.1271e-02,-9.5366e-02,-1.0347e-01,2.4423e-02,1.0180e-01,-2.7611e-02,8.8361e-02,-8.2670e-02,-6.3236e-02,4.9746e-03,1.2914e-01,7.4614e-02,7.4220e-02,5.6355e-03,7.8912e-02
-8.3505e-02,-1.9944e-01,1.1621e-01,-2.8708e-01,-3.7432e-02,-1.1565e-01,-1.1470e-01,1.6995e-01,1.4911e-01,2.1975e-02,3.8318e-01,1.1036e-01,2.7343e-02,-1.7427e-01,4.8905e-02,5.8809e-02,7.5281e-02,-1.6704e-01,1.9380e-01,-2.5485e-02,2.3965e-02,-4.9662e-02,-1.0702e-01,-1.0069e-02,4.1445e-03,-9.3655e-02,7.1373e-02,2.7503e-02,-1.1276e-01,8.7307e-03,-1.6505e-01,-8.3841e-02,-1.2742e-01,1.6239e-01,-2.6495e-01,4.5921e-02,-6.8004e-02,1.9376e-01,-1.7594e-02,9.0418e-02,1.1903e-01,-6.3474e-02,8.6377e-02
-3.8599e-02,3.2596e-02,4.1886e-03,-4.0435e-02,-1.3565e-02,6.1825e-02,3.7817e-02,-1.9072e-02,3.7937e-03,-1.6071e-02,-5.0896e-02,1.6809e-02,-2.3417e-02,-2.5794e-02,1.5516e-03,2.8914e-02,-8.9915e-03,9.6871e-03,3.1970e-02,3.1263e-02,8.3795e-03,1.3249e-02,-7.9342e-03,1.2294e-02,-3.8650e-02,3.1116e-02,3.5787e-02,-2.1806e-02,-3.5128e-02,-5.1233e-02,-1.5065e-03,-3.7813e-02,-3.6631e-02,2.0437e-02,-6.1311e-04,1.1829e-02,-3.0331e-02,-3.1446e-02,3.4331e-02,9.0066e-04,-6.1187e-03,-4.0956e-02,1.9554e-02
3.1684e-02,-1.2929e-01,5.5362e-02,-1.9578e-02,-4.9858e-02,-5.6109e-02,-1.6822e-01,1.0718e-01,1.0936e-01,7.5583e-03,1.4151e-01,1.9365e-01,9.0628e-02,-2.0939e-02,-9.6613e-02,-3.8506e-02,5.4664e-02,-1.2940e-01,-9.4386e-02,3.9818e-02,9.3713e-02,6.2804e-02,-7.4544e-02,5.9764e-02,5.8779e-03,-1.7519e-01,4.0766e-02,-5.6465e-02,1.7073e-02,-2.4400e-02,3.2566e-02,-9.4174e-03,-6.9549e-02,-1.1592e-02,-6.9702e-03,-7.6800e-02,-4.5536e-02,-3.4673e-03,2.5985e-02,2.5018e-02,3.4231e-02,-5.3209e-02,-1.2102e-02
4.8597e-02,2.4987e-01,1.8880e-01,4.1426e-02,1.7298e-01,4.2401e-02,-1.4499e-02,-1.5207e-01,-1.2230e-01,-4.8633e-01,-3.1350e-01,5.1416e-03,-4.6263e-02,-1.2490e-01,1.6377e-01,3.5091e-02,-2.0112e-01,3.9088e-01,7.8812e-02,5.8465e-02,3.3116e-02,1.6964e-02,2.0913e-02,-5.9030e-03,3.7380e-02,-3.0684e-02,4.5041e-02,1.3624e-02,-4.9093e-02,4.1826e-02,-9.5427e-02,4.3984e-02,8.0095e-02,-1.6261e-01,7.1612e-02,-2.7463e-01,8.2931e-02,3.1664e-02,1.6950e-01,5.9444e-02,1.5538e-01,-1.1886e-01,-7.4160e-02
-4.2434e-02,2.8468e-02,-3.1752e-02,2.4372e-01,-3.9611e-01,9.0122e-02,1.8806e-01,-1.8911e-01,-6.3280e-02,9.8683e-02,1.1665e-01,-9.7369e-02,2.3731e-01,7.8808e-02,-4.7901e-02,6.2345e-02,-1.1487e-01,4.9032e-02,-2.7271e-01,-1.6857e-02,1.0493e-01,-1.6316e-01,4.4542e-03,1.1493e-01,-1.8087e-01,2.6779e-01,-2.0597e-01,-2.0050e-01,-4.3574e-04,2.4147e-02,5.0573e-02,-1.1169e-01,1.8115e-01,1.6482e-02,9.8439e-02,1.7255e-01,2.9685e-01,-3.1506e-01,3.3711e-01,-2.7826e-01,-1.6316e-01,8.9649e-02,1.4853e-01
-3.8526e-03,-1.2787e-01,-1.1086e-01,-5.7682e-02,1.4015e-01,1.0953e-01,-8.4620e-03,-2.2544e-01,6.9818e-02,-1.0892e-01,-1.3374e-01,-2.3008e-01,-6.7683e-02,-9.2783e-02,-6.9281e-02,-8.9050e-03,-3.9429e-02,4.5992e-02,2.5598e-01,8.9021e-02,-3.6505e-02,-7.1157e-02,2.2274e-01,-6.5956e-02,6.4685e-02,1.0213e-01,2.5889e-01,8.4774e-02,-2.0843e-03,1.1875e-01,-7.6590e-02,1.5115e-01,-1.3304e-01,-1.5837e-01,-1.7012e-01,-8.0721e-03,1.1596e-01,-2.9722e-02,-1.7213e-02,1.6878e-01,4.7484e-02,-3.7186e-02,-7.1156e-02
-4.1952e-02,-1.8458e-04,-1.8095e-02,-4.2076e-02,-9.7009e-03,4.2854e-02,-1.9826e-02,-1.0864e-02,2.5174e-02,-5.3206e-03,3.6488e-02,-1.7128e-02,7.6019e-03,-4.2109e-02,4.4507e-02,4.9096e-02,3.8946e-02,4.0089e-03,3.3952e-02,3.8120e-02,-2.9901e-02,-3.9688e-02,-9.7818e-03,-2.4338e-02,-2.0644e-02,-1.1322e-02,1.2421e-02,-4.6108e-03,2.0282e-02,2.5409e-02,2.9572e-02,-3.7518e-02,-2.1621e-03,4.3511e-02,-2.4143e-02,2.1938e-02,-2.0436e-03,3.5483e-02,-4.4022e-02,-3.9970e-02,-4.0340e-02,-1.8578e-02,-2.2569e-02
-1.8776e-01,-3.7535e-02,1.8359e-01,-6.9682e-03,-3.5998e-02,-3.1743e-02,-9.1955e-02,1.4216e-01,2.8065e-02,4.0576e-02,2.4104e-01,-9.2943e-02,-4.0183e-02,-1.6541e-01,-7.8043e-02,-9.6510e-02,5.0930e-02,-1.0704e-01,1.2607e-01,3.7067e-02,9.7683e-02,5.8365e-02,-5.7558e-03,7.4895e-02,3.8167e-02,1.6768e-01,7.0204e-02,1.1083e-01,-2.5046e-01,2.2569e-02,-4.5641e-02,1.9422e-01,-1.2316e-01,-1.3342e-01,-2.4669e-01,-1.2219e-02,-2.1889e-01,2.5290e-01,-1.6865e-01,1.1076e-01,1.0629e-01,-9.9583e-02,-6.6069e-03
-3.0348e-02,-1.2490e-03,1.1294e-01,-4.3066e-02,-1.6179e-01,6.5090e-02,-9.7059e-02,4.2345e-02,1.1536e-01,-5.8903e-02,-4.2767e-02,-1.0804e-02,8.2298e-02,-7.2248e-02,4.7411e-02,-2.2393e-02,-3.4637e-02,-4.7236e-02,1.2769e-02,4.8491e-02,-4.0800e-02,2.8826e-02,5.6807e-02,-5.5359e-02,-1.1829e-02,-5.2804e-02,1.1270e-01,2.9329e-02,1.5866e-02,9.3464e-02,5.3329e-02,3.1984e-02,8.8825e-03,4.7700e-03,-1.2287e-01,8.0162e-03,6.4288e-02,-2.2576e-02,1.1805e-02,4.4683e-02,-9.9943e-02,-5.3448e-02,-2.1337e-02
1.8400e-01,1.6288e-01,1.2838e-02,-1.5424e-01,5.0831e-01,9.5340e-03,1.1638e-01,1.4342e-01,3.5557e-02,-3.5042e-01,-1.1638e-01,-1.8809e-02,1.5965e-01,-1.2437e-01,-1.6921e-01,-1.4538e-01,1.0814e-01,2.2379e-01,2.7884e-01,-1.5934e-02,-1.2921e-01,9.8479e-02,-4.7124e-02,-2.8067e-01,1.0680e-01,1.8310e-02,1.3275e-01,1.3816e-02,-2.6372e-01,-1.2808e-01,-2.4283e-01,1.4415e-01,-3.4153e-02,-2.5983e-02,-2.6460e-01,-2.5082e-01,-5.1981e-02,1.5229e-01,-2.0496e-01,1.9687e-01,2.6647e-01,-1.9235e-01,-8.8840e-02
-1.7361e-01,5.2482e-02,3.2110e-01,7.7107e-02,1.9467e-01,2.5502e-01,-7.9705e-02,4.5466e-02,1.4160e-01,-4.2983e-01,1.4203e-01,1.0933e-01,-4.3121e-01,-2.1085e-01,-1.5283e-01,3.6692e-02,-2.9181e-01,1.5673e-01,2.2046e-02,4.6781e-02,1.1472e-01,7.9805e-02,8.6186e-04,1.0837e-01,5.7523e-02,-7.1914e-02,5.5421e-02,-3.1533e-02,2.3695e-02,3.7211e-02,-8.2583e-02,2.4554e-01,-2.5847e-01,-1.9480e-02,-8.0236e-02,1.9767e-01,-1.0459e-02,6.0017e-02,2.3872e-01,-2.3160e-02,-1.6506e-01,-3.0797e-01,-1.8324e-01
3.2453e-01,2.5955e-01,1.7969e-01,7.0337e-02,9.1360e-02,3.7243e-01,4.5871e-01,3.9781e-01,3.2656e-01,-3.7110e-01,1.0564e-01,-7.2948e-03,-1.1261e-01,-2.6490e-01,-4.2276e-01,-8.6212e-02,2.1214e-02,-2.6896e-02,1.8268e-01,-4.8729e-02,-4.4803e-03,-2.8082e-02,-3.9707e-01,-4.0968e-02,-4.3970e-02,2.2362e-01,-9.4978e-02,-1.4626e-02,-1.5685e-01,-1.1209e-01,-1.0956e-01,2.3692e-01,1.6706e-01,-4.0789e-01,-4.9275e-01,-4.4271e-01,4.9081e-02,-1.6094e-01,-2.3793e-01,-2.1319e-01,1.9375e-01,1.1691e-01,3.3428e-01
4.8362e-02,-9.5045e-02,-7.9985e-02,5.2390e-02,-7.2639e-03,-6.0318e-02,1.3655e-02,8.3159e-02,7.8871e-02,6.6936e-02,-3.8888e-02,1.6043e-02,7.0715e-02,-3.5916e-02,1.8630e-02,3.5114e-02,-2.8020e-02,-3.7142e-02,-4.7833e-02,-3.9007e-02,-7.3879e-02,7.3533e-03,-1.7258e-02,-7.1558e-04,-2.2939e-02,-3.6854e-02,4.2205e-02,-1.2952e-02,-5.8722e-02,3.5056e-02,3.6758e-02,-4.3912e-03,-4.2032e-02,-1.7475e-02,6.0981e-03,-3.0475e-02,-1.5809e-02,5.9799e-02,-6.1086e-02,-1.1870e-02,3.5352e-03,4.1279e-02,4.6210e-02
-2.7615e-02,-2.8643e-02,3.9015e-03,-4.5786e-02,-2.8763e-02,-1.9930e-02,-1.6968e-02,7.2601e-03,-2.8894e-02,3.8096e-02,1.0202e-02,-9.4872e-03,-2.0589e-02,-3.2624e-02,-4.2301e-02,1.2121e-02,1.2953e-02,-2.5745e-02,2.6609e-02,3.6965e-03,2.8416e-02,-2.7730e-02,3.1809e-02,-4.1113e-02,-4.3732e-02,4.4931e-02,-4.9047e-02,-3.3319e-02,4.6205e-02,4.7853e-02,3.6401e-02,4.7308e-02,-1.1825e-02,1.4946e-02,8.5326e-03,-8.2492e-03,-3.2007e-02,-3.2602e-02,1.4197e-02,-3.6820e-02,4.3150e-02,1.7809e-02,4.3032e-02
5.6585e-02,9.4749e-02,-8.6300e-02,1.5042e-01,3.0862e-02,4.4836e-02,-1.2590e-01,-1.1302e-01,3.8829e-02,1.9344e-01,-2.5178e-01,-1.0611e-01,-1.0689e-01,-3.8936e-02,1.1049e-02,1.7692e-01,-2.8199e-02,-7.4222e-02,-1.2102e-01,2.6288e-03,2.0342e-02,-1.1921e-03,1.4645e-01,-5.9962e-02,1.1582e-01,1.2827e-01,1.0333e-01,-2.9903e-03,2.5485e-02,1.4325e-01,-1.3156e-03,-5.5329e-03,5.5174e-02,-4.3209e-02,1.6460e-02,-2.8366e-02,1.0909e-01,3.2622e-02,-1.0190e-01,2.0002e-02,-2.0778e-01,-4.3573e-02,-1.3255e-01
-3.8575e-03,4.5504e-02,-3.0389e-02,1.7105e-02,1.9071e-02,4.9294e-02,9.0989e-03,-5.1830e-02,4.5827e-03,4.9810e-02,-3.9220e-02,-1.8749e-03,2.8519e-03,1.8495e-02,-1.5380e-02,-1.7748e-02,-6.8100e-03,-3.4929e-02,-1.9812e-02,2.8871e-02,3.1846e-02,5.2673e-02,2.8103e-02,-3.8505e-02,-3.0619e-02,-1.5199e-02,1.9143e-02,-3.4544e-02,-4.8005e-02,-4.0905e-02,-3.7536e-02,-3.1139e-02,-4.4836e-02,6.4803e-03,-4.1256e-02,-1.6587e-02,-1.5902e-04,-1.5749e-02,-1.1372e-03,1.0951e-02,9.0480e-03,2.5169e-02,1.6872e-02
-2.4422e-02,2.5274e-02,1.0129e-02,3.7286e-02,3.5908e-03,3.0154e-03,2.9531e-02,2.9563e-02,1.2095e-02,-1.5064e-02,4.8039e-02,-1.6096e-02,-1.7971e-02,1.7121e-03,-4.9384e-02,3.6303e-02,-1.2699e-02,7.7552e-03,7.6018e-03,-1.3228e-02,8.7127e-03,-2.1129e-02,-2.1672e-02,-4.6850e-02,2.4389e-02,-8.3144e-03,-1.8789e-02,4.4563e-02,-8.5166e-03,4.2285e-02,2.1761e-02,3.6851e-02,3.0618e-02,-1.7671e-02,2.6991e-02,-8.3891e-03,-1.4205e-02,-1.2705e-02,-2.8199e-02,1.8385e-02,-2.3876e-02,-3.1762e-02,2.0509e-02
3.2500e-02,-3.7359e-02,4.7718e-02,3.4852e-02,-1.5358e-02,-1.6584e-02,4.4044e-02,-2.1011e-03,5.1484e-02,3.9354e-02,-2.4326e-02,-1.7523e-03,-2.3834e-03,-3.8912e-02,5.0815e-03,-3.7812e-02,6.2021e-03,2.6232e-02,1.6670e-02,-2.9718e-02,3.4851e-02,3.7550e-02,2.3696e-02,-1.4783e-02,1.5482e-02,-9.3902e-04,-5.0087e-02,-2.7929e-02,-4.1162e-02,-1.8702e-02,-4.5327e-02,-3.9239e-02,9.4535e-03,1.0832e-02,-1.5645e-02,2.2320e-02,-2.5431e-02,1.5857e-02,3.3502e-02,-4.2818e-02,5.1461e-03,-8.0902e-03,-2.0054e-02
-3.4657e-02,-3.8655e-02,1.1574e-04,2.8506e-02,2.8062e-02,-4.7615e-02,2.1008e-03,-1.8982e-03,4.6303e-02,2.1494e-03,-2.3074e-02,-2.3859e-02,-1.4202e-02,4.5818e-02,3.8103e-02,-1.5394e-02,2.5492e-02,-2.2503e-02,-1.7092e-02,4.1473e-02,-4.7267e-02,-1.9490e-02,-3.4198e-02,3.4747e-02,8.6000e-03,4.7952e-02,-2.1785e-02,-1.6910e-02,1.4411e-02,4.0189e-02,-2.8700e-02,-3.4033e-02,-7.4860e-03,-1.4054e-02,-4.0030e-02,-2.5551e-02,-4.6793e-02,-1.8098e-03,4.1704e-02,4.7047e-02,-1.7569e-02,-4.0557e-02,1.2758e-02
1.8608e-01,2.4583e-01,-9.6556e-02,-2.4223e-01,1.2397e-01,-1.3255e-01,2.0912e-01,3.0790e-01,-1.2105e-02,-1.1903e-01,-2.4303e-01,1.1791e-01,1.8273e-01,-1.8433e-01,-2.3098e-02,-1.8255e-01,3.6466e-01,-5.5920e-02,2.9182e-01,-1.1844e-01,2.2526e-03,-3.6755e-02,-1.3492e-01,-1.1885e-01,9.3514e-02,-1.3432e-01,9.0547e-02,1.6545e-01,-2.8781e-02,-2.6802e-01,7.5573e-02,-1.9687e-01,2.9680e-01,-3.3061e-01,-1.6978e-01,-2.6877e-01,-9.6716e-02,6.6727e-02,-2.1678e-02,-1.1359e-01,3.4546e-01,2.5023e-01,1.7702e-01
2.1278e-01,-1.1946e-01,-4.9212e-03,9.6869e-02,-4.3326e-02,2.5230e-02,-4.9759e-02,-3.1000e-01,-9.4503e-02,-5.4524e-02,4.2610e-02,-6.7073e-02,1.1324e-01,2.3734e-01,2.9785e-01,1.8422e-01,-2.3767e-01,2.7342e-01,-1.5946e-01,-1.9177e-01,-4.3184e-02,-2.2115e-01,7.3196e-02,-1.4827e-01,-1.9243e-01,-2.6190e-01,-1.4933e-01,-2.3018e-01,9.7432e-02,1.1867e-01,-1.9476e-02,-2.8899e-01,-1.5818e-02,1.7763e-01,3.9960e-01,7.4804e-02,2.2822e-01,-1.4660e-02,1.1500e-01,-2.6159e-03,-2.4748e-02,-1.4184e-01,9.9927e-03
1.5116e-01,3.3231e-01,4.0617e-01,-6.6313e-02,2.7366e-01,1.8016e-01,8.9805e-02,2.4780e-01,7.4356e-02,-4.4111e-01,1.4209e-01,2.0455e-02,-3.7888e-01,-4.1420e-01,-2.7384e-01,-1.3005e-01,5.7150e-02,-4.7896e-02,1.6666e-01,1.3536e-01,2.0608e-02,2.6553e-01,-1.5765e-01,-3.5873e-03,2.8760e-01,-1.9649e-01,3.0489e-02,1.0670e-01,8.2313e-02,-6.6264e-02,-1.0127e-01,2.8655e-01,-1.5226e-01,-2.8707e-01,-3.9465e-01,-1.7297e-01,-3.3048e-01,1.8807e-01,-2.6069e-01,1.3605e-01,2.0438e-01,-6.3654e-02,4.7488e-02
-7.3146e-03,-2.8479e-01,-2.2645e-01,-1.9686e-01,-2.4604e-01,-1.9856e-01,2.3221e-01,-2.9470e-01,-7.2646e-02,-3.0238e-02,-6.9686e-02,2.8833e-01,3.6051e-01,4.1358e-01,9.0004e-02,-7.9715e-02,4.4816e-02,1.5310e-01,1.7811e-01,-9.7416e-02,-6.4001e-02,-1.6481e-01,1.6209e-01,-3.1707e-02,-4.9833e-02,-3.4091e-01,1.6160e-01,1.1352e-01,9.0392e-02,-3.2399e-03,6.1817e-03,-1.7920e-01,1.2635e-01,1.2892e-01,1.3758e-01,-7.2064e-02,-1.3191e-01,5.5161e-02,-1.7255e-01,-4.7559e-02,1.5077e-01,6.3606e-02,1.8729e-01
-1.4864e-01,-2.9059e-02,1.7452e-02,1.2146e-01,-5.6464e-02,-6.1776e-02,-2.0121e-01,-2.8300e-02,6.4201e-02,5.2828e-01,2.7987e-01,-4.9253e-01,3.2261e-01,3.6230e-01,1.1495e-01,2.7759e-01,-5.4714e-02,-8.6106e-02,-4.9352e-01,-1.1882e-01,-3.2803e-02,-1.4429e-01,6.5607e-02,-4.3534e-02,-1.7260e-01,3.6957e-01,-2.6073e-01,-3.3732e-01,-1.0353e-01,1.1073e-02,-2.0968e-01,-3.7999e-02,-1.1415e-01,-8.7450e-02,-1.2754e-01,5.8168e-01,1.6508e-01,5.1411e-02,2.1160e-01,1.1690e-01,-1.8487e-01,-4.5881e-03,-8.2014e-02
4.5902e-02,-1.0604e-01,-1.4879e-01,-1.8961e-01,-5.7749e-02,-1.8403e-01,1.8447e-01,4.7012e-01,2.7754e-01,6.3540e-02,-1.0015e-01,2.1483e-02,6.3019e-02,-2.4996e-01,-4.4025e-02,-2.3003e-02,2.0637e-01,-2.1675e-01,6.1874e-02,-1.1276e-01,1.3250e-01,-1.1806e-01,-2.3179e-01,1.4188e-01,-5.0798e-02,-1.1244e-01,3.4032e-03,1.4969e-01,6.7870e-02,-1.6056e-01,-6.6119e-03,-3.2421e-02,2.4695e-01,-5.0833e-01,-2.3009e-01,-1.9046e-01,9.7798e-02,1.0312e-02,-2.9500e-02,-1.8559e-01,2.5319e-01,2.5851e-01,1.9299e-01
-5.3978e-03,3.9690e-02,4.9900e-02,4.9455e-02,-4.5579e-02,-4.4249e-02,-4.7608e-02,-1.4276e-02,-1.7847e-02,-5.4427e-03,-7.5755e-03,-3.9458e-02,3.1689e-02,-2.0978e-02,1.9925e-02,-2.7274e-02,-2.7910e-02,1.6488e-02,-2.6178e-02,2.1137e-02,-4.3665e-02,-2.5280e-02,-9.3547e-04,4.7429e-02,4.5136e-03,4.5004e-04,-2.6169e-02,1.0747e-02,-2.6517e-02,1.3708e-03,3.9186e-02,4.3283e-02,3.1652e-02,1.3318e-02,-2.2237e-02,2.4778e-02,3.3047e-02,2.2859e-03,-4.2833e-02,3.3874e-02,-2.8114e-02,9.8404e-03,7.7670e-03
-6.7001e-02,1.7068e-02,-7.6836e-02,-5.1622e-03,1.8628e-01,-3.6928e-02,-6.3710e-02,-3.7713e-01,-1.4217e-01,-9.1773e-02,-1.2532e-01,-1.2060e-01,-2.4755e-01,1.1603e-01,-1.3089e-02,1.1316e-01,-2.2226e-01,8.8306e-02,8.8863e-02,2.0250e-01,8.4950e-02,-4.5819e-03,1.7582e-01,1.5526e-02,1.4588e-01,-1.5000e-01,5.7810e-02,1.6410e-01,2.1089e-01,8.3599e-02,3.3452e-02,1.0782e-01,-1.3422e-01,4.5958e-02,5.2159e-02,-1.5206e-01,-9.3073e-02,-3.1435e-02,1.2874e-01,8.4710e-02,2.3427e-02,-9.5490e-02,-1.6428e-01
-1.1917e-01,-1.5201e-01,-1.3823e-01,2.4378e-02,-9.1183e-02,1.6473e-01,1.8123e-02,7.1135e-02,1.5575e-01,-2.4616e-02,5.7104e-02,3.7837e-02,2.1246e-01,-1.6614e-01,-8.5876e-02,-2.5389e-02,-6.0434e-02,-1.4427e-01,1.2401e-01,1.2079e-02,1.8951e-01,1.7408e-01,1.3573e-01,1.5767e-01,-1.2766e-01,-1.1035e-01,8.3555e-02,9.0381e-02,1.3452e-01,1.4152e-01,1.2515e-01,7.7886e-02,1.4234e-02,-1.5241e-01,-2.9592e-03,-9.5318e-02,-1.4503e-01,-1.3947e-01,-2.4970e-01,-5.0652e-02,-1.2488e-01,-7.4106e-02,4.9132e-02
-7.6253e-03,2.9636e-01,8.1972e-02,1.2635e-01,2.4266e-01,-4.0756e-02,-6.8127e-02,1.5069e-01,1.4232e-02,3.3666e-02,-1.5054e-01,-7.3986e-02,-1.5974e-01,-1.4501e-01,2.4755e-01,1.2876e-02,-6.0112e-02,2.7371e-01,-1.0758e-01,-1.4031e-01,-5.4378e-02,-9.7584e-02,1.0711e-02,-9.6007e-02,-1.3831e-02,3.7610e-02,-2.1308e-01,-1.1394e-01,3.0728e-02,4.0211e-02,-2.2859e-01,2.4311e-02,-1.1540e-01,1.2792e-01,-8.2509e-02,1.6261e-01,6.2803e-02,-8.7682e-02,2.0254e-01,7.3013e-03,-1.6946e-02,-1.6717e-01,-1.8603e-01
1.2005e-02,-1.2619e-02,3.3201e-02,-3.4199e-02,2.4829e-02,-2.3642e-02,-2.5407e-02,4.6436e-02,-4.5104e-03,-4.7225e-02,-7.9330e-03,1.9883e-02,-3.1503e-02,-2.3011e-02,1.5847e-02,-1.9932e-02,-1.6430e-02,-5.3849e-03,-1.5101e-02,1.7133e-02,-1.1910e-02,3.1034e-02,-2.8436e-02,3.7151e-02,1.6848e-03,-4.7819e-04,4.4848e-02,1.0232e-02,3.2206e-02,1.0574e-02,3.8125e-02,3.5529e-02,-3.0856e-02,2.4304e-02,5.2142e-04,4.3105e-02,-4.5621e-02,2.1015e-02,-2.6016e-02,3.6201e-02,4.1107e-02,-2.2358e-02,1.0007e-02
4.9341e-02,-2.8709e-02,4.1449e-02,-6.2469e-03,3.7984e-02,-4.8885e-02,-4.9856e-02,3.6535e-03,-3.7946e-02,-9.1553e-03,-4.7817e-02,3.7445e-03,-3.0820e-02,4.9697e-02,-1.2253e-02,-2.6452e-02,4.6405e-02,-2.7845e-03,-3.2289e-02,-6.0475e-03,3.3146e-02,-2.1444e-02,1.9687e-02,-3.2867e-03,-2.0755e-02,2.6404e-03,4.8904e-02,-2.4441e-02,-9.0814e-03,3.3157e-02,1.6559e-02,2.9193e-02,1.0178e-02,-4.0380e-03,2.0366e-02,2.0728e-02,2.3838e-02,4.5541e-05,1.3802e-02,4.0158e-02,1.8016e-02,-4.3851e-02,2.3989e-02
1.1820e-01,-1.5885e-01,-1.6376e-01,3.0955e-01,-2.0585e-01,1.4816e-01,-1.0437e-02,3.5819e-01,4.4064e-01,3.4410e-01,8.5284e-02,-2.2759e-01,1.2422e-01,5.2497e-01,-1.5197e-01,9.4731e-02,3.3972e-01,-3.1984e-01,-3.9836e-01,-1.5741e-01,-3.2183e-02,-2.2836e-01,-1.4120e-01,-1.9619e-01,-2.9836e-01,2.8405e-02,-2.9064e-01,-3.5054e-01,7.9558e-03,1.1355e-02,-9.3856e-02,-1.9258e-01,7.5258e-02,-2.1514e-02,1.8340e-01,3.5933e-01,3.7729e-01,2.8378e-02,-1.8367e-01,-5.8279e-02,-8.7464e-02,1.2454e-01,2.1906e-02
-3.9428e-02,4.9761e-02,-5.5963e-02,5.7074e-02,-8.8963e-03,-7.2226e-02,-8.3004e-03,3.1404e-02,7.1237e-02,2.4237e-02,-8.1445e-02,-1.6569e-02,-7.4338e-02,-2.1823e-02,-5.1050e-02,-7.1727e-02,4.1406e-02,-5.9674e-02,-5.8637e-02,-7.6302e-03,1.0806e-01,-6.3367e-03,-4.9398e-03,6.1900e-02,-2.3585e-03,1.0152e-02,2.9391e-03,-2.1458e-02,8.1306e-02,4.7199e-02,-7.1551e-03,1.1641e-01,1.0958e-02,-8.0247e-02,3.0675e-02,-1.9798e-02,4.3608e-02,4.9332e-03,1.6888e-03,-3.4715e-02,-4.4533e-02,6.7621e-02,-5.5704e-03
-4.2096e-02,2.1990e-02,6.6644e-03,1.2471e-01,-3.1644e-02,2.1212e-02,-4.1612e-02,-5.3571e-02,1.5366e-03,-2.9442e-02,-2.0874e-02,3.4052e-02,1.3400e-02,-4.6828e-02,-3.9264e-03,3.0313e-02,-8.4228e-05,-4.1077e-02,9.8290e-03,9.4794e-03,-5.6284e-02,-3.3923e-02,-4.2983e-02,4.3470e-02,-4.0434e-02,9.5651e-03,-3.7875e-02,-3.6737e-02,3.9439e-02,3.3790e-02,-3.7317e-02,-2.8322e-02,1.0186e-02,3.2673e-02,-2.7062e-02,6.8459e-03,-1.4834e-02,-9.4220e-03,-3.8805e-02,5.3071e-03,-3.4530e-03,4.7442e-02,-8.5003e-03
-3.3586e-02,1.5453e-01,-1.0958e-01,-3.3432e-01,2.0347e-01,-7.2682e-02,-2.4171e-01,2.5906e-01,3.5057e-01,-1.7380e-02,1.7019e-01,-5.3031e-02,1.6415e-01,-2.4943e-01,9.6707e-02,1.2744e-01,2.3455e-02,4.9307e-02,2.1553e-01,-9.0389e-02,-3.2635e-02,7.3832e-02,-9.7500e-02,-1.9191e-01,-1.7367e-01,-1.3391e-02,1.9138e-01,6.5397e-03,-1.9426e-01,-6.1278e-02,-1.4249e-01,1.5692e-01,-1.1315e-01,4.9465e-02,-2.9169e-01,-8.6064e-02,-1.8537e-01,2.9618e-01,1.2910e-02,2.6812e-01,2.8037e-01,-2.1071e-01,-1.6750e-01
-1.2011e-01,1.4922e-01,5.3360e-01,-2.5765e-01,5.9730e-02,-9.7258e-02,-2.1570e-01,1.2469e-02,-1.8902e-01,-1.0402e-01,-4.3879e-02,1.4464e-01,3.7852e-02,1.1230e-01,2.6928e-01,1.4714e-01,-3.0996e-01,7.7597e-02,2.8526e-01,1.1071e-01,-2.6910e-01,1.5611e-01,5.0514e-02,-2.6137e-01,1.1603e-01,1.8992e-01,6.3286e-02,5.6711e-02,-3.3420e-01,-5.8401e-02,-9.2474e-02,2.8456e-01,-1.5326e-01,4.3006e-01,-2.0261e-01,-2.3390e-01,-2.1880e-01,3.8496e-01,-3.1352e-01,3.4470e-01,-1.1845e-01,-2.0052e-01,-2.3197e-01
-6.8677e-02,-1.2725e-01,1.9717e-01,3.7851e-02,-1.1409e-01,-3.1900e-01,-2.3496e-01,-5.4748e-01,-4.9735e-01,-8.1893e-02,-2.0639e-01,-1.6831e-01,-1.2562e-01,2.2426e-01,3.1605e-01,-8.9895e-02,-3.0021e-01,-1.0993e-02,5.5609e-02,1.0829e-01,1.6094e-01,1.0069e-01,4.4834e-01,6.3856e-02,1.9722e-01,2.5940e-01,6.9541e-02,9.7435e-02,3.0506e-01,1.7114e-01,2.2015e-03,4.7866e-02,-1.0200e-01,8.5045e-02,1.3984e-01,5.6963e-02,5.0461e-02,-5.4779e-02,2.7509e-02,1.9548e-01,-1.8275e-01,-7.5971e-02,-2.9077e-01
-7.1979e-02,1.6065e-02,-9.8327e-02,-1.7799e-01,-1.3601e-01,7.2533e-02,1.7535e-01,-1.1756e-01,-1.7124e-01,-8.2757e-02,1.1529e-01,1.5590e-01,2.3392e-02,2.2935e-01,-3.0786e-01,-3.4547e-02,-2.4085e-02,-7.8650e-02,1.7517e-01,-9.2896e-02,3.6182e-03,-2.1155e-02,-4.1475e-02,1.6570e-01,7.0214e-02,-1.6940e-01,1.9951e-01,3.6063e-02,1.0401e-01,5.5804e-04,-6.6539e-02,2.6955e-02,3.4418e-02,-1.1307e-01,-4.2814e-02,9.0813e-02,-7.7128e-02,4.4143e-03,5.9999e-02,-7.4386e-02,1.6561e-02,1.7632e-01,2.0914e-01
-1.9247e-01,-6.8950e-02,1.5549e-01,8.7812e-02,-5.8389e-02,3.2345e-01,-3.5658e-02,-7.9812e-02,-5.4616e-02,-1.1930e-01,3.8845e-01,-3.2236e-01,-4.6303e-01,2.9548e-01,-6.6982e-02,-1.9085e-01,-6.6387e-03,-1.4490e-01,9.6090e-02,-5.4598e-02,1.0548e-01,-2.6140e-02,1.5785e-01,9.4206e-02,5.8071e-02,5.1091e-01,-1.3951e-01,-1.5289e-01,-2.1800e-01,8.0100e-02,5.3281e-03,2.0129e-01,-2.5059e-01,-5.6118e-02,-3.9841e-02,1.8820e-01,-4.8888e-02,1.1788e-01,9.6238e-02,1.2431e-01,-1.0811e-01,-9.0940e-02,-5.3568e-02
-1.2871e-03,-3.6216e-02,-2.2069e-02,-2.9477e-02,-1.9716e-03,-3.6943e-03,-2.4239e-02,-3.9244e-02,3.9692e-02,-3.9463e-02,4.8163e-02,-6.5157e-03,-2.3985e-03,2.0788e-02,1.4149e-02,-3.2920e-02,-3.9645e-02,-2.9620e-02,-2.0090e-02,-2.4887e-02,2.1196e-02,1.5005e-03,-4.9051e-02,-3.0645e-02,3.8287e-02,2.1896e-02,2.3455e-02,1.8723e-02,4.4446e-02,-2.7681e-02,-1.2865e-02,1.1942e-02,1.1373e-02,1.1152e-04,-2.6621e-02,-1.8359e-02,-2.3632e-02,-2.3916e-02,-3.3835e-02,4.4144e-02,-1.4587e-02,-1.2709e-02,1.7587e-02
-5.3317e-02,-1.0366e-01,-2.4009e-01,-1.4924e-01,-2.0917e-01,-3.6285e-02,-8.7297e-02,-9.8383e-02,1.3185e-01,-3.5506e-01,-3.5651e-01,2.8980e-01,-2.6754e-01,-1.3002e-01,-5.5683e-02,-9.8497e-02,-2.2256e-01,1.2610e-01,2.2853e-01,1.4087e-01,6.7328e-02,2.1781e-01,1.7341e-01,9.9417e-02,2.4651e-01,3.4535e-01,1.8575e-01,1.6389e-01,1.5575e-01,2.8991e-01,2.3722e-01,2.5423e-01,-5.3639e-02,-2.7398e-02,-1.9814e-02,-1.0970e-01,3.6035e-02,-8.3877e-02,-6.2946e-02,-1.0605e-01,-1.3876e-01,-9.3523e-02,-1.1427e-01
-7.1896e-02,2.3770e-01,8.9566e-02,-1.6298e-01,2.9611e-01,-2.0797e-02,1.2802e-01,-8.3654e-02,-2.6280e-02,-1.0911e-01,-3.6233e-02,-8.2346e-03,-6.4137e-02,-3.0505e-01,9.5181e-02,-1.6416e-01,-6.6719e-02,4.2422e-02,8.9208e-02,-4.3623e-02,-8.7021e-02,1.1542e-01,-1.1834e-01,-7.0741e-02,4.6543e-02,-2.7386e-01,-1.1363e-01,2.9327e-02,-5.1371e-02,-6.2520e-03,1.3847e-01,7.8860e-02,7.3387e-02,-5.2595e-03,4.7463e-02,-1.4184e-02,-1.5131e-01,-7.9005e-02,2.1395e-01,1.1205e-01,2.1679e-01,5.4194e-02,-3.3863e-02
1.9095e-01,2.5344e-01,-1.4723e-02,1.4645e-01,2.6023e-01,1.7687e-02,3.8985e-02,2.3544e-02,8.3764e-02,-2.2800e-01,-1.2987e-01,-1.9762e-01,7.6076e-02,1.6505e-01,7.7759e-02,1.5035e-01,-2.5472e-01,4.2873e-01,-2.4920e-02,-9.4224e-03,-1.1751e-01,-2.3546e-01,5.4662e-02,-1.7096e-01,-1.1239e-01,6.6407e-02,-1.1547e-01,-1.6809e-01,-1.6756e-02,4.6734e-02,-3.8495e-02,4.5361e-02,-3.2526e-02,3.5216e-02,5.3687e-02,-7.7140e-02,1.6784e-01,-6.0173e-02,2.0392e-01,1.1587e-01,-4.4216e-02,-2.0476e-01,-1.8579e-01
-2.4804e-02,-4.2813e-02,-3.2223e-01,-2.0286e-01,4.4636e-03,-2.8608e-01,1.5798e-01,7.4602e-02,3.7504e-01,-1.0935e-01,-5.8858e-01,9.4029e-02,3.9925e-03,3.4956e-01,-1.6027e-01,-5.6452e-02,-3.0104e-02,1.6164e-01,2.4195e-01,-4.2406e-03,-5.5138e-02,-1.2973e-01,2.0757e-01,-8.2176e-02,-4.3717e-02,1.6224e-01,2.4501e-01,1.0662e-01,4.4829e-02,1.3035e-01,6.2441e-02,1.0073e-01,7.4653e-02,-1.4774e-02,-5.4816e-03,-1.6784e-01,-8.8887e-03,-6.1058e-02,-1.9568e-01,-9.1782e-02,1.1718e-01,2.5663e-03,-1.3578e-01
-1.0120e-02,-3.2413e-01,-3.6030e-01,-9.7013e-02,-1.7445e-01,-2.3283e-01,4.5599e-02,-6.7212e-02,1.0212e-01,8.8450e-02,-3.8834e-01,2.9336e-01,1.6954e-01,-2.9481e-01,-1.5483e-01,-1.6853e-01,2.9467e-01,-3.8288e-01,1.6726e-01,6.7777e-02,2.9170e-01,-5.3893e-03,-1.1228e-01,1.6720e-01,1.0729e-01,8.6390e-04,2.6503e-01,3.6736e-01,2.6411e-01,-4.1196e-02,2.9153e-02,-5.3637e-02,2.7458e-01,-4.1707e-01,1.4551e-01,-1.0032e-01,2.6102e-01,-2.7774e-01,2.0229e-01,-4.2935e-01,1.9153e-01,4.1409e-01,1.2856e-01
1.7413e-02,1.7743e-01,2.7487e-01,-8.7419e-02,3.7569e-03,9.2940e-02,4.7572e-02,-1.6077e-01,-1.8879e-02,-1.6817e-01,-3.6894e-02,2.9773e-02,1.1550e-01,-2.6996e-01,3.8016e-01,4.1205e-02,-1.8167e-01,2.3631e-01,7.5820e-02,-9.2523e-02,-9.3133e-02,7.4093e-02,-2.8694e-02,-1.6784e-01,-4.7480e-02,3.6111e-01,5.1034e-02,-1.1320e-01,-2.3136e-01,4.9736e-02,-3.5952e-02,1.2505e-01,-3.7375e-02,1.3296e-01,-1.5320e-01,-2.9132e-01,-5.6795e-02,-4.6670e-02,-1.8479e-01,4.9953e-02,1.2092e-01,-1.5993e-01,-6.3666e-02
1.3092e-02,-2.6725e-03,-7.4859e-02,-1.2568e-02,-4.1052e-02,5.1236e-02,5.0049e-02,-4.7661e-02,6.2188e-03,5.7950e-03,4.0700e-04,4.0344e-02,2.4623e-02,-1.5541e-02,9.2640e-03,-1.0520e-03,-1.4063e-02,2.6254e-02,-2.6295e-02,2.8274e-02,3.6129e-02,3.9506e-02,-7.6249e-03,1.8038e-02,3.6525e-02,-3.0080e-02,-8.0889e-02,3.5557e-02,2.9642e-02,9.4825e-03,5.1249e-02,2.4538e-02,-3.9637e-02,-4.5253e-02,-2.7845e-02,3.4897e-02,2.0535e-02,-1.0460e-02,-1.0568e-02,-5.4410e-02,-1.1549e-02,1.0965e-02,-2.7501e-02
1.5645e-01,-7.8950e-02,9.7111e-02,1.8823e-01,9.1462e-02,1.2376e-01,1.2108e-01,-1.0460e-01,-1.2424e-01,-4.9897e-02,-9.5647e-02,-1.4430e-01,-7.0798e-02,-1.8844e-02,-1.7964e-03,-9.7678e-02,-4.4696e-02,4.6818e-02,3.6613e-03,1.7979e-02,5.7375e-02,-2.4244e-02,4.5988e-02,-3.8630e-02,-3.2235e-02,3.0090e-02,-4.2122e-02,-2.3406e-02,3.7514e-02,-8.5640e-02,-5.9042e-02,-3.2693e-03,1.7926e-01,-8.3865e-02,2.7148e-02,-4.5463e-02,1.2573e-01,-7.4114e-02,-2.2947e-02,-1.0695e-01,-5.9727e-03,1.3471e-01,1.0584e-01
3.2360e-02,-7.6337e-03,1.0392e-01,1.2298e-01,6.8672e-02,1.8094e-01,1.4910e-01,-1.3170e-01,-3.8248e-02,-2.3732e-01,2.5023e-01,-6.2362e-02,-9.4664e-02,5.3366e-02,2.0910e-01,4.9331e-02,-4.4753e-01,3.0071e-01,-1.2864e-01,-6.0120e-02,-8.7428e-02,7.0054e-02,1.2536e-01,-8.2945e-02,-7.6230e-02,1.6467e-02,-9.0560e-02,-2.7964e-01,-6.6552e-02,8.2272e-02,6.8298e-02,-9.6796e-02,-7.0822e-02,3.4031e-01,4.1803e-02,3.1945e-01,-1.0860e-01,-1.5613e-02,-2.3517e-02,-1.2908e-02,-2.1457e-01,-1.6830e-01,2.8791e-02
-1.9276e-01,-3.2255e-01,-3.3733e-02,-1.5722e-01,3.9560e-02,6.0637e-02,-3.3659e-01,-4.2806e-02,-1.9093e-02,1.6950e-02,2.8440e-01,3.3562e-02,2.3239e-02,2.0092e-01,4.7845e-02,-8.2218e-02,4.8924e-02,-1.4637e-01,7.0839e-02,1.9756e-01,-1.6348e-01,2.0942e-01,-2.4219e-02,-5.2517e-02,1.2737e-01,4.9457e-01,5.6709e-02,6.0070e-02,-6.8732e-02,7.4175e-02,1.0838e-01,3.0054e-01,-2.9830e-01,4.0297e-01,-9.5780e-02,-4.0266e-02,5.3452e-02,8.3520e-02,-2.8026e-01,1.4182e-01,-4.6070e-03,-2.0168e-01,-1.8880e-01
-2.8251e-02,-2.0948e-01,-3.5497e-01,-1.5935e-02,3.3340e-01,6.6164e-02,-1.5438e-01,2.3549e-01,1.6758e-01,1.6330e-01,3.2848e-01,-9.6426e-02,-1.1591e-01,4.7870e-01,-1.8101e-02,6.2308e-02,-1.4057e-02,-1.1301e-01,-1.4998e-01,-9.2348e-02,-9.4667e-02,-1.1110e-01,-5.2234e-02,-8.7651e-02,-1.6347e-01,-3.4085e-02,2.8009e-02,-4.2049e-02,-1.1835e-01,3.8123e-02,-6.4009e-02,7.3925e-02,-1.4887e-01,4.1673e-02,2.4176e-02,1.9980e-01,-2.0266e-02,2.3811e-01,-2.6926e-01,1.8876e-01,-1.1625e-01,-1.6243e-01,-6.1820e-02
-1.3585e-01,-1.3544e-01,6.2574e-02,1.8602e-01,1.3125e-01,-3.5218e-02,-4.1086e-02,-8.5946e-03,3.9549e-02,-1.5328e-01,5.0289e-04,-1.7475e-01,-7.0397e-01,-3.4285e-01,-2.4812e-02,-8.2501e-02,-7.2243e-02,-1.1813e-01,-1.6494e-01,1.4443e-01,3.1205e-01,8.0037e-02,4.1387e-02,3.3689e-01,-1.6344e-01,-5.8140e-02,2.7368e-02,1.4503e-01,1.9441e-01,3.4784e-02,7.6885e-02,3.1840e-02,8.7326e-02,6.5406e-02,1.0105e-01,-2.5506e-02,1.0879e-01,-6.9863e-02,1.9413e-01,-5.3565e-02,2.9776e-02,2.5341e-02,6.0699e-02
-2.8834e-02,3.9227e-01,2.7010e-02,3.9520e-01,-1.6492e-02,6.8377e-03,4.8719e-02,-1.5121e-02,5.5719e-02,-1.4589e-01,6.7493e-02,2.8483e-02,-3.2866e-01,2.0302e-01,-7.0205e-03,-1.4140e-01,-1.3521e-01,2.2480e-01,4.1759e-02,-1.3220e-01,1.2168e-01,-1.6059e-01,-6.1559e-02,-1.9456e-02,-9.1451e-02,-9.6265e-03,-1.0321e-01,-1.9774e-01,-3.5079e-02,-7.8901e-02,2.8784e-02,5.3410e-02,2.3246e-02,2.8678e-03,1.1192e-01,1.9060e-01,-1.2346e-01,-1.6457e-01,3.4411e-01,-1.8098e-01,1.2704e-02,-2.0288e-02,3.0237e-02
2.7893e-02,8.5860e-03,1.1280e-02,3.3930e-02,-2.4255e-02,-1.6798e-02,-4.4766e-02,1.6264e-02,-5.1473e-02,-3.4193e-02,-3.1607e-02,-5.0315e-02,2.4580e-02,4.3120e-02,-2.9773e-04,1.5213e-02,2.0803e-02,-1.7125e-03,-2.8507e-02,4.0321e-02,-2.6029e-02,5.0345e-02,-2.2759e-02,-1.0029e-02,3.9010e-02,5.3327e-02,4.5747e-02,-2.6779e-02,1.7507e-02,-3.2744e-02,-3.0363e-02,8.6439e-03,-5.4403e-02,-2.7888e-02,-5.1086e-02,3.6697e-02,-7.5690e-03,4.4875e-02,-4.0495e-02,2.0543e-02,-1.7536e-02,7.9513e-03,2.2525e-02
2.1953e-02,4.1039e-02,-1.8567e-02,1.4292e-02,-3.7816e-02,6.7377e-02,-2.7047e-02,4.4546e-02,-3.7958e-02,2.3745e-02,-3.3304e-02,1.7940e-02,2.7392e-02,-9.3443e-03,-2.3014e-02,1.4842e-02,-2.1973e-02,2.4203e-02,-3.8272e-02,3.1873e-02,-1.5225e-02,2.9260e-02,-4.1574e-02,1.2961e-02,1.9128e-03,3.7712e-02,1.0672e-02,1.9038e-03,-4.0270e-02,-4.0492e-02,-3.3072e-02,3.3353e-02,2.0093e-02,4.4003e-03,7.0750e-03,-2.4089e-02,4.4052e-02,3.3368e-02,-3.4084e-02,-1.1497e-02,-2.7435e-02,-1.9312e-02,-6.6067e-05
-6.9891e-02,-1.3684e-01,8.3874e-02,2.4266e-01,-3.5686e-01,-7.6561e-02,-3.3745e-03,-1.5892e-01,-2.1716e-01,3.3589e-01,-1.5883e-01,1.3275e-01,-7.9558e-02,2.2580e-01,4.4433e-02,-1.6164e-03,2.2705e-01,-2.1437e-01,-1.8564e-02,-9.6264e-02,6.7737e-02,-7.6501e-02,6.2823e-02,5.2091e-02,1.5421e-02,2.2410e-01,-1.2013e-01,-3.9568e-02,9.5436e-02,7.6797e-03,3.6241e-02,-1.7558e-01,9.4368e-02,-2.7445e-02,2.6904e-01,-4.3527e-03,2.2201e-01,-7.9409e-02,3.8840e-02,-2.1860e-01,-9.1632e-02,1.8275e-01,-4.3410e-03
-1.3767e-01,-3.1333e-01,-3.5803e-01,-2.9526e-01,5.4625e-02,-3.6733e-01,-4.0604e-01,6.8052e-02,2.4158e-02,3.6594e-01,6.1117e-02,-2.0740e-01,1.8961e-01,3.5829e-01,3.0467e-01,9.6118e-02,-9.8269e-02,2.8377e-02,-8.3508e-02,-3.3041e-02,-4.5892e-03,9.9110e-02,3.4686e-01,1.0142e-01,4.4055e-02,2.3346e-01,2.2714e-02,-1.0325e-01,-6.2814e-02,7.5861e-02,9.7009e-02,7.0977e-03,-2.3923e-01,1.4046e-01,2.6692e-02,1.1204e-01,-1.0378e-01,1.8616e-01,-6.8065e-02,3.1019e-01,1.2343e-02,-2.1684e-01,-2.9287e-01
-3.9105e-01,-2.9744e-01,-1.5537e-01,1.0533e-01,-3.5416e-01,-2.0388e-01,-1.4022e-01,1.1681e-01,1.4393e-01,1.4964e-01,-8.7459e-02,2.4540e-01,-1.1145e-01,-1.8624e-02,-3.7468e-01,1.4878e-01,-7.4705e-02,-2.6989e-01,-1.2520e-01,1.9340e-01,1.7475e-01,2.2968e-01,9.1190e-03,2.2209e-01,-9.6096e-03,1.3946e-01,1.2643e-01,1.9929e-01,2.8751e-01,1.8031e-01,2.4509e-01,2.8514e-01,-3.2411e-02,7.8117e-02,2.1579e-02,-6.2403e-02,-6.0028e-03,-2.3637e-01,-2.2377e-01,-1.5554e-01,1.8233e-02,1.0095e-01,-9.5817e-02
2.8389e-01,2.5413e-01,1.3755e-01,7.1562e-02,2.7005e-01,-9.4894e-02,2.1648e-02,-6.1117e-02,-8.0222e-03,-1.4277e-01,-5.1043e-01,7.7620e-02,-9.6740e-02,-2.2162e-01,1.0820e-02,7.6623e-02,-5.3886e-03,2.1992e-01,-1.3355e-01,3.3797e-02,-9.8762e-02,-1.3549e-02,5.5658e-02,1.8202e-03,5.5729e-02,-2.2003e-01,-9.8389e-02,8.9921e-02,1.9068e-01,4.1891e-02,-1.1743e-01,3.8296e-02,5.6073e-02,-8.8525e-03,1.8652e-01,-1.2216e-01,1.1501e-01,3.6902e-02,-1.7067e-01,-5.7893e-02,1.2777e-01,-5.6636e-02,-1.7582e-01
1.2325e-02,2.7243e-02,-9.2600e-02,-6.3180e-03,1.3799e-02,5.1520e-02,2.9309e-03,-7.5100e-02,-2.0012e-02,-4.2879e-02,3.6273e-02,2.9043e-02,3.6585e-02,1.7897e-01,-7.3704e-02,4.6613e-02,-2.8854e-03,-9.8835e-03,-1.4232e-03,2.6358e-02,-2.8758e-02,2.3852e-02,-4.9730e-03,4.7566e-02,-1.4385e-02,4.1397e-02,-5.0321e-02,2.6152e-02,-7.1575e-02,-6.7947e-02,-2.1957e-02,2.1618e-02,-1.0190e-01,1.8195e-01,8.0060e-02,4.7286e-02,-1.0491e-01,3.9255e-02,1.9521e-02,8.4185e-02,-2.3575e-02,-5.1719e-02,-3.6278e-02
-2.4391e-01,-6.2319e-01,-1.5437e-01,4.7163e-02,-1.4709e-01,1.7318e-02,-5.8833e-02,-1.7734e-01,-1.2337e-01,1.9094e-01,6.1375e-03,-3.7018e-01,-1.5568e-01,4.5167e-01,-4.9244e-02,-1.0718e-02,-4.8827e-02,-2.9886e-01,-1.0595e-01,1.0604e-01,2.3516e-01,-6.8941e-02,4.1145e-01,5.0759e-03,1.5844e-01,5.6399e-01,2.2088e-01,3.6022e-02,2.2692e-01,1.8191e-01,1.7572e-01,1.2050e-02,-6.3963e-02,-2.4866e-01,-1.8329e-02,2.1394e-01,3.1525e-01,-6.5959e-02,1.5619e-01,-1.0510e-01,-2.9307e-01,7.8174e-02,-5.3571e-02
-7.7827e-02,4.4431e-02,-1.3458e-01,1.7069e-01,-8.8998e-04,1.7663e-01,1.7831e-01,-5.4686e-02,-1.4109e-01,-1.1597e-01,1.1380e-01,7.7896e-02,1.9764e-02,8.3465e-02,-9.2045e-02,-2.0030e-01,-4.7347e-02,-6.1019e-02,-5.1567e-03,8.9641e-03,-3.7895e-02,1.6384e-01,-1.2083e-01,9.7471e-02,3.1625e-02,1.6237e-01,-4.9330e-02,-4.0258e-02,-8.2675e-02,7.7383e-02,3.5700e-02,2.2489e-01,5.5734e-02,1.4628e-02,-1.2588e-01,1.2171e-01,-7.4272e-02,-2.3991e-01,2.5390e-02,-7.4228e-02,-4.7592e-03,5.3108e-02,1.7326e-01
2.4179e-02,4.4999e-02,-7.4592e-03,2.6524e-02,-5.1245e-02,-4.3819e-02,-4.4594e-02,6.6183e-03,-1.4455e-02,3.4887e-02,2.8974e-02,2.9017e-03,-1.3243e-02,1.4120e-02,-4.7895e-02,6.0056e-02,-3.3973e-02,4.2421e-02,-2.3550e-02,-4.0323e-02,4.5872e-02,4.5367e-02,5.5398e-03,-1.0467e-02,-4.4599e-03,-5.3101e-02,2.2408e-03,-2.8603e-02,-1.8077e-02,5.2728e-02,-1.4645e-02,3.2542e-03,-3.2061e-02,-6.0873e-03,-5.0709e-03,4.4273e-02,2.1471e-02,-1.3439e-02,-1.5633e-03,1.0881e-03,3.2137e-02,2.3857e-02,3.0323e-02
7.1293e-03,-4.1244e-01,-7.3921e-01,1.1111e-01,-5.0815e-01,-1.0290e-01,-9.8919e-02,7.0132e-02,3.0226e-02,5.3928e-01,2.7181e-01,-6.0658e-03,-1.5985e-01,5.5005e-01,-3.7892e-01,1.5158e-01,1.5367e-01,-3.0247e-01,-4.8884e-01,6.8790e-02,1.1566e-01,-3.5551e-02,4.9086e-02,3.6759e-01,-1.2350e-01,-2.6159e-01,-1.7805e-01,-9.3482e-02,3.8942e-01,6.2897e-02,2.4165e-01,-2.5913e-01,4.6144e-02,2.3481e-02,5.2039e-01,5.6395e-01,-2.1288e-02,-2.6831e-01,8.4508e-02,-2.0792e-01,-6.9163e-02,2.2014e-01,1.4268e-01
1.0726e-01,1.5879e-01,1.6418e-01,2.7245e-01,-1.7537e-01,2.7100e-01,4.3052e-02,2.9567e-01,1.1768e-01,-3.1957e-02,1.2410e-01,-1.1510e-01,-3.7493e-02,2.3549e-01,8.6425e-02,5.1434e-02,1.2768e-02,6.3171e-02,-2.4949e-01,-2.4245e-01,-5.8856e-02,-1.1578e-01,-1.2638e-01,-2.1851e-01,-2.4408e-01,6.0483e-02,-2.4795e-01,-1.9904e-01,-7.2694e-02,-1.1545e-01,-2.7482e-01,-4.5875e-02,-1.5350e-02,-6.1905e-02,4.0017e-02,2.8826e-01,4.3489e-02,1.3373e-01,1.2643e-01,-1.1106e-01,-8.7799e-02,-7.2929e-02,1.3270e-01
-1.0094e-01,1.5329e-01,-1.2525e-01,1.2423e-01,-7.3409e-02,1.7405e-01,-5.0007e-02,-2.9340e-01,-1.9957e-01,7.2859e-02,1.9196e-01,-1.8106e-02,-7.9649e-03,1.3632e-01,-1.2287e-07,3.8893e-02,-1.4652e-01,-4.5511e-02,-2.5808e-02,1.0748e-01,-7.6330e-02,1.4582e-02,1.0031e-01,1.5906e-01,-2.3805e-02,-1.3618e-03,5.7123e-02,-1.7643e-01,-5.8167e-02,9.5628e-02,1.3573e-01,5.4249e-03,-4.9074e-02,8.8026e-02,9.5769e-02,2.2415e-02,1.2519e-02,-9.6415e-02,-1.1026e-02,8.9576e-02,-2.2681e-01,3.8842e-02,6.2574e-03
-1.1340e-01,-2.2585e-01,-7.2854e-03,3.7670e-02,-1.5896e-01,2.3993e-01,-1.1554e-01,1.2852e-01,3.9409e-02,2.6969e-01,3.6687e-01,4.5663e-02,1.1020e-03,2.1538e-01,7.8455e-02,2.6867e-01,9.5955e-03,-1.7849e-01,-2.7364e-01,-1.1746e-01,6.0236e-03,-2.2849e-01,-2.6632e-02,1.0586e-02,-1.3497e-01,2.0335e-01,-1.0658e-01,-2.1304e-01,-1.6562e-01,7.1919e-03,-1.5991e-01,-3.2477e-01,2.0613e-02,2.0812e-01,2.2642e-01,2.9304e-01,1.2245e-01,6.1082e-02,4.0413e-02,-8.9491e-02,-3.0299e-01,-1.4943e-02,3.6820e-02
3.2701e-02,-7.3633e-02,-1.2332e-01,-7.3680e-03,7.5629e-02,-1.5177e-01,7.1334e-03,2.2947e-02,9.0267e-02,1.1149e-02,-1.1995e-01,3.4594e-02,6.3125e-02,-6.7662e-02,9.1753e-02,6.1543e-02,2.3133e-02,-7.9784e-03,2.2741e-02,-2.2976e-02,-6.5639e-03,-5.1861e-02,-5.4761e-02,8.2933e-02,-1.2641e-01,5.9351e-02,-6.2144e-02,2.3303e-02,-6.5145e-02,-6.9876e-02,-6.4725e-02,3.5701e-02,8.4358e-02,-3.4475e-02,-2.0728e-02,-6.9929e-02,-2.0654e-02,-4.8558e-02,1.2676e-01,-4.5897e-02,1.4534e-01,5.9992e-02,-6.8001e-02
4.7714e-02,2.3326e-01,-6.7818e-02,2.1147e-01,-7.1132e-02,6.6178e-02,7.6341e-03,-7.3027e-02,1.0923e-01,1.5769e-01,-2.7647e-01,-3.5117e-01,1.3806e-01,1.7578e-01,2.0194e-01,1.5637e-01,-1.4940e-01,1.7041e-01,-1.7199e-01,-1.2388e-01,-3.5763e-02,-2.1623e-01,1.6918e-01,-1.7662e-01,-1.6532e-01,2.6713e-01,-1.5095e-01,-2.6804e-01,-9.4041e-02,-8.2755e-02,-7.4749e-02,4.7995e-02,1.4406e-02,-1.5992e-01,7.2932e-02,3.1309e-01,2.7756e-01,-1.1667e-01,3.5034e-01,-1.0975e-01,-1.4942e-01,-4.8591e-02,-1.8752e-01
-2.3599e-01,-1.1282e-01,-1.1870e-01,2.0746e-02,3.9170e-02,2.2618e-01,1.9297e-03,3.2403e-01,3.8354e-01,6.6961e-02,5.2229e-01,-1.5172e-01,3.2465e-01,5.7176e-02,-9.3695e-02,9.4623e-02,-2.0720e-03,-4.6698e-02,-4.4591e-02,8.6936e-03,1.9933e-02,7.1383e-02,-1.0753e-01,1.1531e-01,-2.0485e-01,-2.4007e-01,7.1985e-02,-8.1081e-02,-1.1209e-01,-6.5646e-02,-1.8465e-01,1.0575e-01,-3.0350e-03,2.6369e-02,-1.7106e-01,-2.6526e-01,-2.3458e-01,-1.6204e-01,-7.5313e-02,1.3408e-01,6.9721e-05,-4.8319e-02,4.8710e-02
1.9958e-02,-2.4633e-02,3.5753e-02,-2.6795e-02,4.1340e-02,-4.5087e-02,4.2687e-02,4.6729e-02,-2.0730e-02,7.5074e-03,-2.7866e-02,2.8440e-02,2.7146e-03,-2.1809e-03,-2.6638e-02,-3.8310e-02,-4.0066e-02,3.2282e-02,-4.2520e-02,-2.9090e-02,-2.8841e-02,2.0415e-02,2.6416e-02,3.4009e-03,5.7391e-03,-1.3604e-03,6.5802e-03,-4.5351e-02,-2.0030e-02,-2.0308e-02,-1.5620e-02,1.9317e-02,3.8313e-02,-5.0731e-03,2.2067e-03,4.6392e-02,1.5908e-02,3.0420e-02,-2.5132e-03,-4.5776e-02,1.1654e-02,3.2187e-02,-2.2121e-02
-1.3496e-02,3.3735e-02,3.8692e-02,-1.0241e-02,-1.8831e-02,-4.8137e-02,2.6171e-02,-3.6073e-02,3.1282e-02,4.0740e-02,2.1673e-02,4.7557e-02,3.2058e-02,-7.1730e-03,5.8602e-03,3.6237e-02,4.3894e-02,-2.8300e-02,-4.3031e-02,-4.7337e-03,1.7140e-02,1.7632e-02,-4.9624e-02,-4.9592e-02,-3.3370e-02,4.4153e-02,3.9080e-02,-4.6551e-02,-9.1558e-03,-3.7273e-02,4.9139e-02,6.8599e-03,-4.0151e-03,3.5745e-02,3.0711e-03,4.5985e-02,4.9200e-02,3.0863e-02,-1.7576e-04,1.4082e-02,1.8503e-02,5.2292e-03,4.0597e-02
-7.3102e-02,1.2852e-01,-1.0831e-01,-1.7449e-02,4.8538e-02,-9.4859e-02,8.9660e-03,-6.9883e-02,-1.7800e-01,7.3528e-02,7.0439e-02,1.1552e-01,2.8071e-02,1.8346e-02,3.1417e-02,6.2616e-02,-4.9983e-02,2.5933e-02,-8.3427e-02,2.1040e-02,3.2062e-02,-5.8961e-02,4.3020e-03,3.3515e-02,4.8865e-02,1.0052e-02,6.1287e-02,-3.6996e-02,3.3481e-02,-9.9679e-02,1.0123e-01,-1.4568e-02,5.0146e-03,1.0878e-01,-1.9812e-02,-3.7004e-02,-8.0486e-02,2.9293e-02,-5.9765e-03,2.1436e-02,7.2532e-02,2.9013e-02,4.2344e-02
5.8077e-02,-5.4348e-02,4.8875e-01,3.4511e-01,-2.9991e-01,3.4063e-01,1.9554e-01,1.0454e-01,-1.5895e-01,1.9544e-01,3.2462e-01,2.8772e-01,-4.1506e-01,-5.7783e-02,-3.1256e-01,-2.1005e-01,1.8353e-01,-5.8713e-01,-4.2712e-02,1.0315e-01,1.0919e-01,3.8346e-02,-2.5445e-01,1.3412e-01,-3.6141e-03,-2.2286e-01,-3.0965e-01,1.6494e-01,3.0423e-02,-6.4229e-02,1.3307e-01,-2.1205e-01,-3.5475e-02,1.1827e-03,5.9869e-02,6.3090e-02,-2.5210e-01,-1.2867e-02,-2.5064e-01,-3.0224e-01,-1.2673e-02,2.1220e-01,3.4077e-01
-2.7513e-02,5.0370e-02,-1.3346e-01,-4.1860e-02,7.3300e-02,-6.7267e-02,-1.0200e-02,-1.2772e-01,2.6489e-01,-1.2403e-01,-9.5079e-02,-1.4497e-01,-1.7606e-03,2.0388e-03,2.7065e-01,2.8734e-02,-1.1324e-01,2.7322e-01,1.7572e-02,-1.1312e-01,-5.5372e-02,-2.5410e-02,1.0918e-01,8.5753e-03,-5.6532e-02,-9.3273e-04,6.9460e-02,-1.3783e-01,-1.0615e-01,-4.2913e-02,4.5245e-03,1.7482e-01,4.8056e-02,-1.4113e-01,7.9593e-02,-5.2172e-02,2.1523e-01,-1.4470e-01,1.7695e-01,3.3518e-02,-8.7598e-02,-7.0011e-03,-3.3596e-02
4.6267e-02,5.7835e-03,4.4382e-02,3.9633e-02,-9.6384e-02,9.4788e-02,4.1010e-02,2.7807e-02,-1.0614e-01,2.5411e-02,4.0817e-02,1.7094e-02,-9.3302e-02,-9.1303e-02,-4.2561e-02,-1.0059e-01,4.0939e-02,-1.0097e-01,-7.2415e-02,-2.8410e-02,1.0369e-01,8.5805e-02,1.5950e-02,-6.7826e-02,1.1490e-01,1.5406e-01,-4.5837e-02,-1.9933e-03,2.9089e-02,5.7953e-02,9.7822e-02,-4.0977e-02,5.1796e-02,-1.3207e-01,-4.1493e-02,1.6381e-01,-1.1384e-02,-9.6305e-03,6.6703e-03,-1.4322e-01,2.3494e-02,1.2527e-01,1.2984e-01
-1.4350e-01,2.7557e-03,3.4153e-03,-1.4229e-01,9.5741e-02,1.0899e-02,-9.1361e-03,1.3435e-01,-6.7168e-03,1.9440e-01,2.9273e-01,-2.4131e-02,3.3792e-01,-1.9838e-01,2.5816e-01,-9.1623e-03,2.4972e-01,2.0487e-03,4.0099e-01,-1.8066e-01,-2.0661e-02,-1.2545e-01,-1.6163e-01,-1.2907e-01,-2.0492e-01,-7.7167e-02,2.5323e-02,-9.5896e-02,-2.6927e-01,-1.9192e-01,-1.3547e-02,-9.5121e-02,-1.4477e-01,1.7836e-01,-1.6152e-01,-1.4416e-01,-3.6375e-01,2.6858e-01,6.3162e-02,1.3160e-01,2.4288e-01,-1.7559e-01,-5.2206e-03
5.9015e-03,1.3872e-02,-8.2315e-03,1.0408e-02,-8.2973e-03,-2.7222e-02,-2.8373e-02,2.3967e-02,-3.8923e-03,2.5131e-02,1.1605e-02,-4.9071e-02,-1.0435e-02,1.0615e-02,2.0096e-02,-3.5188e-02,-2.7099e-02,-8.3388e-03,-4.3180e-02,4.5956e-02,-4.8279e-02,1.1314e-02,-1.7319e-02,3.7154e-02,-3.7008e-02,-4.5560e-02,-1.3798e-02,2.3715e-02,-1.5323e-02,-2.9866e-02,6.6139e-03,3.9553e-02,-4.1653e-02,8.2060e-03,-2.0592e-02,-2.9188e-02,-1.9866e-02,2.3788e-02,-4.4998e-02,2.4003e-02,-1.4893e-02,2.6426e-02,-2.0873e-02
1.8636e-02,-6.5136e-02,-5.1955e-02,1.9933e-02,-3.8077e-02,-4.4487e-02,-3.5476e-02,-5.1207e-02,2.3124e-03,-1.1925e-02,-3.7936e-02,1.1927e-03,2.0864e-02,5.0588e-02,-1.3434e-02,-4.1472e-02,1.5232e-03,-3.9363e-02,2.1650e-02,3.8666e-02,-7.4918e-03,-5.5830e-02,-9.3310e-03,3.0176e-02,-5.1277e-02,4.9596e-02,2.8170e-02,4.4513e-02,2.4930e-02,-2.2060e-02,-2.9756e-02,4.7585e-02,8.3932e-03,-1.4242e-02,4.2444e-02,5.5894e-03,4.4918e-02,4.4767e-02,2.4613e-03,-7.8463e-04,2.4992e-02,3.3016e-02,6.0006e-02
3.9250e-02,-4.3593e-02,-4.6228e-02,7.1742e-02,5.3713e-02,9.1288e-02,-5.5338e-02,4.8736e-02,-8.3781e-02,-9.2201e-03,-5.0519e-02,-4.9251e-02,-8.7232e-02,6.5366e-02,-4.1864e-02,-5.3866e-02,-3.5488e-02,1.6860e-02,-3.0386e-02,4.3464e-02,-4.2231e-02,-5.8254e-03,8.6390e-03,2.4621e-02,3.9218e-02,4.2287e-02,-2.7501e-03,5.7147e-02,2.3262e-02,-8.6221e-02,-1.7534e-02,2.2504e-02,6.6722e-02,5.5212e-02,1.3516e-02,-3.1194e-02,-6.6760e-02,7.0286e-03,5.5235e-02,3.3606e-02,-7.3780e-02,7.0687e-02,6.3614e-03
-1.8349e-01,-8.2283e-02,-1.6017e-01,-2.2348e-01,-5.8417e-03,-3.7087e-03,-5.0342e-02,1.4499e-01,-2.0892e-01,2.4315e-01,1.6032e-01,4.8161e-01,2.3816e-01,-3.4799e-01,9.0125e-02,-3.8893e-02,2.2518e-01,-3.3750e-01,3.7470e-01,-7.4754e-02,-2.3969e-02,-1.0782e-01,-1.8747e-01,2.0338e-02,3.9809e-02,-1.6789e-01,9.4201e-02,1.7617e-01,-1.1205e-02,-1.1547e-01,-4.7770e-02,-8.2217e-02,-1.8311e-02,3.1782e-02,9.6312e-02,-1.2481e-01,-1.3927e-03,-7.9987e-02,1.5673e-01,-9.2636e-02,4.8043e-02,1.3676e-01,1.9341e-02
-1.1867e-01,5.6496e-02,-9.2067e-02,-3.9019e-01,2.5497e-01,-3.1184e-01,-2.7226e-01,3.2634e-02,-2.0938e-01,1.5062e-01,1.0874e-01,1.2627e-02,2.8822e-01,1.0418e-01,1.1893e-01,1.7638e-01,-6.7256e-02,-4.7399e-02,1.5743e-01,8.5825e-02,-2.1051e-01,1.8746e-01,6.7852e-02,-1.2587e-01,5.5975e-02,2.0101e-01,1.7373e-01,5.7735e-02,-1.0900e-01,-8.4520e-02,-1.0935e-01,-8.3249e-02,-3.6939e-02,2.8639e-01,-2.5230e-01,-2.3198e-01,-4.6398e-02,1.2877e-01,-2.8483e-01,3.7413e-01,6.9637e-02,-2.1336e-02,-1.8907e-01
5.0046e-02,-2.8332e-02,2.9870e-01,1.0757e-01,-3.7722e-02,2.0704e-01,1.4172e-01,-6.5248e-02,-3.7437e-01,1.3674e-01,2.8967e-01,-2.0788e-01,-1.3692e-03,-1.0827e-01,-1.7001e-01,-1.7679e-01,2.8752e-02,-2.2083e-01,-1.8046e-01,1.6181e-01,-3.1334e-02,7.7398e-02,1.3430e-02,3.3124e-02,1.1150e-01,-1.2329e-01,-2.0739e-01,3.0877e-02,8.8124e-02,6.4734e-02,-1.1991e-01,-2.6935e-02,-3.5095e-02,-1.0867e-01,-1.4318e-01,2.9298e-01,2.2323e-02,-1.4274e-03,-2.1414e-01,7.0728e-02,-7.2595e-02,4.8108e-02,2.2415e-01
-4.5154e-02,-4.3997e-02,-5.1900e-03,4.2557e-02,3.4562e-02,9.6578e-02,-8.4916e-02,-1.4686e-01,1.3917e-02,4.9686e-02,1.2652e-02,-8.2980e-02,7.0103e-02,2.1574e-02,3.2950e-02,6.4909e-02,6.5859e-02,-2.8599e-02,-5.9529e-02,1.8525e-02,-1.7061e-02,-6.1469e-03,8.8124e-02,1.1563e-02,9.5644e-02,-3.0858e-02,8.6310e-02,3.0142e-02,2.2293e-02,5.3839e-02,3.4308e-02,-1.1669e-01,-5.1872e-03,-8.5396e-02,3.0036e-02,-7.0810e-02,9.6570e-02,4.9688e-02,1.0965e-02,9.1306e-03,-1.1160e-01,-3.7682e-02,-7.3352e-02
-2.1202e-02,3.6477e-02,2.3614e-02,2.0032e-02,2.0393e-02,4.0439e-02,-4.4694e-02,-3.4233e-02,6.6730e-04,-2.1571e-02,-1.8452e-02,-9.0664e-03,4.1750e-02,-2.8738e-02,3.5757e-02,-2.2513e-02,4.3624e-02,-4.4080e-02,4.7856e-02,-3.5537e-02,3.3941e-02,3.7532e-02,-1.2780e-02,3.4695e-02,-2.8943e-02,-3.8701e-02,3.0878e-02,3.7536e-02,1.6498e-02,4.1396e-02,3.6613e-02,1.0312e-02,1.1336e-02,-4.3309e-02,-1.8856e-02,-2.4865e-02,-4.6856e-02,-2.3913e-02,7.6624e-03,-3.9550e-03,-4.0126e-02,3.5435e-02,1.4089e-02
3.8346e-02,1.8459e-01,4.8948e-02,2.0944e-03,-3.4883e-02,8.3496e-02,-8.6625e-02,-7.1231e-02,-2.0697e-01,6.5972e-02,-1.8062e-02,-5.9051e-03,3.7940e-02,-1.6888e-01,-2.8420e-02,-4.7091e-02,-2.7304e-02,2.1170e-02,-4.8941e-02,6.7160e-02,-2.2458e-02,4.6572e-02,-1.5767e-02,-8.1686e-03,9.2009e-02,2.2385e-03,8.2743e-02,4.3181e-02,-1.3254e-02,1.7329e-01,4.0815e-03,1.4473e-01,-2.2451e-01,2.4494e-01,5.9383e-02,1.9752e-01,-8.3921e-02,1.8215e-01,-1.7394e-01,1.8885e-01,-1.1305e-01,-1.9796e-01,-1.9216e-01
-1.7298e-01,-2.9563e-01,-2.8599e-01,-2.4357e-01,-4.8355e-01,-1.5496e-01,1.7868e-02,2.2524e-01,-1.5964e-01,5.0262e-01,3.2487e-01,4.3589e-01,5.2844e-01,-2.7458e-01,-1.7893e-01,-2.2360e-01,6.5014e-01,-5.1699e-01,1.0632e-01,3.2330e-02,1.4690e-01,2.1172e-02,-3.1169e-01,3.6690e-01,6.6590e-02,-1.1509e-01,-5.7836e-02,2.0494e-01,9.5210e-02,-1.8619e-01,1.9340e-01,-2.2638e-01,8.1230e-02,-1.4096e-01,-2.1746e-01,-1.2573e-01,-3.4906e-01,-7.9818e-02,-2.3958e-01,-2.5243e-01,2.9320e-01,3.2621e-01,3.6063e-01
4.2014e-02,-4.0941e-02,-7.2846e-03,-2.4700e-02,-1.4190e-02,6.0994e-02,-1.9412e-02,-2.4286e-02,1.3635e-02,7.7134e-02,-5.6549e-02,-4.3349e-03,1.0160e-01,4.8585e-03,2.9520e-02,-1.0143e-01,-7.7567e-02,8.0734e-03,3.4042e-02,-3.8032e-03,3.5008e-02,2.0585e-02,3.2574e-02,8.3882e-03,3.1148e-02,-8.9556e-02,-2.1585e-02,-4.6334e-03,-2.7183e-02,-8.6724e-03,-9.0732e-03,3.0242e-02,-2.3681e-02,6.1276e-02,2.4632e-02,-5.5228e-04,-2.1415e-02,-5.0118e-02,7.4292e-02,-3.5706e-02,-4.1792e-02,-4.5873e-02,4.3316e-02
-1.4268e-01,1.6717e-01,3.3184e-01,8.7940e-03,-4.0835e-01,-2.2858e-01,4.2360e-02,-4.7588e-01,-4.0499e-01,-2.7506e-01,-4.1316e-01,2.5716e-01,-3.1114e-01,7.3171e-02,-6.9310e-02,-1.7979e-01,-1.7806e-01,-9.6936e-02,2.1185e-01,2.7473e-01,4.3100e-02,2.9023e-01,2.5094e-01,1.1749e-01,2.6592e-01,1.0998e-01,1.6603e-01,2.3149e-01,3.1692e-01,2.1158e-01,4.1140e-01,1.0939e-01,-5.1892e-02,1.6207e-01,1.9176e-01,-2.3470e-01,-1.1276e-01,-8.4850e-02,-2.4358e-01,-2.0280e-01,-1.1712e-01,1.0761e-01,-3.8066e-02
4.1111e-01,5.4800e-01,6.6725e-01,3.7854e-01,4.3453e-01,1.1274e-01,1.7524e-01,3.1635e-01,1.7737e-01,-2.8433e-01,-3.1364e-01,-4.0451e-02,-2.2495e-01,-3.7883e-02,-8.8441e-03,-1.1107e-02,-2.0578e-01,3.2774e-01,-3.9243e-01,-4.9119e-02,-2.6093e-01,-2.7504e-02,-1.4844e-01,-2.1523e-01,-7.9943e-02,-1.5656e-01,-2.6524e-01,-1.4716e-01,9.4747e-02,-6.1435e-02,-2.3255e-01,8.9391e-02,9.1918e-02,2.0723e-01,-1.5344e-01,9.5643e-02,3.1924e-02,2.3357e-01,-5.6710e-01,2.1890e-02,-1.7872e-01,-1.5906e-01,-1.2431e-01
-1.5274e-01,1.8650e-01,5.6248e-03,2.0175e-01,9.1943e-02,5.7220e-03,-3.6367e-02,1.2010e-01,1.3174e-01,9.4645e-03,1.4953e-01,-8.5323e-02,-3.5478e-01,-5.2709e-01,9.0063e-02,-5.4696e-02,4.7329e-02,4.1241e-02,-4.1042e-02,-1.1290e-01,1.3314e-01,2.0054e-01,7.1541e-02,2.0793e-01,-2.5634e-01,-4.2079e-02,-1.0483e-01,5.0349e-02,-4.1280e-03,-6.5297e-03,8.2307e-03,5.9508e-02,2.1330e-01,-2.0264e-02,1.6586e-01,-2.2971e-01,-7.4363e-03,-5.0416e-02,-6.3850e-02,-3.2025e-02,1.7019e-01,-7.5280e-02,1.0619e-01
-3.8878e-02,-3.7652e-02,-3.3572e-02,-4.0350e-02,1.2486e-02,2.9095e-02,-2.5578e-02,3.5426e-02,-1.8011e-02,1.0629e-02,-5.4182e-03,4.0582e-02,3.8773e-02,4.5722e-02,-2.1492e-02,1.9716e-02,-1.8902e-02,3.5437e-02,-2.4687e-02,-3.6498e-02,-1.7096e-02,1.4584e-02,1.0728e-02,-1.3824e-02,-1.0106e-02,4.7795e-02,1.9008e-02,3.6321e-02,6.6940e-03,-1.7401e-03,1.3165e-02,1.3981e-02,-2.6733e-02,-2.3523e-02,2.3438e-02,-1.3231e-02,-1.6319e-02,2.8362e-02,4.3327e-02,-5.7039e-03,-1.4097e-02,5.3417e-03,-4.7438e-02
7.6951e-02,1.1054e-01,2.8616e-01,3.0953e-01,-1.3338e-01,1.9039e-01,4.0269e-01,-1.1442e-01,1.5284e-02,-2.9923e-01,-1.4250e-01,4.4121e-02,6.2002e-03,-2.2715e-02,-1.3228e-01,-9.1629e-02,-1.1844e-01,1.0096e-01,1.8116e-02,-4.1087e-02,-1.1898e-02,-4.2630e-02,-1.3097e-01,-7.4602e-02,-6.6396e-02,1.5289e-01,-2.2167e-01,-6.3110e-02,-8.6453e-03,-6.9489e-02,-3.6245e-02,3.3601e-01,1.3826e-01,-2.8234e-01,-1.1137e-01,-1.1363e-01,2.6285e-01,-2.8960e-01,2.9519e-01,-3.0098e-01,-1.7841e-02,4.7652e-02,1.3916e-01
2.2976e-02,4.0831e-01,-2.3296e-01,2.7190e-01,3.7418e-01,3.1680e-01,2.8316e-01,1.0493e-01,-1.4436e-01,-2.5472e-01,2.2781e-01,-3.9409e-02,-2.2978e-02,-4.7245e-02,-3.6005e-01,-4.3921e-01,1.2615e-01,-1.4102e-01,-3.2741e-01,2.0248e-01,2.3271e-02,1.5565e-01,-2.7795e-01,1.0835e-01,3.3675e-02,-1.0233e-02,-2.5734e-01,-7.9214e-02,-3.2315e-02,-4.6540e-03,-6.4583e-02,2.8348e-01,2.0425e-02,-2.1285e-01,-2.1403e-01,3.2327e-01,-2.4444e-01,-1.5235e-02,-1.8112e-01,-1.2491e-01,6.9526e-02,9.5468e-02,3.0349e-01
-4.8565e-01,-4.4976e-01,1.4951e-01,-1.1340e-01,1.4710e-01,6.2913e-02,4.3374e-03,-1.8495e-02,1.7009e-01,-1.5289e-01,2.2162e-01,1.5770e-02,7.5194e-02,-2.4012e-01,5.1083e-02,6.1890e-02,-2.2174e-01,1.1888e-01,3.9131e-01,-8.9561e-02,2.5167e-01,-6.6763e-03,-3.7217e-02,1.3484e-01,1.8545e-02,2.3429e-01,1.6915e-01,-2.3661e-02,-1.4488e-01,-5.6848e-02,-3.2652e-02,2.7743e-01,-5.4016e-02,-1.8077e-01,-1.4850e-01,-1.5915e-01,9.3374e-02,-1.8400e-01,5.5500e-01,-6.2980e-02,-5.5987e-02,-1.4518e-01,-3.0875e-02
8.5152e-02,-3.9467e-02,-2.4412e-01,-9.6936e-02,2.6117e-01,3.5547e-03,7.8165e-02,-1.7124e-02,-8.0082e-02,9.9140e-02,-1.3420e-01,-2.0004e-02,-1.1712e-01,-2.5488e-02,-5.1523e-02,2.6690e-02,-7.6883e-03,-5.2978e-02,-4.5788e-02,-2.8138e-02,7.3743e-03,-1.1050e-01,5.7449e-02,2.8055e-02,-5.0721e-03,1.7094e-02,7.1691e-02,-1.4678e-02,9.9615e-02,-2.9346e-02,-5.2949e-02,-8.2366e-02,8.1863e-02,-3.7892e-02,3.8949e-02,1.8189e-02,1.0741e-02,-5.7999e-02,-4.4422e-02,-7.0578e-02,3.3742e-02,8.6560e-02,-1.1699e-02
1.1047e-02,1.8554e-02,-3.4888e-02,2.9310e-02,3.6822e-02,2.8956e-02,8.0580e-03,2.4140e-02,-4.2771e-02,-1.0961e-02,4.8046e-02,-5.5991e-03,-5.9496e-03,-2.2109e-02,3.0693e-02,4.4728e-02,1.9866e-02,4.9108e-02,3.9054e-02,3.9228e-02,-2.8458e-02,-6.0283e-03,4.6690e-02,7.1204e-03,-2.2581e-02,9.4959e-03,-4.1518e-02,-9.9365e-03,-3.3074e-02,-4.2894e-02,2.8312e-02,7.0813e-03,-3.6921e-02,3.9458e-02,-1.6205e-02,-9.5548e-03,4.7645e-02,-2.5194e-02,-2.3793e-02,2.5792e-02,3.8639e-02,4.4626e-02,6.8041e-04
1.0151e-01,2.6148e-01,-3.5658e-01,1.0125e-01,-1.2140e-01,2.6724e-02,3.3976e-01,2.1011e-02,-2.1334e-01,-1.4256e-01,-4.7864e-02,-3.7185e-02,-1.2480e-01,1.7868e-01,-1.4983e-01,-3.7106e-01,-6.6653e-02,1.0364e-02,-6.2521e-02,-1.7416e-01,1.4897e-01,-8.6890e-02,4.3525e-02,1.3363e-02,5.7090e-02,6.8135e-01,-1.6402e-01,-5.6478e-02,3.5077e-03,1.2844e-01,1.1690e-02,1.4648e-02,8.3315e-02,-2.4808e-01,-6.8172e-02,2.9700e-01,-1.1882e-01,-4.9976e-02,-2.9529e-02,-2.1357e-01,-2.2975e-02,1.6479e-01,2.0304e-01
-3.5247e-02,-3.1274e-02,4.2268e-01,2.5499e-01,5.0122e-03,3.8135e-01,8.2220e-02,-2.4337e-01,-3.1443e-01,3.8184e-02,2.1183e-01,8.1757e-02,-3.6751e-01,-3.4911e-01,-1.4764e-01,-4.8542e-02,-4.8017e-03,-2.9325e-01,-1.1940e-01,3.5057e-01,6.2981e-02,2.7231e-01,-2.0793e-01,2.3622e-01,1.0470e-01,-2.6400e-02,-2.9414e-01,7.6829e-02,2.5401e-02,1.2706e-01,7.0091e-03,2.8431e-01,-1.7519e-01,1.3154e-01,-1.0072e-01,5.1394e-02,-8.0333e-02,-1.1726e-01,-2.8290e-01,-1.0613e-01,-2.7129e-02,-2.4281e-02,4.6867e-02
1.1752e-01,1.6492e-01,-1.2940e-01,-3.9455e-01,4.3000e-01,-2.9529e-01,1.8660e-02,1.8919e-02,2.0502e-01,-2.8582e-01,-2.5638e-01,-1.9655e-01,3.1464e-01,-1.5454e-01,4.6882e-01,-1.9688e-02,-2.3896e-01,5.6139e-01,3.1927e-01,-1.5154e-01,-1.5097e-01,-9.8105e-02,1.7262e-01,-2.6048e-01,-1.4100e-01,-6.3471e-02,1.3603e-01,-2.4983e-02,-2.5930e-01,-3.1761e-02,-1.2987e-01,8.8095e-02,1.1803e-01,-1.2277e-01,-2.2400e-01,-3.5500e-01,-6.8909e-03,2.0078e-01,1.3827e-01,3.4624e-01,1.5415e-01,-9.1009e-02,-1.3722e-01
2.1575e-01,2.6081e-01,-1.4009e-01,-1.8851e-02,1.4534e-01,-1.5651e-01,-1.9336e-01,-1.0532e-02,2.4061e-01,-1.1495e-01,-1.2286e-01,-3.7852e-01,2.0428e-01,4.2455e-01,4.4008e-01,2.5357e-01,-5.4439e-02,3.9224e-01,-3.4395e-01,-6.7650e-03,-3.2872e-01,-1.4211e-01,1.2019e-02,-1.1018e-01,-2.7976e-01,1.2898e-01,-2.9203e-01,-3.9255e-01,-2.1218e-01,6.4355e-02,-3.1493e-01,-1.7265e-02,-6.5713e-02,4.4952e-01,2.1756e-01,2.0964e-01,2.2349e-02,9.3737e-02,-5.6504e-02,3.4956e-01,6.3484e-02,-2.6681e-01,-2.6895e-01
3.2779e-01,8.3309e-02,1.9706e-01,2.1208e-02,2.2457e-02,6.3137e-02,2.7560e-01,1.7271e-01,1.8266e-01,-2.5747e-01,8.8255e-02,1.3988e-01,4.6932e-02,6.4984e-02,-2.1540e-01,-1.6267e-01,2.4570e-01,-5.7112e-03,1.3163e-01,-1.5843e-02,-4.6432e-02,-6.5736e-02,-3.0508e-01,-4.9874e-02,-1.2426e-01,-4.5687e-01,-5.4721e-02,3.5948e-02,6.7316e-02,-2.4687e-01,-7.0933e-02,-1.0298e-01,2.2908e-01,-2.2690e-01,-1.3336e-01,-2.5769e-01,-9.2964e-02,7.5262e-02,-3.2213e-01,-1.8635e-01,3.6220e-01,1.2410e-01,3.7167e-01
-1.6197e-01,2.9420e-01,1.5273e-01,-8.8339e-02,1.3800e-01,-1.0209e-02,-2.6777e-01,-2.0967e-02,-1.2883e-01,9.0019e-02,-1.0351e-01,4.2545e-01,-8.1299e-02,-5.1764e-01,-4.1396e-01,2.5477e-01,1.2097e-01,-1.6361e-01,2.6731e-01,2.7823e-01,-8.9082e-03,2.1439e-01,-6.6151e-02,9.7015e-02,2.6602e-01,-2.7105e-01,2.2223e-01,3.3185e-01,4.4582e-02,4.8757e-02,8.0226e-02,8.7912e-02,-1.3130e-01,1.8725e-01,-2.9535e-01,-3.5738e-01,-2.4882e-01,1.4426e-01,-2.6863e-01,6.7556e-02,3.8933e-02,-1.2658e-01,-2.0618e-01
-3.1449e-02,1.2267e-02,2.1788e-02,2.8127e-02,4.5834e-02,-5.8032e-03,2.7812e-02,-2.0626e-02,-4.1469e-02,-4.1034e-02,-1.1999e-02,1.3493e-02,-2.7768e-02,-1.2448e-02,-2.6562e-02,-1.7922e-02,4.7185e-02,-2.5386e-02,-4.8125e-02,-3.8038e-03,-1.0795e-02,1.6841e-02,-3.5819e-02,-2.0045e-02,-4.0365e-02,4.1887e-02,2.9123e-02,4.7344e-02,1.4920e-02,7.5662e-03,3.5374e-02,1.2736e-02,1.7128e-02,-9.6013e-03,-2.8003e-02,7.7712e-03,-5.9563e-03,-9.7861e-03,-4.2287e-02,-2.2137e-02,-3.0299e-02,-4.2642e-02,-5.7946e-03
-1.4287e-02,1.1580e-01,4.6931e-02,-2.8235e-03,3.0068e-02,6.2403e-02,8.9113e-02,1.0571e-01,4.1223e-02,-6.8559e-02,1.0039e-01,-1.3532e-01,-8.3155e-02,2.6089e-01,-2.1416e-03,-7.0133e-02,3.1643e-02,-8.1958e-02,-7.0050e-02,-1.0672e-01,-7.9280e-02,7.4885e-03,-1.4903e-01,-1.8288e-01,3.1980e-02,1.2087e-02,-8.7639e-02,-3.2605e-02,-1.8833e-01,-7.1154e-02,1.6109e-02,-1.3980e-01,6.1364e-02,1.0658e-01,8.1056e-02,2.2842e-02,-5.3562e-02,4.0103e-02,1.2047e-01,-5.7985e-02,7.2741e-02,9.5233e-02,1.8199e-01
-1.5139e-02,-7.8656e-02,1.6492e-02,1.3384e-02,5.1627e-02,1.0329e-01,3.2617e-02,2.4521e-02,-3.8873e-02,-5.5153e-02,-4.3053e-02,-4.7670e-02,1.7916e-02,5.9096e-05,-2.3154e-02,4.3295e-03,-2.2901e-02,-1.1315e-02,-1.3315e-02,-5.6331e-02,4.2592e-02,-1.5256e-02,-1.9718e-02,-1.0782e-02,-6.1976e-02,1.0718e-02,-1.0570e-02,6.7025e-02,-8.3927e-02,8.4436e-03,8.7632e-02,-5.6944e-02,-5.5614e-03,-3.2855e-03,-3.4723e-02,-4.6906e-03,-2.3840e-02,-1.2823e-02,6.2846e-02,3.2791e-03,-4.0164e-02,-3.4595e-02,1.1334e-02
1.2596e-01,4.4705e-02,1.1219e-01,-1.6434e-02,-1.5385e-02,-2.5542e-03,-8.8881e-02,-1.6671e-01,7.1158e-02,-9.0510e-02,-1.4839e-01,-8.6692e-02,9.6139e-02,2.5051e-02,-3.0923e-02,4.2722e-02,-5.5489e-02,1.0164e-01,-5.4055e-02,-4.3442e-03,1.5579e-02,1.2051e-01,2.8183e-02,-2.0473e-03,3.2564e-02,-1.5239e-01,1.5992e-01,-5.9504e-02,1.7501e-02,4.5245e-02,-1.4250e-01,2.2468e-01,-5.9971e-02,8.6862e-02,-1.5431e-01,-8.0201e-02,-9.6767e-02,1.7251e-01,5.3165e-02,1.3874e-01,1.4014e-01,-6.1745e-02,-2.3409e-02
7.4322e-02,9.0927e-02,-9.6495e-03,2.6196e-01,7.7218e-02,4.2994e-01,1.2662e-01,-4.0020e-03,3.1910e-02,-4.5789e-01,-2.7829e-02,1.5001e-01,-4.6937e-01,1.9862e-01,-2.4645e-01,-5.9165e-02,-3.7121e-01,1.4306e-01,-1.0698e-01,2.2771e-02,6.7932e-02,1.5898e-01,-1.1784e-01,-1.5870e-02,4.4004e-02,1.0158e-01,9.6591e-02,-8.7412e-02,1.4564e-01,-1.8805e-02,1.0871e-01,1.8483e-01,9.6146e-02,5.1610e-02,1.8715e-01,-3.0307e-02,1.4174e-01,-3.1006e-01,-1.5987e-02,-2.8210e-01,-3.3666e-01,-2.0350e-02,5.3515e-02
