1.5460e-01,5.1229e-02,-1.5531e-01,2.0393e-01,-1.6259e-01,-6.4610e-02,1.1356e-01,2.6004e-02,-1.5241e-01,9.8192e-03,-6.5636e-02,-1.2171e-01,-1.2799e-01,5.8866e-02,9.0063e-02,-1.1059e-01,7.2935e-02,-7.2867e-02,-1.2439e-01,-3.1095e-02,3.6886e-02,2.0274e-03,-1.6350e-03,3.1800e-02,4.2815e-02,1.4812e-01,-1.4412e-01,-8.1252e-02,-7.5048e-02,-4.4590e-03,-1.4619e-02,-2.6909e-02,1.2951e-01,-1.2201e-01,9.2765e-02,6.6687e-02,1.4689e-01,-2.1573e-01,9.4313e-02,-1.1940e-01,3.2586e-02,1.5852e-01,3.7994e-02
3.5077e-01,-4.6682e-03,2.0164e-01,-1.3701e-01,3.2921e-01,-1.3051e-01,3.6384e-01,1.3380e-01,4.7093e-01,-2.4236e-01,-6.7386e-01,-1.0289e-01,2.9720e-01,8.7478e-02,-2.4155e-02,1.3899e-01,-8.7226e-02,2.8411e-01,5.4133e-02,-2.0500e-01,-1.0283e-01,-2.5253e-01,-3.9386e-02,-3.9471e-01,-3.2139e-02,-3.0619e-01,1.2005e-01,3.2793e-02,1.3559e-01,-1.3907e-01,-8.7236e-02,-9.3738e-02,3.7611e-01,-1.3902e-01,-1.2635e-01,-3.6281e-01,3.2851e-01,-4.0365e-02,2.3429e-02,-2.8308e-01,1.8491e-01,1.3490e-01,2.7123e-02
3.9386e-02,1.1068e-01,-2.6491e-01,-1.2215e-01,1.3622e-01,2.9731e-03,-2.2031e-01,1.1240e-01,1.3564e-01,3.2438e-01,-6.0680e-02,-3.1421e-01,-1.7230e-01,1.6649e-01,-8.4432e-02,3.9331e-01,1.0652e-01,3.4661e-02,-1.9347e-01,1.3371e-01,-1.4117e-01,6.1322e-02,1.1828e-01,-1.6925e-01,5.5679e-02,-2.3631e-02,-3.7040e-02,-9.9373e-03,1.3833e-01,9.0819e-02,-1.1168e-01,-1.2387e-01,-2.9563e-02,6.8338e-02,1.9479e-03,1.5424e-01,1.5454e-01,1.5147e-01,-2.3491e-01,1.6054e-01,-1.0551e-01,-1.5097e-01,-2.0201e-01
-4.6038e-02,-4.5435e-02,-4.5794e-03,2.4972e-02,-3.8926e-02,3.8017e-02,4.8776e-03,5.0400e-02,1.2250e-02,-4.2724e-02,3.7299e-02,2.9435e-03,-1.7444e-02,-4.1151e-02,4.3131e-02,4.0833e-02,1.3531e-02,1.0367e-02,3.7732e-02,-8.7434e-03,3.6468e-02,3.8240e-03,-4.2662e-02,1.6717e-03,-1.3977e-02,-2.3223e-02,-2.8783e-02,5.3855e-03,-3.0706e-02,4.7171e-02,-2.9986e-02,-2.1467e-02,-3.5707e-02,4.0305e-02,5.6910e-04,3.5138e-02,-1.0112e-02,-3.6136e-03,-3.4170e-02,-5.0495e-02,-3.6460e-02,-3.0479e-02,2.7219e-02
-1.5087e-01,-5.8394e-03,9.7591e-02,-8.2630e-02,-3.6720e-02,6.9172e-02,1.2823e-01,6.1580e-02,9.5852e-02,-1.6439e-01,1.2090e-02,3.6611e-02,-2.6117e-01,-2.3909e-01,9.4015e-03,2.8478e-03,-1.2481e-02,-8.5934e-02,1.4236e-01,6.4694e-02,5.2655e-02,1.5741e-01,-3.8727e-02,2.3842e-01,-1.5633e-01,-1.3907e-01,-5.5601e-02,6.2225e-02,-6.6928e-02,1.0203e-01,-7.1007e-02,2.5694e-01,-2.3837e-02,4.6542e-02,1.9884e-02,-1.0321e-01,-9.4413e-02,-3.2280e-04,-1.4187e-01,8.6003e-02,1.3712e-01,-5.7580e-02,3.0804e-02
-2.1705e-02,6.5738e-02,-2.5325e-02,3.4823e-03,8.8569e-03,6.6072e-02,3.3857e-02,-2.1876e-02,4.3452e-02,1.9309e-02,4.1770e-06,6.5821e-02,6.2693e-02,-6.0567e-02,1.3559e-02,-4.5076e-02,-4.7726e-02,-3.5914e-02,9.8742e-03,2.0062e-02,4.8875e-02,1.3016e-02,-5.1587e-02,3.0790e-02,-1.2590e-02,7.0076e-02,4.1628e-02,-3.5068e-02,-4.0897e-02,2.6503e-02,-5.0717e-02,-3.4424e-02,-2.6163e-02,-4.5663e-02,-4.7175e-02,-3.9895e-02,-3.9054e-02,-2.6710e-02,-4.9386e-02,1.8529e-02,3.8022e-02,-2.5082e-02,4.7113e-02
-5.8087e-02,-1.8953e-01,2.6600e-01,2.9489e-01,7.0821e-03,-6.7982e-02,-2.5688e-02,-5.8772e-02,-5.3279e-02,-7.2790e-02,4.1468e-02,8.6380e-02,-1.9873e-01,1.3653e-01,2.0014e-01,1.1435e-01,-1.8939e-01,8.9199e-02,-5.9160e-02,-8.1192e-02,9.1289e-02,-1.2992e-01,1.1570e-02,-1.0176e-01,-8.3486e-02,-1.0122e-01,-1.1636e-01,-7.6168e-02,7.3291e-02,1.0535e-01,-7.0037e-02,-8.1640e-02,-2.4935e-02,1.2528e-01,2.2555e-01,1.0252e-01,-2.1834e-02,-1.1059e-03,2.4096e-01,-4.6715e-02,-9.2045e-02,-7.1441e-02,-7.3570e-02
-1.1576e-01,-2.0054e-01,-6.1684e-02,-6.9794e-03,-1.5351e-01,-6.7060e-02,-8.9507e-03,8.2632e-02,1.6812e-01,1.6025e-01,-1.8960e-01,2.0236e-01,-2.6484e-01,-1.5585e-01,-3.6455e-01,1.0043e-02,1.1606e-01,-2.1882e-01,1.4616e-01,2.5064e-01,1.2686e-01,2.1215e-01,-7.3134e-02,2.9639e-01,6.5457e-02,-3.5200e-01,-1.0039e-01,2.2797e-01,2.8708e-01,1.7914e-01,2.6038e-01,2.2179e-01,-1.6428e-01,1.3687e-02,8.3229e-02,-4.5230e-02,-8.7418e-02,-1.6536e-01,-2.0150e-01,3.3168e-02,-8.9949e-02,-7.8156e-02,-1.5500e-01
-3.4500e-02,4.1676e-02,1.1897e-02,4.2257e-01,-2.3618e-01,2.3943e-01,-8.0554e-02,3.2553e-03,-9.7530e-02,1.2226e-02,1.6541e-01,-2.9695e-01,-3.5115e-01,3.8170e-01,9.7310e-02,-7.7247e-02,1.2901e-01,-1.0529e-01,-3.2588e-01,-2.2849e-02,3.6383e-02,-4.4843e-02,9.0031e-02,-7.9787e-02,-4.2675e-02,4.1607e-01,-3.1554e-01,-3.1801e-01,-1.2089e-02,1.3418e-01,-1.8860e-01,-5.2982e-02,-2.9821e-02,9.1892e-02,1.9060e-01,5.8504e-01,3.0439e-01,9.2581e-03,1.4620e-01,-7.7309e-02,-3.3224e-01,-2.9129e-02,-4.9203e-02
1.1411e-01,-1.5127e-02,-4.4738e-01,-3.3298e-01,-2.7814e-02,-2.6038e-01,-3.2657e-03,1.6091e-02,3.1703e-01,-3.0279e-01,-4.1992e-01,2.8164e-01,1.1779e-02,8.2483e-02,-1.0669e-01,9.9964e-02,-7.9888e-02,1.8330e-01,4.5644e-01,-9.1937e-02,-5.7580e-02,-7.5670e-02,1.1227e-01,-1.7018e-01,1.2923e-02,-1.9024e-01,3.3781e-01,2.9217e-01,5.6310e-02,4.6343e-03,1.1704e-01,1.3995e-02,1.1896e-01,-1.2109e-01,2.1538e-01,-3.9787e-01,-1.3667e-01,1.7933e-01,-3.6190e-02,7.7747e-02,2.9265e-01,-2.8320e-02,-1.0579e-01
-1.6871e-01,6.2114e-02,5.1920e-02,5.2777e-02,2.1878e-01,1.8089e-02,-3.7834e-02,7.5296e-02,-2.5692e-02,1.3300e-01,3.4300e-02,3.1424e-02,2.5212e-01,-1.1012e-01,2.3235e-01,2.4434e-01,-4.1850e-02,1.4821e-01,1.1939e-01,-1.0715e-01,-9.5188e-02,-6.2235e-02,-8.9206e-02,-8.0817e-02,-1.1064e-01,4.2665e-02,-1.1238e-01,-1.5109e-01,-2.8811e-01,-5.5191e-02,-5.6481e-02,-1.0265e-01,1.4660e-03,1.7230e-01,-6.9378e-03,-4.8248e-02,1.7226e-04,-8.0780e-02,1.7884e-01,5.4403e-02,-1.3302e-01,-6.7038e-02,-1.5807e-01
-4.0958e-02,-2.1059e-01,-1.4500e-01,1.2255e-02,2.6924e-02,5.0846e-02,-7.8629e-02,1.6165e-02,2.1970e-01,-1.5302e-01,8.0713e-02,-2.1959e-02,-1.0593e-01,1.4689e-01,-8.1847e-02,-5.2306e-02,-3.1586e-02,-1.9162e-03,-1.0492e-01,7.4410e-02,7.4722e-03,5.9872e-02,5.9178e-03,-2.8564e-02,1.4031e-02,7.2054e-02,1.2996e-01,-2.9251e-02,3.5895e-02,1.5281e-01,7.1728e-02,2.7352e-02,5.2651e-02,-6.7403e-02,9.8532e-03,-5.7620e-03,1.9420e-01,-9.5289e-02,-2.9637e-02,-6.3557e-02,2.2376e-02,-9.9066e-03,5.8628e-02
9.7355e-02,2.1716e-01,3.0787e-02,-6.0953e-02,-1.8132e-01,-1.5315e-01,3.3571e-01,-5.3850e-02,1.9843e-02,-5.5041e-01,-1.8715e-01,2.8812e-01,3.5956e-02,-9.6688e-02,-6.7945e-02,-5.1997e-02,-2.8525e-01,4.0629e-01,2.6886e-01,-1.6419e-01,7.7572e-02,-1.1448e-02,-1.5374e-02,5.1177e-02,-7.1727e-02,-3.1831e-01,1.8368e-01,1.1424e-01,-1.9936e-02,-7.8927e-02,8.8682e-02,3.1797e-02,2.0805e-01,-6.9493e-02,1.9972e-01,-3.4401e-01,-1.5392e-01,-9.1099e-02,2.4353e-01,-2.3819e-01,1.3377e-01,1.1239e-01,2.2133e-01
-1.7189e-02,-5.6270e-02,-1.0364e-01,1.2077e-01,1.7060e-01,8.4038e-02,-8.9813e-02,2.4594e-01,2.3360e-02,-6.5399e-02,1.1516e-01,1.4459e-01,-1.5641e-01,-6.2960e-02,4.5795e-02,8.0750e-02,1.0505e-01,3.4913e-02,-5.4919e-02,-9.2930e-02,3.9824e-02,-1.8532e-02,-3.3671e-03,1.2055e-02,-9.2003e-02,-1.4778e-01,6.9417e-02,-7.4412e-02,-1.6587e-02,-7.3629e-02,-2.2270e-02,-8.6283e-02,-6.4375e-03,-2.8669e-03,9.0435e-02,-2.1033e-01,7.0068e-02,9.6415e-02,4.4366e-02,-6.7968e-02,-7.6190e-04,-7.4485e-02,-7.3669e-02
-8.6852e-02,7.8446e-02,4.2829e-01,-1.9164e-01,-6.0032e-02,-7.8212e-02,-1.2589e-01,-9.1318e-02,-1.7049e-02,-2.9479e-01,-8.7122e-02,7.8959e-02,9.4156e-02,-3.1560e-01,1.4708e-01,-8.6605e-02,-3.7161e-01,2.8182e-01,1.8484e-01,-7.3262e-03,1.9146e-01,1.1365e-01,1.7464e-02,-6.1432e-03,1.0811e-01,-8.9641e-02,1.7386e-01,1.9399e-01,-4.4688e-03,-5.3208e-02,1.4916e-01,1.5425e-01,-1.1170e-01,-4.0477e-02,-1.5648e-01,-3.4646e-01,-1.8232e-01,1.1025e-01,2.7340e-01,1.0214e-01,4.2112e-03,-1.5653e-01,-8.5420e-02
-1.1498e-01,-1.4670e-02,-5.7796e-02,6.9300e-02,-4.2841e-01,-7.9344e-02,1.5207e-01,-5.1388e-01,-3.7078e-02,-7.1059e-02,-3.3120e-01,-1.6021e-01,4.7697e-01,1.2447e-01,3.1525e-01,1.3597e-01,-1.9949e-01,2.1352e-01,1.2094e-02,-5.2360e-02,-2.0593e-02,-2.0100e-01,1.6490e-01,-7.0162e-02,-1.3964e-01,5.4076e-02,-2.3602e-02,-1.0143e-01,-4.5184e-02,5.1909e-02,-8.7370e-02,-2.5381e-02,1.9838e-01,-1.5891e-01,3.1254e-01,2.3379e-01,4.5620e-01,-2.5045e-01,4.6582e-01,-1.8771e-01,-1.7268e-01,1.2395e-01,-3.0769e-02
-3.1154e-01,-3.6142e-01,-2.7555e-01,-7.3782e-02,-3.2342e-01,1.0230e-02,6.5507e-02,-3.3617e-01,-1.3258e-01,1.1237e-01,2.6678e-02,-6.8959e-02,-1.7321e-01,2.9234e-01,-1.0917e-01,-1.4789e-02,3.1933e-02,-2.4872e-01,3.0808e-01,2.2926e-02,2.7625e-01,4.7406e-03,2.8170e-01,9.9902e-02,1.5115e-01,2.7753e-02,1.2402e-01,9.4519e-02,8.3396e-02,4.3556e-03,1.4417e-01,-8.5626e-02,-1.0122e-02,-1.9495e-01,2.9681e-01,7.5972e-02,7.4962e-02,-7.1416e-02,2.3642e-01,-1.0798e-01,-7.2262e-02,2.0706e-01,7.5332e-02
2.5452e-02,9.2658e-02,2.1386e-01,1.4524e-02,1.7263e-01,-4.8388e-02,-6.6407e-02,1.9649e-01,2.4088e-01,1.2024e-01,-1.0679e-01,-5.5122e-02,1.4201e-01,-1.7273e-01,-1.2757e-01,2.0589e-01,2.1881e-01,-5.6636e-02,3.8711e-02,-8.3713e-02,-1.1030e-01,-1.6971e-02,-1.7909e-01,-1.0576e-01,-1.0215e-01,-9.6419e-02,-1.6851e-01,-3.2778e-02,-1.2277e-01,-3.3063e-02,-2.3611e-01,3.3078e-02,1.5487e-02,1.1537e-01,-5.6824e-02,-1.0603e-01,-6.7133e-02,6.9646e-02,-4.9433e-02,8.3869e-02,2.1837e-01,-9.3174e-03,-5.5981e-03
1.4433e-02,8.0784e-02,-5.2045e-02,2.7269e-02,2.9201e-03,-7.5827e-02,-2.9834e-02,6.8010e-02,3.4740e-02,3.0496e-02,-2.1192e-02,-3.7021e-02,-1.4252e-01,-4.1856e-02,2.5669e-02,7.7065e-03,-1.9714e-02,2.3165e-02,-5.4782e-02,-8.1353e-02,9.8945e-03,7.8088e-02,2.6737e-02,1.7303e-03,2.5945e-02,-5.8230e-02,1.8527e-02,-3.9808e-02,-1.2218e-02,6.8303e-04,-1.7376e-03,-4.2484e-02,6.9420e-02,2.6119e-02,7.8495e-02,-6.8942e-02,5.3347e-02,2.1103e-02,6.3658e-02,2.4958e-02,1.2436e-01,3.6112e-03,-5.0468e-02
1.1513e-01,2.0872e-01,-1.3246e-01,2.1395e-01,1.3452e-01,1.8567e-01,8.9483e-02,5.8766e-02,-1.4531e-01,-1.1686e-01,2.7757e-01,-1.5800e-03,2.0732e-02,6.8122e-02,-1.9477e-02,-9.3441e-02,-1.5067e-01,1.6710e-01,-4.1944e-01,6.3358e-02,-2.5797e-02,5.9833e-02,-9.9994e-02,1.3319e-01,-1.1371e-01,-9.4339e-02,-2.8110e-01,-2.4396e-01,5.3235e-04,1.3397e-01,-1.0403e-04,1.6285e-01,-6.8706e-02,1.2825e-01,7.8825e-03,3.4542e-01,-6.6674e-02,-1.9785e-01,-1.1360e-01,-9.2831e-02,-8.0977e-02,-5.2144e-02,5.9748e-02
1.1794e-01,9.2072e-02,-3.8272e-02,1.5366e-01,1.5959e-01,6.8381e-02,-7.9676e-02,-7.2211e-02,2.0050e-04,-2.5499e-01,7.6680e-02,-1.1809e-01,-1.7586e-01,1.7461e-01,1.8013e-01,6.1950e-02,-3.9600e-01,3.6011e-01,-4.1038e-01,6.2528e-02,-1.7041e-01,8.4924e-02,7.8676e-02,-1.1432e-01,-3.1364e-02,-1.1382e-01,-7.8337e-02,-2.9353e-01,4.1779e-02,1.9527e-01,6.0143e-02,-2.1730e-02,-1.0658e-01,3.5312e-01,1.5031e-01,3.8237e-01,7.3622e-02,-8.0281e-02,-5.9301e-02,8.2683e-02,-2.3532e-01,-2.1129e-01,-1.0143e-01
-9.5433e-02,-2.7996e-01,2.1254e-02,3.4096e-01,2.5961e-01,5.4035e-01,1.5987e-01,-7.9738e-02,-1.1914e-01,-1.2232e-04,3.4573e-01,-1.4872e-01,-1.7001e-02,1.4801e-01,-2.4302e-01,-7.4599e-02,-5.6189e-02,-7.7303e-02,1.0780e-01,-1.5287e-02,4.0390e-02,-1.6814e-01,-4.0996e-02,-6.7391e-03,1.9166e-02,5.7980e-02,8.2830e-02,-1.4439e-01,-5.3688e-03,-1.0532e-01,-8.6212e-02,3.2316e-02,-1.3091e-01,-2.5994e-01,-2.2553e-01,2.5103e-01,1.7807e-01,-1.4850e-01,1.1674e-01,-1.1943e-01,-1.9221e-01,-9.4487e-03,7.8129e-02
-2.6077e-04,-3.6266e-02,-4.3693e-02,1.5274e-02,-2.4197e-02,1.0785e-02,-2.8986e-02,2.1518e-03,-2.3117e-02,-2.1314e-02,-1.4952e-02,1.5036e-02,1.6853e-05,2.9886e-02,-3.3134e-02,-1.9348e-02,-4.7582e-02,3.8603e-02,-4.0582e-02,-1.4562e-02,3.2466e-02,-2.8034e-02,-1.0305e-02,1.9753e-02,3.2992e-02,-4.7594e-03,3.8865e-03,-4.4156e-02,1.9021e-02,-2.8067e-02,-1.5639e-03,4.5996e-02,3.1653e-02,1.2010e-02,4.1720e-02,-1.1460e-02,3.5764e-02,2.0793e-02,-5.0511e-04,-1.5202e-02,3.2060e-02,4.0255e-02,4.8436e-03
-4.0636e-02,1.0474e-01,4.7747e-02,1.2847e-01,-1.2220e-01,1.7787e-01,2.6789e-02,1.1329e-01,-1.0329e-01,1.0520e-01,-4.9176e-02,-6.3500e-02,-8.9351e-02,-2.3661e-02,-1.9477e-01,-9.3754e-02,1.3445e-01,-1.4678e-01,-7.6022e-02,1.7721e-02,-2.4367e-04,1.2781e-01,-6.2398e-02,1.9584e-01,-4.1459e-02,1.2856e-01,-4.5368e-02,-2.0295e-02,5.6128e-02,-6.6419e-02,-3.7881e-02,1.7814e-03,-4.2874e-02,-1.8321e-01,7.9095e-02,6.4639e-02,3.2907e-02,-2.8043e-02,8.0493e-02,-2.0478e-02,-1.4805e-01,1.4773e-02,8.9085e-03
-4.3024e-02,3.0754e-02,-4.3334e-02,-4.6834e-02,-3.3276e-02,-4.8766e-02,4.4297e-02,-5.1944e-03,1.0705e-02,-3.1875e-03,2.2959e-02,1.4263e-03,5.0032e-02,3.7280e-03,4.3466e-02,-2.1098e-02,3.7399e-02,-4.7538e-02,-4.2416e-02,-4.1664e-02,1.4465e-03,3.4088e-02,-1.7822e-03,-8.9525e-03,4.3926e-02,-6.9128e-03,-2.0238e-02,-7.2260e-03,7.7648e-03,-1.1020e-03,1.4250e-03,4.3838e-02,-1.2777e-02,1.0697e-02,8.5882e-03,-2.3606e-02,2.4183e-02,1.1029e-02,-3.9123e-02,-1.0079e-02,-3.3508e-02,-1.8014e-02,3.2770e-02
-1.8417e-01,3.8471e-04,4.5864e-02,-2.5047e-02,-1.1168e-01,-1.3258e-01,1.2637e-02,-1.2458e-01,1.7458e-02,2.0961e-02,-2.9657e-01,8.5487e-02,6.3216e-02,-1.2855e-01,5.7535e-02,-8.5744e-03,8.8956e-02,-1.7532e-02,1.3618e-01,4.5471e-02,6.5124e-02,1.3151e-01,-2.6829e-02,1.4127e-01,1.2792e-01,9.2621e-02,4.1484e-02,1.3476e-01,-1.6569e-02,-1.6591e-02,5.5289e-02,1.4628e-01,1.8281e-02,1.4112e-02,1.1035e-01,-1.7322e-01,-9.8378e-02,-1.1652e-01,1.6233e-01,-1.6172e-01,4.7566e-02,5.5852e-02,-5.4995e-02
-1.3163e-01,5.9958e-02,3.7425e-02,5.2934e-02,-2.0454e-01,5.1262e-02,-2.8864e-01,8.7283e-02,-6.4331e-02,1.5733e-01,2.3515e-01,-2.4313e-01,-2.3853e-01,2.5587e-01,2.2954e-01,9.1587e-02,-1.4363e-01,-2.8402e-02,-3.7534e-01,-5.5565e-02,-1.5502e-01,5.1596e-02,1.6145e-01,-3.4435e-02,-2.4810e-02,4.8381e-01,-1.2673e-01,-1.9633e-01,-1.4479e-01,1.5483e-01,-2.9744e-02,1.5346e-01,-2.2758e-01,4.1423e-01,1.2369e-01,4.5783e-01,4.1088e-02,1.8598e-01,-1.6011e-01,2.2678e-01,-3.0488e-01,-2.5715e-01,-1.8360e-01
-2.1760e-01,1.4706e-01,-1.4997e-01,1.1424e-01,3.3990e-02,2.8612e-01,5.3457e-02,1.7818e-01,1.9476e-01,9.6709e-03,2.2912e-01,-2.1596e-01,-1.7898e-01,-2.5052e-01,1.1301e-01,-3.9884e-02,1.9090e-03,-2.6719e-02,-3.8094e-02,-1.0077e-01,2.4285e-03,1.8039e-01,-8.9026e-02,2.2883e-02,-3.2761e-01,-1.8426e-01,-6.6473e-02,1.0848e-01,-1.6927e-01,-4.0866e-02,-2.0756e-01,-5.8097e-02,2.2088e-01,-1.4438e-01,7.8942e-02,8.7401e-02,1.0990e-02,1.0911e-02,1.3049e-01,7.8213e-02,6.4338e-02,-9.1349e-02,1.0989e-01
2.0248e-01,1.7537e-01,4.2092e-01,4.7875e-01,-7.3139e-02,4.8614e-01,3.3873e-01,1.6194e-01,8.2158e-03,-3.3396e-01,1.4934e-01,-2.2748e-02,-3.7486e-01,-2.8284e-01,-3.4766e-01,-2.4186e-01,1.2134e-02,-1.1045e-01,-2.6996e-01,1.0086e-01,-4.2999e-03,1.0894e-01,-3.0235e-01,1.5314e-01,-3.5308e-02,3.1900e-02,-3.3711e-01,-1.2756e-01,-4.1932e-02,8.1454e-02,-5.4673e-02,1.6833e-01,-8.3996e-02,1.5246e-01,-1.5394e-01,4.1109e-01,-2.3357e-01,-6.9836e-02,-1.9192e-01,-2.9227e-01,-8.1619e-02,-1.1675e-01,2.9694e-01
1.4219e-01,8.8165e-02,-6.3321e-02,-3.4257e-01,1.4410e-01,-3.4401e-01,1.6673e-01,-1.7251e-02,1.8257e-01,-3.5318e-01,-6.5533e-01,2.7961e-01,3.6476e-01,-2.6893e-01,1.1549e-01,-5.9914e-02,-1.9536e-01,3.0246e-01,2.4717e-01,-8.1993e-02,-9.8290e-02,5.6162e-02,-3.6659e-02,-9.7390e-02,3.1958e-02,-3.4858e-02,2.2873e-01,2.2531e-01,8.3612e-02,-4.1488e-02,1.6350e-01,1.2215e-01,2.6835e-01,-4.6011e-02,1.2439e-01,-4.0469e-01,2.4082e-01,-1.5723e-01,-8.7134e-02,-1.5553e-01,4.0499e-02,6.6458e-02,-2.8164e-02
-6.5618e-03,1.2452e-01,-1.9984e-01,1.8915e-01,3.1837e-01,3.9299e-02,5.1896e-02,-2.9470e-01,-1.7620e-01,-1.0060e-01,-2.9298e-01,-1.2132e-01,-5.6610e-02,4.1899e-02,2.6104e-02,1.2819e-01,-1.9435e-01,1.2411e-01,4.4392e-04,-1.3534e-03,1.5470e-01,-1.4174e-01,8.9534e-02,-6.6836e-02,-6.7768e-02,2.3048e-01,8.2050e-02,-5.0085e-03,3.5902e-02,1.0959e-02,-1.0517e-01,6.2209e-02,4.2625e-02,-6.9574e-03,7.2281e-02,-7.4664e-02,1.8704e-01,-5.1819e-02,3.2579e-01,-4.6292e-02,-5.7562e-02,6.1504e-02,-1.4391e-01
-6.4386e-02,-1.9652e-01,-1.1734e-01,-4.3937e-01,-2.8217e-02,-3.1280e-02,-5.8371e-02,1.9165e-01,2.7051e-01,1.3492e-01,4.5917e-01,8.0953e-02,6.6888e-01,-1.8899e-01,1.0874e-01,6.4713e-02,1.8349e-01,-7.6410e-03,1.0267e-01,-1.5907e-01,-8.8266e-02,-1.5436e-01,-1.2504e-01,-6.6664e-02,-1.6616e-01,-4.7392e-02,1.3632e-01,-6.1044e-02,-2.1282e-01,-1.8759e-01,-8.5031e-02,-2.3868e-01,-9.4602e-03,-1.7783e-01,-3.8776e-01,3.0127e-02,7.9512e-02,2.0986e-01,1.1157e-01,6.1967e-02,2.1466e-01,3.3449e-02,1.7279e-01
2.2829e-01,1.7657e-01,-9.0746e-02,-3.1847e-01,-2.3853e-02,-2.6842e-02,1.5144e-01,2.0501e-01,2.6813e-01,-3.2076e-01,-1.0582e-01,1.0891e-01,3.7814e-03,-2.7230e-01,-1.0620e-01,-5.1406e-02,1.0235e-01,1.7843e-01,1.8036e-01,-2.9962e-02,-7.9026e-02,5.5274e-02,-1.8531e-01,2.6745e-02,-3.6208e-02,-4.5575e-01,1.7149e-02,6.1223e-02,1.0151e-01,5.3072e-02,-8.5733e-03,6.8869e-02,3.5857e-02,3.2912e-02,-5.9889e-02,-1.9666e-02,-1.9836e-01,7.5089e-02,-2.6605e-01,9.7589e-02,2.6840e-01,2.7927e-02,1.0924e-01
2.1503e-02,-3.6829e-02,-4.5460e-02,2.2372e-02,2.8623e-03,3.9011e-02,2.5609e-02,5.7373e-02,1.9946e-02,-1.0366e-03,-3.8348e-02,5.2939e-02,1.9607e-02,5.6188e-02,-1.9947e-02,5.6839e-02,-5.0165e-02,3.2265e-02,-1.7924e-02,-9.0437e-03,4.1355e-02,-2.6132e-02,-2.7756e-02,2.4939e-02,-1.3055e-02,2.5473e-02,7.5095e-03,-2.1089e-03,-6.1034e-03,-2.3278e-02,-2.9446e-02,-1.2846e-02,7.5052e-03,1.1751e-02,3.9001e-02,1.2905e-02,-9.6167e-03,3.2980e-02,1.5967e-02,4.3951e-02,-5.1326e-02,3.5794e-02,1.9200e-02
-4.1791e-02,4.3279e-02,4.7597e-02,-1.5193e-02,2.8871e-02,-4.4587e-02,-4.2811e-02,1.9852e-02,-3.4763e-02,-3.4812e-03,3.8495e-02,2.0261e-02,3.9118e-02,-6.5290e-03,4.6154e-02,-2.0921e-03,2.4357e-02,-3.2619e-02,3.2990e-02,5.4808e-03,2.3318e-02,2.8616e-02,5.3529e-03,-2.3012e-02,-2.1761e-02,2.6999e-02,2.2892e-02,3.4184e-02,1.3896e-02,-4.0314e-02,4.2809e-02,-3.8054e-02,-4.1967e-02,-7.8525e-03,2.2389e-02,-4.1797e-04,2.1139e-02,2.7885e-02,4.5409e-02,2.3770e-02,-8.8229e-04,2.0697e-03,-2.6322e-02
2.2368e-03,1.5012e-02,1.4183e-02,-3.7374e-02,3.7052e-02,6.5472e-03,2.0957e-02,-4.0848e-02,-2.4512e-02,2.4703e-02,2.3933e-02,2.9654e-03,-3.7620e-02,-1.3693e-02,-4.0011e-02,-3.8055e-02,1.2371e-02,1.7026e-02,4.1235e-02,-1.6530e-02,1.7862e-02,3.5915e-02,3.0610e-03,-4.0791e-03,-1.5882e-03,-2.7296e-02,-2.5010e-02,4.5324e-02,2.5581e-02,-1.7553e-02,-4.0096e-02,4.5728e-02,3.5284e-02,-3.7903e-02,4.5893e-02,2.8020e-02,2.1248e-02,-4.7655e-04,-4.2394e-02,4.6255e-02,1.4961e-02,3.6080e-02,2.8915e-03
7.7282e-02,1.2666e-02,2.4427e-01,3.4590e-01,1.2747e-01,-1.5212e-01,-5.1671e-02,1.3006e-01,2.0052e-01,-3.7846e-02,-3.7503e-01,3.7861e-02,-3.1015e-01,-2.0873e-01,2.3178e-02,-2.4189e-01,-1.1047e-01,-5.5751e-02,-4.0180e-01,1.2786e-01,1.3885e-01,3.7578e-02,-4.6220e-02,5.8450e-02,8.8729e-02,1.2908e-02,-1.3297e-01,2.9867e-02,3.2341e-02,2.8355e-02,2.1535e-01,-1.5802e-01,1.7395e-01,-1.7970e-01,6.2680e-02,8.8290e-02,1.4310e-01,-1.5761e-01,-3.0393e-02,-1.1687e-01,1.0995e-01,1.0057e-01,3.1688e-02
-1.8065e-01,-2.5160e-01,-4.8871e-02,3.5122e-02,-2.9761e-01,2.7208e-02,-2.0087e-01,3.8260e-02,-7.6724e-02,3.0775e-01,1.3415e-01,-9.0787e-02,-2.8812e-01,2.3074e-01,-3.5769e-01,1.0724e-01,1.1778e-01,-3.7956e-01,-2.3527e-01,6.1758e-02,2.0960e-01,5.2672e-02,1.2169e-01,2.0343e-01,3.4603e-02,3.1285e-01,1.0749e-02,1.1910e-02,2.2841e-01,6.9660e-02,1.8989e-02,2.3686e-02,-8.2343e-02,-8.4153e-02,3.2759e-02,2.9069e-01,1.0122e-01,-4.7083e-02,-5.1069e-02,-4.0040e-02,-1.5660e-01,3.7854e-02,2.5383e-03
5.4347e-03,1.2375e-01,3.6814e-01,6.6076e-02,2.5884e-01,-6.0522e-03,3.2871e-02,2.0374e-01,1.9701e-01,-2.6532e-01,9.8024e-02,2.5852e-01,1.1240e-01,1.7532e-01,2.1760e-01,-2.1499e-01,-1.5044e-01,1.4674e-01,-7.1686e-02,-6.4262e-02,-2.5492e-01,-2.2612e-02,-1.2929e-01,-5.1464e-02,-1.4061e-01,1.2207e-01,-7.0874e-02,-2.1952e-01,-1.9459e-01,-5.8040e-04,-4.5173e-02,1.3835e-01,-2.2542e-01,2.8506e-01,-1.3826e-01,1.3140e-01,-3.3440e-01,1.2592e-01,-2.9442e-01,3.4592e-02,7.1665e-02,-1.7720e-01,-8.6811e-02
2.2138e-02,-3.1884e-02,-3.2233e-02,-2.2054e-03,4.9093e-02,-3.3327e-02,-2.6762e-02,-2.7814e-02,-3.3856e-03,-3.0161e-02,-8.6290e-03,-2.5565e-02,2.3400e-02,1.4991e-03,-2.0422e-02,5.4720e-03,-4.0830e-02,-3.4693e-02,-3.6070e-02,4.8651e-02,-9.3741e-03,-4.5732e-02,1.0175e-02,-3.7322e-02,1.8057e-02,4.9074e-02,3.8696e-02,-3.9671e-02,4.1655e-02,-2.8729e-02,-2.5525e-02,-2.0502e-02,2.2542e-03,-4.4486e-02,2.2265e-02,-4.3602e-02,-1.7537e-02,4.0590e-02,-1.7276e-02,-3.0855e-02,-1.3978e-02,4.9735e-02,-9.7412e-03
-8.4687e-02,-1.5721e-01,-3.9263e-01,-3.4195e-01,8.2873e-02,6.8104e-02,-1.0806e-01,3.5686e-01,8.4127e-02,2.6228e-01,5.0079e-01,-3.9228e-02,6.0150e-01,-1.4214e-02,-1.3476e-01,2.3884e-01,3.6632e-01,-2.1448e-01,5.6110e-02,-4.5244e-03,-1.6212e-01,4.4150e-02,-2.3776e-01,-2.5642e-02,-1.4799e-01,-5.9493e-02,1.4044e-01,-5.7575e-02,-2.7343e-01,-2.3771e-01,-1.3571e-01,-1.5803e-01,-4.5838e-02,-4.8490e-02,-2.6078e-01,-5.8605e-02,-5.9763e-02,2.2418e-01,-1.2403e-01,1.7437e-01,3.5570e-01,4.8098e-02,9.6698e-02
-3.1911e-02,-3.9029e-02,4.1059e-02,-9.0165e-03,-4.1673e-03,4.6039e-02,5.6886e-02,1.8836e-02,-7.9103e-02,-2.7092e-02,-2.7430e-02,4.9203e-02,-6.0131e-03,6.7402e-02,4.3699e-02,2.8468e-02,-3.4476e-02,1.1693e-02,2.1718e-02,-1.3176e-02,-5.1692e-02,4.7639e-03,1.8117e-02,3.9996e-02,2.0104e-02,3.6507e-03,3.9033e-03,-3.2540e-02,2.6393e-02,2.4783e-02,2.7825e-02,2.4908e-04,-6.3167e-02,-2.7459e-02,-1.0209e-02,6.0008e-03,-9.1302e-03,8.5301e-03,1.2883e-02,-1.7765e-02,-1.6370e-03,4.9362e-02,3.3509e-02
-2.1354e-02,8.7628e-03,1.8302e-02,-4.4017e-02,4.7427e-02,1.3743e-02,-3.0848e-02,-9.2120e-03,-2.0687e-02,-6.3379e-03,-3.9999e-02,-2.0564e-02,-3.8482e-02,-4.7246e-02,6.6589e-03,-4.3723e-02,-3.3084e-02,-4.4462e-02,-3.4724e-02,-1.6918e-02,-3.8363e-02,2.3891e-02,3.3515e-02,3.8329e-02,3.1856e-02,-1.4603e-03,-3.6262e-03,1.2283e-02,4.4905e-02,1.4121e-02,-2.2022e-02,-4.7948e-02,3.7568e-02,-2.5618e-02,-4.1479e-02,-3.8165e-02,-3.2970e-02,3.2887e-02,2.4569e-02,-4.4745e-03,4.4627e-02,4.3939e-02,2.0403e-02
-1.9286e-01,-2.1858e-01,1.0615e-01,2.7992e-01,1.2318e-01,8.1052e-02,-1.2427e-01,1.4756e-01,2.1274e-01,2.1571e-01,3.1516e-01,-5.4332e-02,-1.5844e-01,2.9374e-01,-1.9140e-01,1.0113e-01,-1.3805e-01,-1.5374e-01,-3.3966e-01,5.5339e-02,1.8219e-01,9.2270e-02,1.5757e-02,1.9148e-01,-1.9622e-01,-9.5193e-02,7.4979e-02,3.0537e-02,1.5867e-01,1.6297e-02,-4.1139e-02,4.2897e-02,2.7440e-02,-7.0741e-02,1.9537e-02,-1.3853e-01,-7.4656e-02,-1.3941e-01,-1.0347e-01,-9.6676e-02,-6.2653e-02,-4.0288e-02,-1.7765e-03
-8.1259e-02,-2.1689e-01,-2.5068e-01,-2.0242e-01,-3.2764e-01,-3.2157e-01,-1.3388e-01,3.2571e-02,-4.1618e-02,3.4917e-01,-3.5148e-01,4.8988e-01,3.3281e-01,-3.9569e-01,-7.9494e-02,9.5354e-02,2.6322e-01,-4.0781e-01,1.7438e-01,-1.3511e-04,1.9226e-01,9.9497e-02,-1.1324e-01,1.4347e-01,2.2807e-01,-1.5681e-01,2.6631e-01,4.4402e-01,1.4946e-01,5.7582e-02,3.6117e-01,-2.1007e-01,2.6051e-01,-2.1430e-01,5.5608e-02,-3.6606e-01,-1.2130e-01,-1.0391e-01,-1.0204e-01,-2.7251e-01,1.5943e-01,3.1430e-01,3.7166e-03
-1.1520e-01,-3.6618e-01,-1.5282e-01,5.0603e-02,-1.3922e-01,-2.2464e-02,-1.0771e-01,-1.9433e-01,4.7063e-02,2.1238e-01,-1.3333e-01,-2.6596e-01,-2.1538e-01,3.7763e-01,-2.8874e-02,2.3098e-01,-1.0528e-01,3.3199e-02,-3.2204e-02,-7.8204e-02,1.3778e-01,-1.5478e-01,3.2952e-01,-5.6908e-03,-1.5153e-01,2.6252e-01,4.3979e-02,-1.6508e-01,2.2367e-02,1.2212e-01,-5.3459e-02,-1.0474e-01,-4.2184e-03,-1.0713e-01,2.6807e-01,2.3234e-01,2.4900e-01,4.0976e-02,4.9382e-01,7.7951e-02,-1.6368e-01,-1.5580e-02,-1.6646e-01
-2.9555e-02,6.4225e-03,-2.5642e-02,1.3183e-02,2.5173e-02,2.3044e-02,-1.7033e-03,-8.8983e-03,5.6610e-02,4.9298e-02,2.2208e-02,-4.2319e-02,-3.4693e-02,2.0451e-02,-2.4369e-03,7.5353e-03,-2.2529e-02,-3.6010e-02,4.0295e-03,3.9098e-02,2.3036e-02,-1.7274e-02,-2.5152e-02,2.9865e-03,-4.6336e-02,2.0050e-03,-2.5715e-02,4.3445e-02,5.8187e-03,3.5310e-02,-5.9731e-03,-3.3811e-02,1.9936e-02,1.2573e-02,3.5273e-02,1.9015e-02,-1.8530e-02,-6.2552e-03,-4.0002e-02,-5.3387e-03,-3.5838e-02,-1.4253e-02,-4.3934e-02
6.4261e-02,3.3582e-01,2.4614e-01,-2.2924e-02,3.3303e-02,-2.0204e-01,-1.7179e-01,-2.3130e-01,-2.4738e-01,2.8143e-02,-2.5221e-01,9.8666e-02,2.3738e-02,-1.9872e-01,2.8577e-01,2.4490e-02,-1.9853e-01,2.4330e-01,-3.6371e-01,1.6944e-01,-1.6289e-01,1.0600e-01,4.0820e-02,5.8349e-02,1.0265e-01,2.0887e-01,-2.7441e-01,-3.4124e-02,7.4164e-02,2.0994e-01,-1.2454e-02,2.1229e-01,-9.1839e-02,4.2047e-01,7.3689e-02,8.6160e-02,-5.8489e-03,-5.8280e-03,-2.6861e-01,2.7707e-02,-1.2756e-01,-1.6547e-01,-1.9987e-01
-1.1271e-01,-1.1881e-01,2.4954e-01,-1.1304e-01,-1.1620e-01,-7.4607e-02,-2.9363e-02,-1.7480e-02,-4.5590e-03,9.9583e-02,-2.5249e-02,2.6378e-01,6.2520e-02,5.3590e-02,-1.3062e-02,4.5034e-02,1.7193e-03,-8.9882e-02,4.2479e-02,3.9646e-02,5.4142e-02,-5.9202e-02,-7.6168e-02,1.2508e-01,-2.2757e-02,-2.9080e-01,1.1622e-02,7.1604e-02,8.8149e-02,6.5011e-02,8.2877e-02,-5.2177e-02,-8.8655e-02,1.7719e-01,-1.9553e-02,-7.5412e-02,-1.1339e-01,1.8062e-02,-1.8561e-02,-1.3918e-02,1.0250e-01,-7.3996e-02,-1.2053e-02
-1.7253e-01,-2.2909e-01,-9.8497e-02,-1.7229e-01,-1.5864e-01,1.0511e-01,1.5717e-01,-2.3478e-01,-1.7686e-01,-1.6455e-01,1.3552e-01,2.1341e-01,1.3159e-01,3.9572e-02,-1.5922e-02,-3.2521e-01,1.3283e-01,-2.0211e-01,3.5759e-01,9.6191e-02,2.8632e-02,1.1405e-01,-5.7115e-02,-3.3527e-02,1.6223e-01,3.5289e-01,1.2494e-01,2.1070e-01,-1.5802e-01,7.1222e-02,6.0042e-02,1.3356e-01,-7.4712e-02,-1.0498e-01,-1.5820e-01,-8.2372e-02,1.9340e-02,-8.2910e-02,-9.1719e-02,-1.5063e-01,5.2525e-02,9.3015e-02,7.8267e-02
1.9876e-02,3.1437e-02,-1.8622e-02,7.1459e-03,-5.7238e-02,-5.6900e-02,1.4867e-02,-4.6205e-02,-6.5406e-02,8.5705e-02,7.6573e-03,1.1424e-02,-1.5930e-02,1.0352e-02,-1.2834e-02,6.7581e-02,6.8543e-03,-1.9655e-02,-3.7348e-02,2.2917e-02,-4.4202e-02,-3.5922e-02,-2.9347e-02,-5.9555e-02,2.7757e-02,6.2133e-02,3.0016e-02,-2.3950e-02,4.1855e-02,-7.2435e-03,4.3858e-02,-4.2764e-02,-5.3795e-02,1.9364e-02,1.1039e-02,7.0941e-02,8.5601e-03,-2.0389e-02,1.2991e-03,6.3758e-03,4.6650e-03,1.2169e-02,8.0988e-03
-4.5387e-02,-3.0819e-02,-5.8192e-03,-1.9458e-03,-3.8379e-02,3.7624e-02,7.3885e-02,1.8186e-02,-3.5361e-02,4.2125e-02,6.4035e-02,-9.5181e-03,3.0298e-02,-7.7999e-02,2.7364e-02,5.1639e-02,4.0232e-02,-8.4832e-03,2.8935e-02,-4.6095e-02,-1.2271e-02,-2.6247e-02,4.8865e-03,5.4478e-02,3.7826e-02,-3.6833e-02,4.7902e-02,-5.6209e-02,-4.6918e-02,5.3207e-02,-9.6726e-03,-2.9742e-02,3.8931e-02,-6.5484e-02,-5.8284e-02,-1.9464e-02,-4.7667e-02,-8.8061e-03,5.9507e-02,-1.5987e-02,-2.2285e-02,-1.1386e-02,1.8392e-02
3.5908e-02,1.4504e-03,3.1801e-02,-1.7089e-02,2.7468e-02,4.3203e-02,3.6658e-02,2.8242e-02,3.6088e-03,-1.8327e-03,3.5088e-02,-2.7236e-02,-9.9276e-03,-4.7846e-02,2.5651e-02,-4.6143e-02,2.1052e-03,4.3602e-02,3.8204e-02,3.8461e-02,4.6278e-02,4.2851e-02,1.7038e-02,2.2286e-02,3.9858e-02,-4.6512e-02,4.1773e-02,6.0357e-03,1.0704e-02,3.5053e-02,-2.2046e-02,1.3248e-02,-3.2536e-02,-2.4687e-02,4.9818e-03,4.0301e-03,-9.6614e-03,-3.6368e-02,-4.9303e-02,-2.3285e-02,-3.7715e-02,-1.5981e-02,3.2218e-02
6.4563e-02,-1.2863e-01,8.0154e-03,5.3609e-02,-3.0388e-01,-2.5854e-01,7.9625e-03,8.9344e-02,1.9414e-01,1.7794e-01,-1.5387e-01,1.3876e-01,1.9769e-01,-1.5339e-01,-2.6713e-01,1.6302e-02,1.9119e-01,-1.6102e-01,-1.5189e-01,4.0444e-02,-6.2512e-03,1.6745e-01,-9.9567e-02,7.1049e-02,1.1367e-02,-2.1512e-01,-1.8510e-01,6.2044e-03,1.5074e-01,1.1220e-01,1.4197e-01,-3.3914e-02,3.3952e-02,5.0160e-02,1.3781e-01,3.8804e-02,1.2969e-02,-1.4475e-01,-1.2244e-01,-1.3226e-01,5.4498e-02,9.3699e-02,6.4809e-02
2.6173e-02,2.1275e-02,-2.8468e-03,2.7632e-01,-2.4305e-01,2.7043e-01,-5.8611e-02,-4.8201e-03,-1.2997e-01,1.5235e-01,1.9097e-01,-1.5019e-02,-2.5706e-01,1.1944e-01,-3.6051e-01,-9.0126e-02,8.7717e-02,-3.0110e-01,-1.1195e-01,7.7895e-02,1.4620e-02,9.6766e-02,-2.2562e-01,1.1331e-01,4.3388e-02,1.0224e-01,-1.0084e-01,-2.9601e-03,6.1987e-02,1.8122e-02,2.1188e-02,2.5126e-01,-2.0940e-01,1.9218e-01,-8.1160e-02,1.2847e-01,-2.6403e-01,-6.6042e-02,-4.7437e-02,-1.7348e-02,3.7717e-02,-2.0573e-02,3.4447e-02
-2.9290e-01,-1.0983e-01,-6.2232e-02,1.6420e-01,-4.2439e-01,-8.5911e-02,1.3847e-01,-2.2894e-01,-2.5282e-01,1.0229e-02,5.3770e-03,4.7073e-01,-5.7857e-02,-2.3798e-01,-3.0471e-01,3.7514e-03,1.4017e-01,-1.9201e-01,2.9450e-01,9.9339e-02,2.7261e-01,2.9143e-02,-3.0908e-02,2.9675e-01,2.7827e-02,2.4381e-03,1.0021e-01,2.4942e-01,1.7307e-01,2.2248e-03,2.4305e-01,-7.6493e-02,3.3888e-02,-1.4187e-01,2.2615e-01,-2.0940e-01,7.2502e-02,-3.1232e-01,3.3369e-01,-3.2719e-01,5.5670e-02,1.2006e-01,5.4719e-02
-9.6794e-02,1.2710e-01,1.4201e-01,4.5784e-02,8.4069e-03,-1.9236e-03,-7.0992e-02,-1.2513e-02,-1.1257e-01,-1.2794e-01,4.3360e-01,-1.5164e-01,2.1112e-02,-3.6515e-02,-4.2914e-02,-1.7260e-01,-1.2581e-02,-1.3513e-02,-4.3851e-02,5.6100e-02,1.1183e-01,-1.5162e-02,-1.9677e-02,5.8344e-02,-2.4694e-02,7.7025e-02,-1.5450e-01,-1.1533e-01,4.5542e-02,-4.8394e-02,1.0799e-02,-1.3402e-01,4.2120e-02,-7.3856e-02,-2.2455e-01,4.5377e-02,-1.0030e-01,-9.0948e-02,1.6812e-01,7.7173e-02,6.2146e-02,1.6279e-02,1.5432e-01
-4.8097e-02,4.3328e-02,1.0418e-02,4.3811e-02,-1.2652e-02,-1.6526e-02,-2.8471e-02,-1.9712e-02,-2.4045e-02,3.9531e-02,3.2115e-02,-5.3066e-03,3.7794e-02,1.8675e-02,1.4066e-03,4.0280e-02,2.8776e-02,4.0960e-02,2.1127e-02,3.7704e-02,2.8075e-02,3.6519e-02,-2.4390e-02,1.0605e-02,-3.0274e-02,3.1224e-02,3.2155e-02,4.5648e-02,3.8111e-02,1.6875e-02,1.6935e-02,3.4003e-02,2.6565e-02,4.2757e-03,-2.8671e-02,-4.9344e-02,7.2987e-03,-4.0468e-02,-2.2327e-02,2.2240e-02,5.7238e-02,3.8771e-02,-4.6632e-02
-5.0669e-03,-4.2558e-02,-2.2039e-02,2.9572e-02,4.4482e-02,-2.0105e-02,2.3532e-03,-3.1682e-02,2.4235e-02,3.0161e-02,3.6383e-02,-3.9750e-02,2.1877e-02,-3.3854e-03,-4.8892e-03,-3.9598e-02,-2.8137e-02,1.9682e-02,-3.1377e-03,4.0098e-02,3.4358e-02,-1.6257e-02,2.1578e-02,-1.4071e-02,2.1722e-03,8.9200e-03,4.4950e-02,-2.7817e-02,7.5509e-03,2.8714e-02,4.1441e-02,-4.2827e-05,-6.0727e-03,-9.5327e-03,3.6272e-02,1.7863e-02,2.3876e-02,-4.0881e-02,-1.0243e-02,2.5089e-02,2.9433e-02,1.4268e-03,-3.4062e-02
2.6468e-02,-4.0029e-02,-2.6263e-02,2.8709e-02,4.6299e-02,4.5733e-02,-2.2359e-04,-2.4039e-02,7.5586e-03,-2.3046e-02,5.0110e-02,1.2891e-02,2.7910e-02,4.3744e-03,4.0155e-02,-3.3886e-02,1.2344e-02,4.8393e-02,-4.9538e-02,2.2328e-02,-4.2368e-02,-1.8895e-02,-2.2692e-02,1.9815e-02,-1.2302e-03,1.5325e-02,3.1618e-02,-2.5548e-02,7.9173e-03,3.6198e-02,2.7850e-02,5.7753e-03,8.9889e-03,3.8632e-02,1.2140e-02,7.9860e-03,-3.5634e-02,-1.6843e-02,-3.8157e-02,-1.0164e-02,4.4377e-02,-1.8387e-02,2.7082e-02
-1.0961e-02,4.1535e-02,-2.7065e-02,-2.6354e-02,-3.4539e-02,2.8718e-02,-1.2654e-02,-2.4945e-02,-1.1031e-02,-1.9751e-02,5.2565e-03,-6.1995e-03,-2.6789e-02,-4.3466e-02,-1.6739e-02,-4.0322e-02,2.6748e-02,-2.9985e-02,2.0250e-02,2.2826e-02,-2.2065e-02,1.9284e-02,-2.8900e-02,-2.9108e-02,4.6779e-02,2.2642e-02,1.0893e-02,4.4334e-02,4.1447e-02,-2.2688e-02,3.1367e-02,2.9865e-02,-6.2553e-03,2.4587e-02,-1.0228e-02,-3.7120e-02,3.4043e-02,1.0203e-02,-4.2076e-02,-1.2883e-02,1.5046e-02,-3.3108e-02,4.3742e-02
-1.0205e-01,8.7500e-02,2.9902e-01,2.4494e-01,9.9457e-02,-8.2636e-02,-4.5335e-02,1.8537e-01,1.9610e-01,-5.7122e-02,-2.0705e-01,-7.5944e-02,2.7223e-01,7.2986e-02,-3.9071e-02,1.5390e-02,-2.5190e-01,7.1391e-02,-1.9888e-01,-6.3641e-02,5.6098e-02,1.1299e-01,-1.2592e-01,-8.4308e-02,-8.7092e-02,-5.0194e-02,-9.2669e-03,-1.4451e-01,-1.3077e-01,-1.1593e-02,-5.3894e-03,9.1088e-02,4.9150e-02,-1.0975e-01,-6.9743e-02,-1.9319e-03,5.2501e-02,-6.2003e-02,6.6954e-02,4.4423e-02,5.3990e-02,-5.1237e-02,-5.8837e-02
4.8460e-02,-7.7523e-03,4.1698e-02,4.1468e-02,-1.2545e-04,1.9451e-02,2.3872e-03,-5.0978e-02,-1.0133e-04,-1.3569e-02,-4.4305e-02,5.0421e-03,4.8172e-02,2.1586e-02,-4.1128e-02,-3.2874e-02,8.7583e-03,-3.2538e-02,2.1248e-02,1.5050e-02,4.1531e-02,1.7999e-02,-2.8906e-03,-1.3201e-03,2.8026e-02,1.4210e-02,-3.5765e-02,-4.8194e-02,-3.8382e-02,4.6411e-02,-3.0785e-02,-2.9486e-03,1.6250e-02,-2.2076e-02,4.4467e-02,5.5664e-03,4.6254e-02,4.3701e-02,-4.5344e-02,-2.9102e-02,-2.6974e-02,4.5398e-02,-5.0464e-02
-1.2079e-01,-2.2437e-01,-3.1522e-02,-1.9272e-01,-6.7869e-02,9.1637e-02,-4.9708e-04,-9.5727e-02,-2.2568e-02,-1.4115e-01,1.6684e-01,1.8180e-01,1.4832e-01,-1.2232e-01,1.7528e-02,1.5688e-01,-7.2611e-02,-3.7343e-02,3.6671e-01,-1.0769e-01,-1.2966e-01,4.9177e-02,8.7965e-02,-1.2281e-01,2.4638e-02,2.0502e-01,3.1979e-01,3.2076e-02,-1.8496e-01,-4.2232e-02,1.0968e-01,9.8918e-02,-9.3401e-02,-6.8216e-02,2.3147e-02,-1.6997e-01,7.6215e-02,3.8860e-02,1.6512e-01,-6.8275e-02,3.7980e-02,-7.9148e-02,-6.4244e-02
8.1522e-04,3.3003e-02,-2.0056e-01,-4.0233e-02,2.5853e-02,1.3016e-01,1.0567e-01,-6.9828e-02,-3.0742e-02,7.1528e-02,-8.5476e-03,-5.7135e-02,-1.0745e-01,8.1339e-02,-3.6198e-02,-9.0972e-02,-3.9011e-02,-7.3834e-02,-4.6685e-02,6.4001e-02,-9.0607e-02,4.1155e-02,-2.7979e-02,4.3122e-02,1.9178e-02,3.2212e-01,2.4531e-03,2.9165e-02,-1.1869e-01,7.8318e-03,1.3829e-01,8.9813e-02,-7.3279e-03,4.2467e-02,1.3922e-03,-2.1506e-02,-3.4587e-02,-3.0369e-02,-7.3470e-02,-7.2606e-02,-1.2124e-01,-4.9008e-02,-1.1352e-02
6.5218e-03,6.7673e-02,-3.4825e-02,-3.0416e-02,3.1973e-02,1.5624e-02,-6.7973e-03,5.2488e-03,-6.8222e-02,-1.9875e-02,2.7578e-02,-3.9328e-02,1.5745e-02,-5.8669e-02,5.2018e-02,-4.8441e-02,-1.0448e-02,1.2249e-02,-5.2398e-02,1.0286e-01,-4.1993e-03,-3.4926e-02,2.8042e-02,1.6787e-02,1.9326e-02,2.8771e-02,4.8370e-02,-8.8350e-03,1.0763e-02,2.5083e-02,8.2600e-02,-8.1693e-02,-7.1464e-03,1.5227e-02,3.6617e-02,-1.0431e-03,-3.0100e-02,-1.8606e-02,-4.2662e-02,-3.0338e-02,4.8200e-02,4.0929e-03,7.5266e-03
-6.2077e-02,2.1298e-01,2.1247e-02,-2.1096e-02,-4.0050e-02,1.0688e-01,-1.7552e-01,-4.5344e-02,6.6749e-02,-6.0243e-02,-2.1343e-02,1.4370e-01,-1.1661e-01,-3.0976e-01,-3.1859e-02,-4.5254e-02,5.0137e-02,-1.3352e-01,-1.4719e-01,2.5307e-01,-4.5339e-04,2.6549e-01,-1.0504e-01,8.6739e-02,2.0379e-01,1.8767e-01,-4.9960e-02,1.1387e-01,7.1613e-02,1.0953e-01,1.6593e-01,8.9737e-02,-1.5101e-01,2.2617e-01,-6.5838e-02,-1.6191e-01,-2.1085e-01,3.3930e-02,-3.5047e-01,4.3262e-02,-1.4961e-02,-8.0216e-02,-1.0123e-01
-1.5889e-02,1.7803e-02,7.9512e-02,3.2033e-02,-4.0112e-02,-4.3055e-02,3.6887e-02,1.0442e-02,3.7551e-02,-7.4927e-03,6.4022e-03,2.8659e-03,3.5105e-02,2.1536e-02,-2.5170e-02,-2.1313e-02,-8.1005e-03,-8.7457e-03,-3.2906e-02,2.3505e-02,3.4099e-02,5.3354e-02,-1.7181e-02,-3.2633e-02,-2.7934e-02,-7.7345e-04,-1.8664e-03,-2.1873e-02,-1.3778e-02,-6.2053e-04,-4.6713e-02,-3.6198e-02,2.9213e-02,-2.1880e-02,3.9726e-02,1.1612e-02,4.4316e-02,-2.2048e-02,-3.8079e-02,3.2388e-03,-2.2758e-02,-4.7547e-02,3.4189e-02
-1.4884e-01,2.9271e-01,-7.6353e-02,4.2926e-02,-2.0869e-01,-1.8223e-01,-1.9037e-03,-1.6123e-01,2.5265e-02,-1.2302e-01,-9.7022e-02,5.9611e-02,7.2582e-02,1.6789e-01,2.8570e-01,-6.9943e-02,-2.5301e-01,2.5660e-01,-1.1197e-01,-3.2937e-02,1.4137e-01,-1.2729e-01,-1.9477e-02,6.7742e-02,-9.4077e-02,2.1152e-01,-1.8614e-02,-7.7993e-02,1.0817e-01,5.3081e-02,5.3305e-02,1.2944e-01,1.1783e-01,-6.9352e-02,1.6721e-01,-4.7631e-02,-6.4562e-02,-1.2430e-01,2.3986e-01,-1.8803e-01,-8.9002e-02,-1.8690e-02,2.9095e-02
-6.6130e-02,-2.9246e-01,2.0704e-01,3.8194e-03,1.8123e-02,-3.2456e-02,-3.1675e-02,-1.4986e-01,-1.9443e-01,2.5552e-01,1.3121e-01,-1.8148e-01,-1.0383e-02,4.2567e-02,-1.9621e-01,-1.0293e-01,2.3643e-01,-3.5618e-01,-8.2036e-02,2.0669e-01,1.6223e-01,-1.0735e-02,1.2800e-02,1.4028e-01,1.8306e-01,-1.5698e-01,-1.1610e-01,1.0272e-01,1.3738e-01,1.6397e-01,3.3105e-02,-1.1336e-01,-1.0342e-01,-7.4006e-02,-1.1426e-01,1.0910e-01,2.3354e-02,-1.0653e-01,-6.1936e-02,2.4062e-02,1.5557e-01,7.8853e-02,8.1971e-02
-1.7822e-01,-1.7323e-01,-3.7506e-02,-7.5776e-02,9.8351e-03,-8.9547e-02,-5.4919e-02,-1.9657e-02,1.9403e-01,-4.6688e-02,5.6101e-03,-7.3067e-02,-4.2672e-01,-6.8898e-02,1.4357e-01,4.0457e-02,3.6822e-02,1.1713e-01,2.0121e-01,-1.0704e-01,1.4288e-01,-3.8603e-02,1.2155e-01,-1.9439e-02,-4.9298e-02,9.1211e-02,7.0565e-02,3.1832e-02,-8.9662e-02,-4.3989e-02,-1.1458e-02,-2.7442e-02,7.0695e-02,-3.0369e-02,1.5874e-01,-1.2478e-01,4.8262e-02,5.5661e-02,3.2984e-01,1.0871e-02,2.2667e-01,-1.0418e-01,-2.8676e-02
1.2557e-01,-1.3675e-01,-2.5104e-01,-1.1470e-01,1.6153e-01,-8.0632e-02,-2.6759e-02,-2.5558e-01,-2.8048e-01,-2.7560e-01,-2.8463e-01,4.1056e-02,-3.1638e-01,2.6948e-01,-1.8507e-02,-7.3433e-02,-3.6523e-01,1.6410e-01,1.2546e-01,4.3114e-02,-8.8828e-02,1.3897e-01,3.0070e-01,-1.1243e-01,2.5281e-01,1.8138e-01,2.7070e-01,6.3162e-02,2.6736e-01,2.2677e-01,2.3546e-01,3.8894e-02,-1.5962e-01,1.9435e-01,2.2071e-01,2.8372e-02,-4.9219e-02,-5.0323e-02,-2.1202e-01,1.9011e-01,-9.5027e-02,-2.2302e-01,-2.0347e-01
-1.0303e-01,2.7479e-01,1.9152e-01,-2.4901e-01,4.0179e-02,1.7878e-02,-7.0302e-02,-3.1869e-02,-3.0885e-01,-2.6642e-01,-7.5279e-02,3.4636e-01,-2.8484e-01,-2.9422e-01,-2.6306e-01,-3.1678e-01,5.7936e-02,-2.4013e-01,2.9214e-01,2.4841e-01,9.1589e-02,3.4678e-01,-6.7142e-02,1.3116e-01,3.2909e-01,2.1988e-01,1.9634e-01,3.8612e-01,-5.8320e-02,-6.5479e-03,-7.7690e-02,1.8577e-01,-8.0434e-02,-1.8391e-02,-2.8614e-01,-1.6308e-01,-2.2517e-01,1.0209e-01,4.1395e-02,-8.2685e-02,2.1051e-01,2.0776e-02,4.1361e-03
5.6726e-02,7.5548e-02,1.7158e-02,2.0813e-01,-9.5737e-02,3.9042e-02,-2.0786e-02,-2.0338e-02,-3.4126e-01,3.7492e-01,-3.4222e-02,9.9555e-02,-2.2354e-02,-2.0071e-01,-1.1551e-01,-1.5366e-01,4.5861e-01,-3.8817e-01,-1.6915e-01,1.2989e-01,-1.7962e-02,1.9095e-01,-1.3214e-01,1.6383e-01,1.4742e-01,2.3596e-02,-1.5173e-01,1.3330e-01,-4.4654e-02,-2.2681e-02,-3.4119e-02,-1.4832e-01,4.7154e-02,-2.4398e-02,-7.0914e-02,1.1758e-01,-4.8511e-02,-5.1801e-02,-3.2779e-01,-1.1391e-01,-2.6451e-02,1.9297e-01,1.3668e-01
-1.4675e-01,-1.6452e-01,7.3819e-02,1.7506e-02,-6.6726e-01,8.6892e-02,-6.7513e-02,8.4816e-02,-7.1158e-02,2.0777e-01,3.5284e-01,1.7022e-01,-9.6401e-02,-1.8648e-01,4.3498e-02,-1.2708e-01,1.1575e-01,-3.8641e-01,2.1526e-02,-1.2093e-01,2.0365e-01,1.0645e-01,-7.5115e-03,1.3188e-01,1.1231e-01,3.6434e-01,-2.9036e-03,1.3697e-01,-8.2566e-02,3.7381e-02,2.4336e-01,-5.2040e-02,-5.7773e-02,-2.0847e-01,1.0872e-01,1.4545e-01,-2.5033e-02,5.1038e-02,2.6071e-02,-2.5126e-01,-7.2953e-02,1.0133e-01,2.0361e-01
1.5573e-01,-2.5762e-02,-1.2706e-01,1.3464e-01,6.8184e-01,4.3824e-02,-4.5656e-02,-2.8470e-01,-5.0920e-02,-1.2051e-01,-4.3995e-01,-5.7207e-01,-2.7913e-01,1.5326e-01,4.2137e-01,1.0539e-01,-1.5457e-01,3.2915e-01,1.1867e-02,-1.3186e-01,1.8452e-01,-3.1663e-01,4.2681e-01,-1.1373e-01,4.8377e-02,4.8714e-02,1.0716e-01,-5.7293e-02,4.6714e-02,2.0940e-02,-9.2783e-02,-1.3805e-01,2.1359e-01,-5.8555e-01,2.2218e-01,-2.5726e-01,4.8922e-01,-6.1054e-02,2.8115e-01,-3.9078e-02,-3.1069e-02,5.8024e-02,-2.6107e-01
1.8011e-02,1.0269e-01,7.5990e-02,-9.7167e-02,3.2691e-01,-1.4950e-02,-1.2970e-02,-8.8657e-02,2.9866e-01,-1.5825e-01,-1.9346e-02,-3.1161e-01,4.5337e-02,1.3858e-01,2.1377e-01,2.1671e-01,-2.0555e-01,3.5151e-01,1.8252e-01,-2.4122e-01,-5.7827e-02,-3.0178e-01,1.6923e-01,-2.3381e-01,-1.8006e-01,-1.6100e-01,9.7606e-02,-2.6414e-01,-1.3045e-02,-7.1986e-02,-1.5599e-01,3.3089e-02,1.8304e-02,-1.6442e-01,1.2493e-01,-7.9746e-02,1.6793e-01,5.9905e-02,4.6728e-01,1.9635e-01,-1.1269e-01,-1.5550e-01,-1.8314e-01
-1.2646e-01,1.3653e-01,-2.4650e-01,1.0341e-01,4.5830e-02,2.0404e-01,1.2726e-02,-1.9358e-01,-3.7763e-01,1.7139e-01,1.6976e-01,1.4744e-01,2.8863e-02,1.9813e-01,-1.2342e-01,-8.6836e-02,9.6125e-02,-1.6183e-01,-2.5747e-02,-6.7437e-02,-4.1670e-02,1.4758e-01,8.7692e-03,1.5478e-01,2.7950e-03,2.3395e-01,2.8355e-02,-6.8558e-02,-1.1323e-01,-1.6010e-01,1.5061e-02,5.6662e-02,3.9649e-02,4.1394e-02,1.4668e-01,-3.4237e-02,-1.3132e-01,-8.3681e-02,1.4560e-01,-1.0264e-01,-1.0738e-01,1.1150e-01,4.3537e-02
1.6061e-02,1.6977e-02,-3.2378e-02,-3.3742e-02,-4.2663e-01,-1.0823e-01,1.6693e-01,1.5050e-01,-1.2443e-01,-1.3412e-03,-1.2066e-01,1.0209e-01,1.6868e-01,5.9804e-02,1.7617e-01,-2.9495e-02,5.1692e-02,-8.8591e-05,3.7531e-02,-1.3821e-01,-3.7455e-02,-7.4980e-02,-1.9494e-02,1.1122e-01,-1.9484e-01,-2.9213e-01,-6.8805e-02,3.2691e-02,-2.7468e-02,-1.5509e-01,-6.7470e-02,-1.7643e-01,1.6545e-01,-2.4600e-01,3.5298e-01,1.5771e-02,7.0775e-04,1.4826e-02,3.6521e-01,-7.5339e-02,2.1749e-02,1.1896e-01,1.7034e-01
2.8877e-01,1.5932e-01,-1.8689e-01,4.0636e-01,-4.1215e-03,3.8175e-01,-1.9596e-02,-1.5983e-02,1.3521e-02,6.2532e-01,1.6817e-01,-8.4956e-02,2.7982e-01,2.9636e-01,-3.3922e-01,2.0475e-01,1.9687e-01,-4.8719e-01,-3.9453e-01,-2.4233e-02,-5.5573e-02,-1.0041e-01,-1.6492e-01,7.1626e-02,-8.5325e-02,-3.6256e-01,-1.2141e-01,-6.1108e-02,1.1373e-01,-6.5784e-02,-2.1384e-01,-3.4548e-01,2.1651e-01,3.1710e-02,1.3085e-01,7.8803e-02,-3.4614e-02,-7.4950e-02,-3.2403e-01,-1.6904e-01,-1.6278e-01,3.0785e-01,9.1851e-02
1.6060e-01,-9.5882e-02,-2.2363e-01,2.7575e-01,-2.6088e-02,-6.4662e-02,-9.1887e-02,-7.4252e-03,1.6148e-01,-3.5037e-02,-2.9425e-01,-2.0471e-01,-1.9702e-01,3.6349e-01,-1.8925e-01,1.5707e-01,-7.6952e-02,1.1332e-02,-3.2030e-01,9.6683e-02,-2.6529e-02,-1.4741e-01,1.5763e-01,6.3961e-02,-1.0080e-01,-2.1464e-02,3.4301e-02,-5.8645e-02,2.4980e-01,1.7863e-01,-7.1384e-02,4.8136e-02,1.1555e-01,-1.0752e-01,1.5278e-01,1.6100e-01,3.2001e-01,-1.1804e-01,-5.0675e-02,-4.9744e-02,-1.8055e-01,1.2061e-02,3.5621e-03
-1.3632e-01,-4.1017e-02,3.8443e-01,-1.8615e-01,-1.2022e-01,-8.9342e-02,-2.5203e-02,1.5424e-01,1.6775e-01,-2.3784e-01,1.5381e-01,2.9892e-01,1.0090e-01,-2.2336e-01,2.2928e-01,-2.1330e-01,-7.4313e-02,-2.2051e-02,2.3232e-01,2.0896e-01,-6.6268e-02,1.6336e-01,-1.5081e-01,5.9373e-02,9.6391e-02,-2.6284e-01,-1.8761e-03,1.9420e-01,-9.9451e-02,2.1949e-02,3.6865e-01,2.1836e-01,-1.7645e-01,1.1951e-01,-2.3276e-01,-2.8981e-01,-3.3291e-01,1.8483e-01,-4.2520e-01,1.2063e-01,2.1223e-01,-1.5947e-01,7.6971e-05
4.0439e-01,6.0898e-01,4.8918e-01,3.5039e-01,3.2665e-01,1.1398e-01,1.7673e-02,-2.2105e-01,-8.5163e-02,-3.3758e-01,-4.2416e-01,-1.5671e-01,-2.4523e-01,-1.3210e-01,7.6606e-02,8.1341e-02,-3.5528e-01,4.7819e-01,-2.7457e-01,1.2029e-02,-1.0579e-01,1.4767e-01,1.6788e-01,-2.2261e-01,1.1077e-01,1.2863e-01,-1.3499e-01,-1.6326e-01,1.5324e-01,1.8228e-01,-9.7748e-02,1.0999e-01,-9.1513e-02,3.0934e-01,-1.9491e-02,-1.5942e-01,3.2005e-02,1.3500e-01,-6.0715e-01,1.2018e-01,-9.9381e-02,-2.7249e-01,-2.4768e-01
-9.7835e-03,2.3452e-01,3.3879e-01,1.3202e-01,1.3128e-01,4.1425e-01,-7.1807e-02,3.9782e-01,8.6171e-02,4.7450e-02,4.3350e-01,-1.9120e-01,-1.4985e-01,1.4167e-01,-2.4349e-01,6.2690e-02,1.3829e-01,-2.4238e-01,-1.3285e-01,9.6472e-02,-1.2921e-01,4.5408e-02,-1.2705e-01,-2.4633e-01,-2.8168e-02,1.6465e-01,-9.7329e-02,-1.4550e-01,-2.6251e-01,-9.7637e-02,-2.5412e-01,7.4619e-02,-1.2318e-01,-1.8187e-01,-2.0505e-01,2.4835e-01,8.0880e-02,2.2708e-01,-2.3876e-01,1.1548e-01,-6.0650e-02,-7.4855e-02,-3.1425e-02
-1.4404e-02,-6.8945e-03,4.5512e-02,3.2444e-02,-4.4829e-02,-1.3991e-01,-6.6076e-02,-7.7000e-02,-4.1751e-03,-5.6433e-03,-1.2738e-02,4.0194e-02,5.2045e-02,-1.3510e-01,-2.2254e-02,-5.3563e-02,1.7056e-02,1.5425e-02,6.4633e-03,1.1606e-01,3.2565e-02,8.0435e-02,5.4144e-02,9.4055e-02,-1.6073e-02,-1.6444e-02,-1.6729e-03,2.0586e-02,-5.2327e-02,7.8261e-02,-1.9822e-02,9.5961e-02,-8.7149e-02,-8.6054e-02,-7.0415e-03,-1.6569e-02,3.3585e-02,2.8720e-02,-1.7558e-03,5.0301e-02,4.7033e-02,-5.7740e-02,-5.5179e-02
-2.3864e-01,-1.8295e-01,-2.6735e-01,7.0198e-02,-2.9885e-01,-1.2531e-01,3.0409e-02,-8.5651e-02,2.2607e-02,-2.0689e-01,-3.3288e-01,3.7588e-01,-6.6835e-02,-2.1246e-01,-1.7400e-02,-8.4786e-02,-1.6033e-01,-8.8587e-03,5.8906e-02,-1.7434e-02,1.8700e-01,5.1033e-02,1.1645e-01,2.6222e-01,-7.8895e-03,4.6560e-02,2.0848e-01,2.4102e-01,1.3935e-01,4.0543e-02,2.6025e-01,1.9476e-01,1.1250e-01,-2.2780e-01,1.4892e-01,-2.1691e-01,-3.9471e-02,-8.4663e-02,3.3228e-01,-4.1281e-01,-7.6785e-02,1.1600e-01,5.3104e-02
-2.0569e-02,-9.0130e-02,-4.0301e-02,4.5339e-03,-2.8997e-02,5.2056e-02,-8.5422e-03,4.1010e-02,-8.1671e-02,-1.4677e-02,-2.2157e-02,9.1260e-02,1.3166e-03,6.5535e-02,-5.9653e-02,5.4080e-02,6.8349e-02,-4.1110e-02,-1.5681e-02,8.7614e-02,-6.3795e-02,2.9873e-03,-3.5791e-03,2.6007e-02,-2.6837e-02,5.5311e-02,2.5351e-02,3.4884e-02,-4.1632e-02,-6.7747e-02,-2.8149e-04,-7.4502e-02,-3.6440e-02,4.2455e-02,3.2019e-02,9.4964e-03,3.9751e-02,1.2272e-02,2.8140e-02,3.1853e-02,1.2230e-02,1.1343e-02,-4.7320e-02
1.9509e-02,-4.5909e-02,3.6057e-02,2.2564e-02,6.5333e-03,4.7370e-02,-3.1418e-02,3.9279e-02,-1.9947e-02,4.3781e-02,3.1074e-02,-3.6188e-02,3.9241e-03,-5.7120e-03,-4.7227e-02,-3.6069e-02,-1.3450e-02,1.4585e-02,-1.1745e-02,2.7354e-02,1.5286e-02,2.8350e-02,6.8119e-03,8.0346e-03,-1.9621e-02,-3.6495e-02,-3.7833e-02,-2.1169e-02,-4.9183e-02,1.5665e-02,-8.0130e-03,-3.3533e-02,-4.1140e-02,-2.4358e-02,1.6088e-02,-1.5106e-03,4.1234e-02,4.6520e-02,-4.7961e-02,-4.2766e-02,-7.0402e-03,-6.4602e-03,3.9388e-02
-5.1779e-03,4.9315e-02,-7.1758e-03,-2.6099e-03,4.7028e-02,2.5042e-02,4.4666e-02,1.7716e-02,3.1963e-03,1.0674e-02,-4.2256e-02,-2.4197e-02,-1.6781e-05,1.6208e-02,-3.0209e-03,-2.8124e-02,-1.1537e-02,-2.4686e-02,3.8483e-02,-4.3165e-02,2.0693e-03,5.1472e-03,4.1558e-02,2.8099e-02,-4.4271e-03,-3.9414e-02,2.9316e-02,2.1920e-02,3.3543e-02,-1.0132e-02,3.5223e-02,1.9280e-02,3.3245e-02,2.8880e-03,1.1330e-02,3.9011e-02,-3.3052e-02,-4.4779e-02,-7.9748e-03,3.2358e-03,-2.0644e-02,-2.4930e-03,3.4257e-02
3.8481e-01,3.3978e-01,-1.1345e-01,-1.2187e-01,1.8930e-01,9.9937e-02,1.9731e-01,3.0501e-01,7.7782e-03,-5.9866e-02,-1.5942e-01,2.9479e-02,-9.5178e-02,-1.1835e-01,-2.5907e-01,3.3222e-02,1.2443e-01,-2.0733e-02,-3.0797e-02,-6.5098e-02,-5.6069e-02,-2.8131e-02,-1.3752e-01,-1.8106e-01,-1.3053e-02,-5.5840e-02,4.0989e-02,1.3646e-01,9.8241e-03,-4.9133e-02,-9.7603e-02,-1.6244e-01,2.8444e-01,-3.4261e-01,-1.0075e-01,-2.2381e-01,1.5897e-01,9.9898e-02,-1.9644e-01,-2.0677e-01,2.0966e-01,2.0050e-01,1.5442e-01
8.5185e-02,8.2293e-03,-1.6588e-01,-8.3079e-02,3.1205e-01,1.1877e-02,4.6601e-02,-1.6862e-01,2.8382e-01,-6.3164e-02,-4.7464e-01,-1.7533e-01,2.3686e-02,1.4286e-02,6.9692e-02,2.4227e-01,-1.7416e-01,3.3598e-01,2.0201e-01,-1.0735e-01,-1.8896e-02,-3.4031e-02,1.5439e-01,-2.7295e-01,-4.1413e-02,-1.2115e-01,2.4523e-01,-2.0836e-02,5.8035e-02,5.8410e-02,-2.7903e-02,1.7150e-01,5.5637e-02,-1.8224e-01,5.5522e-02,-3.5320e-01,1.6516e-01,-3.9900e-02,5.0458e-02,1.4673e-01,7.5749e-02,-1.3169e-01,-2.2771e-01
9.1574e-02,-9.5919e-02,-3.1665e-01,-3.2620e-01,1.1498e-01,-8.2357e-03,1.3934e-02,2.4987e-02,-5.3854e-03,1.8499e-01,2.6463e-02,-1.5400e-01,1.2495e-01,2.3347e-01,-5.8949e-03,-2.2253e-02,1.8369e-01,-1.7383e-01,2.5181e-01,2.0904e-02,-1.4128e-02,-2.3197e-01,-7.9080e-03,-1.2304e-01,5.3171e-02,1.1666e-01,2.3594e-01,9.2339e-02,-9.4554e-02,-4.3247e-02,-1.9149e-01,-1.2547e-01,-3.0875e-02,-6.9524e-02,-1.2374e-01,-6.1784e-03,-1.2875e-02,2.3679e-01,-1.5078e-01,1.2639e-01,1.3105e-01,5.8868e-04,5.7214e-02
-1.4897e-01,-1.3505e-01,-1.1808e-01,-2.3976e-01,-1.3656e-01,-4.0443e-01,7.4845e-03,-3.7985e-01,-1.6926e-01,-2.8972e-02,-3.6121e-01,3.9107e-01,2.8943e-01,-4.4414e-01,1.4843e-02,7.0175e-02,-2.1462e-01,3.8327e-02,1.9227e-01,7.7163e-02,1.7472e-01,-1.1221e-02,1.2103e-01,1.9970e-01,1.3471e-01,-2.9799e-01,2.3135e-01,1.7859e-01,4.5450e-01,1.8886e-01,4.1734e-01,-1.8800e-01,1.0899e-01,6.8126e-03,1.6531e-01,-2.4355e-01,-1.0652e-01,-2.3319e-01,2.5478e-01,-1.2473e-01,8.4625e-02,1.7287e-01,-5.4022e-02
-4.1654e-01,-4.0045e-01,-9.8629e-02,-3.7710e-01,-2.3311e-01,-1.4154e-01,-2.9900e-01,-6.2727e-02,2.5417e-01,-6.0622e-02,2.7095e-01,1.1181e-01,3.5752e-01,1.7379e-01,2.4999e-01,8.8992e-02,-2.9031e-01,1.2878e-01,3.5702e-01,-9.8900e-02,3.5216e-02,-2.1965e-01,1.6705e-01,-8.2798e-02,-7.9248e-02,4.3573e-02,4.1354e-01,-9.4337e-02,-9.0743e-02,6.1077e-02,1.4647e-01,-1.2527e-01,-1.6845e-01,3.8401e-01,3.1753e-02,-3.4305e-02,-5.7052e-02,1.2524e-01,3.4629e-01,1.3523e-01,-1.0222e-01,-2.2773e-01,-1.2269e-01
8.0550e-03,3.0624e-02,4.1843e-02,-3.8392e-02,-1.5364e-02,2.4441e-02,-1.4724e-02,-5.5541e-03,3.3116e-02,-2.8401e-02,-4.2306e-02,-3.9499e-02,2.9299e-02,6.8098e-03,2.5637e-02,-2.3176e-02,3.7360e-02,3.8683e-02,-1.7342e-02,3.5630e-02,-4.8890e-02,-3.7449e-02,3.6065e-02,-8.9909e-03,-4.7884e-03,-1.2233e-02,-3.5351e-02,-2.4466e-02,4.7471e-02,-3.5932e-02,2.6667e-02,-3.0624e-02,4.3776e-02,1.1012e-02,-1.1457e-02,4.1563e-02,3.1463e-02,4.3223e-02,3.9109e-02,2.6940e-02,1.6396e-02,4.6981e-02,4.8864e-02
1.1359e-01,2.2302e-01,2.3630e-01,1.1337e-01,2.0789e-03,-1.9947e-01,-5.8000e-02,-2.2041e-01,1.0819e-01,-4.1534e-01,-4.2492e-01,-6.7610e-02,2.3961e-01,5.2614e-02,7.1777e-02,1.4632e-01,-4.8163e-01,3.3720e-01,-2.5021e-01,1.0528e-01,-1.5232e-01,1.4746e-01,1.2142e-01,-1.0102e-01,-3.0076e-02,4.9988e-02,-5.1487e-02,-1.6456e-01,5.5943e-02,1.7646e-01,-6.7682e-02,2.6798e-01,8.6389e-02,2.1944e-01,5.2019e-02,1.7185e-01,6.4558e-02,-1.0328e-01,-5.3750e-02,2.4456e-02,-7.9122e-02,-9.4416e-02,-1.5432e-01
-1.8577e-01,-1.0401e-01,3.7214e-01,2.7440e-01,-7.3805e-02,1.2828e-01,3.2408e-01,-9.5528e-03,-5.3193e-02,-4.2455e-02,-1.4693e-01,5.3529e-02,-3.7130e-02,-1.0117e-01,-1.8064e-01,-2.3808e-01,4.0026e-02,-9.9044e-02,2.4693e-01,-1.8918e-01,1.6674e-01,2.3152e-02,-1.8402e-01,-1.1534e-02,5.9017e-02,1.7515e-01,-1.3553e-01,7.1147e-02,-5.0218e-02,-3.9583e-02,3.5546e-02,9.1765e-02,6.9574e-02,-1.6721e-01,8.3589e-02,-1.5917e-01,-1.5547e-01,-1.6303e-01,2.1460e-01,-2.3583e-01,5.4234e-02,1.2995e-01,1.7175e-01
-2.6026e-01,-7.3762e-02,1.3935e-01,-2.3939e-01,2.0014e-01,8.5188e-02,-1.8527e-01,1.1387e-01,-6.7390e-02,-2.0213e-01,2.5614e-01,8.8727e-02,6.4121e-02,-4.2009e-01,-8.8129e-02,-3.3547e-02,6.6899e-02,-1.2530e-01,2.5442e-01,3.2678e-01,3.7849e-02,1.9569e-01,-6.0659e-02,9.4808e-02,2.5548e-01,1.7272e-01,2.6327e-01,2.6047e-01,-1.9447e-01,2.7661e-02,3.1144e-02,3.1315e-01,-1.9912e-01,-1.2636e-01,-4.5362e-01,-2.6767e-01,-3.8619e-01,2.7733e-01,-4.0154e-01,8.8512e-02,1.9676e-01,-1.6602e-01,-8.4892e-02
5.8498e-02,6.7726e-02,-2.0677e-01,-1.4983e-02,1.4417e-01,-2.5362e-02,-6.2723e-02,3.0804e-01,2.9334e-01,2.7150e-01,6.4509e-02,-1.6044e-01,1.6293e-01,1.0812e-01,-1.4822e-01,1.6733e-01,1.4889e-01,-2.2593e-02,-7.3317e-02,4.6806e-02,-8.0789e-02,-1.2409e-01,-5.0528e-02,-5.4407e-02,-2.1637e-01,1.7083e-02,-1.5738e-01,-2.4444e-02,4.2870e-03,-4.5430e-02,-2.2691e-01,1.1618e-01,4.5885e-02,-1.8571e-02,-1.2778e-01,1.6735e-01,1.9133e-02,-8.5116e-02,-1.3717e-01,1.0731e-01,-6.3802e-02,5.6030e-02,2.5096e-02
2.2403e-01,-1.7119e-02,2.7300e-01,-9.9044e-02,1.8935e-01,-3.1444e-01,-1.1731e-01,-6.4939e-02,1.3412e-01,-1.0199e-01,-2.8871e-01,5.3120e-03,1.5586e-02,-1.3531e-01,3.1265e-01,1.3013e-01,-3.8143e-02,2.3219e-01,8.2482e-02,-1.6660e-01,-8.0692e-02,-8.5211e-02,-7.2732e-02,-5.8373e-02,-8.8102e-02,-2.8460e-01,-5.1848e-02,-2.4716e-02,5.2590e-02,-7.2041e-02,-3.0088e-01,-3.8210e-02,-2.4862e-02,1.8902e-01,-1.5515e-02,-1.8366e-01,-6.4786e-02,2.4505e-01,1.3188e-01,1.9351e-01,3.5355e-01,-6.2413e-02,-1.2611e-01
8.9104e-02,-3.7686e-02,-1.5577e-01,-6.2899e-02,-3.0143e-02,-3.2103e-02,5.5962e-02,-5.3123e-02,5.9405e-02,-3.3652e-02,5.4394e-04,6.7351e-02,7.6198e-02,-8.2905e-02,-1.2177e-01,8.4098e-02,4.1246e-02,-7.3405e-03,2.1100e-02,7.7142e-02,1.7896e-02,8.3008e-03,-1.0055e-02,2.4535e-01,-4.7407e-04,-1.9860e-01,-7.0940e-02,5.5435e-02,5.8368e-03,7.5260e-02,-3.1336e-02,4.2894e-02,3.1356e-03,-1.0823e-01,1.1355e-02,1.4558e-03,-5.3377e-02,-1.0650e-01,-1.1716e-02,3.0615e-02,1.4012e-01,-7.8508e-03,5.9586e-02
-9.1567e-02,9.4548e-02,3.9035e-01,1.9525e-01,-2.0253e-01,-4.3712e-02,1.2787e-01,-1.6510e-01,2.2728e-01,-8.4528e-02,-1.0823e-01,-2.6379e-03,7.2487e-01,5.0848e-02,-4.9928e-02,-6.9548e-02,-1.7849e-01,9.8017e-02,-2.9057e-01,-1.3503e-01,6.4582e-02,-3.5737e-02,-4.6021e-02,-5.3507e-02,-1.0508e-01,-3.2130e-01,-1.0799e-01,-9.6823e-02,3.1458e-02,7.7094e-02,-2.6664e-02,-8.1816e-02,2.9891e-01,-2.9231e-02,5.8369e-02,-1.5792e-01,-4.5176e-02,-8.3487e-02,-1.4513e-01,-1.2655e-01,-1.7422e-02,8.3058e-02,2.6919e-01
6.6192e-02,3.3693e-02,7.7599e-04,3.8259e-02,4.3515e-02,3.6200e-02,-2.7761e-02,-2.4093e-02,8.2916e-02,-1.1102e-02,5.7300e-02,-6.1395e-02,1.4972e-01,-4.7467e-02,-1.6474e-02,-1.4061e-01,2.8308e-02,6.5001e-02,-9.8432e-02,2.3841e-02,-1.1866e-02,2.6824e-02,5.1251e-02,-6.2033e-02,-8.1476e-02,-8.9758e-02,-1.1626e-02,5.2878e-02,-4.9244e-02,7.3414e-03,-9.4055e-02,-5.7154e-02,6.4082e-02,-5.0162e-02,1.1044e-01,-4.7139e-02,3.2655e-02,1.1715e-02,5.2007e-02,-1.4834e-02,1.1076e-02,-3.4671e-02,3.4228e-02
3.1837e-02,-9.9096e-03,-2.4895e-02,2.1003e-02,-4.7636e-02,-3.4064e-02,-1.3239e-02,-5.2593e-03,-3.3000e-02,-3.2311e-02,-3.7638e-02,-1.9028e-02,-2.4496e-02,-2.1817e-02,-4.4610e-02,-3.0276e-03,-4.4851e-02,-1.6165e-02,-4.3886e-02,3.6700e-02,-3.9660e-02,-2.4732e-02,-5.0922e-03,1.9131e-02,-4.3080e-02,-3.1325e-02,-3.3133e-02,9.9750e-03,-4.6820e-02,-1.7348e-03,8.8913e-03,-4.6450e-02,-3.8313e-02,2.2124e-02,2.3764e-02,3.2530e-02,2.1915e-03,7.0315e-03,3.3909e-02,-1.8623e-02,-2.3266e-02,-1.1588e-02,-2.4101e-02
3.8468e-01,4.2054e-01,6.0502e-01,2.3791e-01,3.6441e-02,3.3788e-01,1.0480e-01,3.4366e-01,2.7963e-01,-4.0964e-01,5.3371e-02,1.7559e-01,-2.0450e-01,-9.5635e-02,-3.5482e-02,5.3124e-02,-5.2231e-02,1.7500e-01,-3.1727e-02,-2.0931e-01,-1.7181e-01,-2.7449e-02,-3.7027e-01,-2.2429e-01,-1.7902e-01,-3.6296e-01,-3.0589e-01,-1.8367e-01,-1.8144e-01,-1.7084e-01,-1.8377e-01,-5.4038e-02,1.8504e-02,5.4480e-02,4.2221e-02,-1.6665e-01,-2.9807e-02,1.8667e-01,-8.8385e-02,-1.1842e-01,-2.5910e-03,-1.6311e-01,1.2435e-01
9.7644e-02,2.4766e-02,3.3487e-01,-9.1770e-02,5.3826e-01,2.5128e-01,-3.2773e-01,-1.3133e-01,-1.8233e-01,-5.4153e-03,-7.6825e-03,-3.4940e-01,-3.0996e-01,-5.6693e-02,1.1596e-01,3.1633e-01,-2.6615e-01,7.0147e-02,1.6016e-01,5.1532e-02,-2.4960e-02,-1.0351e-01,1.6082e-01,-2.1517e-01,1.3745e-01,4.3139e-02,1.8583e-01,-2.9258e-02,-7.0640e-02,3.6554e-02,-3.2410e-01,9.1863e-02,-2.4631e-01,2.4699e-01,-2.0743e-01,-7.5847e-02,8.6006e-02,3.0164e-01,2.7824e-02,3.6833e-01,-2.3553e-01,-2.2900e-01,-3.1288e-01
-2.4155e-02,2.8909e-02,5.9338e-03,2.1726e-02,5.3130e-02,7.8644e-02,-2.9978e-02,-2.3480e-02,-5.8632e-02,-4.2052e-02,2.2768e-02,-1.3918e-02,-2.8307e-03,-3.1547e-02,3.7938e-02,1.2819e-02,-1.6246e-02,-4.6138e-02,2.7720e-03,-1.2414e-02,-1.8152e-02,4.1488e-02,2.6310e-02,-7.9598e-03,1.6427e-02,1.3182e-02,4.3061e-02,3.6308e-03,-2.7223e-02,-1.5969e-02,-5.3086e-02,-1.5285e-02,2.8425e-02,4.3821e-02,-1.0818e-02,4.4491e-02,3.6876e-02,1.2214e-02,3.8349e-02,-3.6742e-02,-4.1022e-02,-4.3843e-02,-3.1923e-02
-7.1285e-02,-3.2357e-01,-3.8429e-01,-6.7036e-02,-3.8072e-01,-1.6730e-01,-3.6322e-01,8.2911e-02,8.3246e-02,4.3348e-01,4.4726e-01,-5.4809e-02,5.1195e-02,1.8678e-01,-8.3222e-02,5.1799e-02,3.3220e-01,-3.9012e-01,-3.8948e-01,1.0823e-01,6.8595e-02,1.3166e-02,-9.4257e-03,2.2268e-01,-5.7048e-02,-2.2251e-01,-1.5406e-01,9.2843e-03,1.7658e-01,8.9505e-02,4.2162e-02,-1.1914e-01,-1.5254e-01,2.0466e-01,5.9805e-02,5.3506e-01,2.1445e-03,7.1245e-02,-2.1699e-01,1.4188e-01,1.1459e-02,6.3195e-02,7.0969e-02
-1.3590e-01,1.4007e-01,1.9928e-01,1.4454e-01,-9.2757e-02,8.3877e-02,3.4119e-02,-3.0978e-01,2.4909e-01,-4.1252e-01,-4.0283e-01,-3.0441e-01,-2.7774e-01,1.6267e-01,1.0081e-01,-3.0779e-02,-3.9672e-01,3.1900e-01,-1.9614e-02,6.5650e-02,1.2482e-01,1.4164e-02,2.6040e-01,-6.2395e-02,7.8566e-02,2.5149e-01,8.2056e-02,-3.1465e-02,-8.4271e-02,1.8884e-01,-9.1841e-02,4.7164e-01,-6.8634e-02,-1.1964e-01,-5.3927e-02,5.8053e-02,5.9641e-02,-1.1027e-01,2.3718e-01,4.9507e-02,-8.7061e-02,-2.4077e-01,-2.3479e-01
2.5573e-02,3.7957e-02,4.7955e-02,-1.8054e-02,-1.4048e-02,-8.4260e-03,-2.0097e-02,4.6681e-02,-2.6005e-02,1.4418e-03,-4.9136e-02,9.8730e-03,4.6893e-02,-3.4283e-02,-8.9300e-03,-2.2277e-02,-4.9985e-02,-2.1914e-02,-2.8730e-02,-1.9286e-04,-3.4182e-02,-4.2068e-02,7.2024e-03,-3.0207e-02,3.9168e-02,1.1638e-03,1.6768e-02,9.2868e-03,-2.2478e-03,2.3571e-02,4.5914e-02,-2.1005e-02,-4.0817e-02,1.9803e-02,4.6689e-02,3.1030e-02,-4.7927e-02,-2.8962e-02,-7.7687e-03,2.3942e-02,4.0099e-03,8.4281e-04,5.5129e-03
2.6169e-01,1.0331e-01,1.6645e-01,1.3829e-01,1.8488e-02,1.2873e-01,2.3286e-01,4.6417e-01,2.6967e-01,1.7357e-01,2.2041e-01,8.5561e-02,-3.2686e-02,-1.5328e-01,-4.3644e-01,-1.7542e-02,3.8554e-01,-2.3842e-01,-1.0602e-01,-5.4903e-02,1.3678e-02,-6.7849e-02,-3.4788e-01,-1.0042e-01,-1.5284e-01,-4.1685e-01,-1.4349e-01,-4.0387e-02,1.3586e-01,-2.8508e-01,-2.2427e-01,-1.4344e-01,1.6181e-01,-2.6036e-01,-2.5253e-01,1.2937e-01,-7.5096e-02,3.5085e-02,-7.2897e-02,-2.3029e-01,1.5304e-01,2.0521e-01,3.4449e-01
3.2358e-03,-3.0379e-02,-3.8360e-02,-1.3174e-02,3.6292e-02,-2.5643e-02,5.0778e-02,-9.6459e-03,2.8271e-02,3.6096e-02,2.9502e-02,-2.4586e-02,2.8898e-02,-2.3881e-03,-4.0640e-04,3.9530e-03,3.4426e-02,3.7226e-02,1.8972e-02,-2.5425e-02,-2.7854e-02,-1.1304e-02,-3.2569e-02,-6.1996e-03,4.6635e-03,1.6188e-02,-3.7451e-02,7.4287e-03,2.5201e-02,4.8480e-02,-2.8429e-02,-1.6410e-02,-6.1408e-03,-4.6379e-02,4.3696e-03,1.9119e-02,3.5143e-02,2.3060e-02,2.4112e-02,-5.7560e-03,-2.1262e-02,1.2870e-02,3.9875e-02
-1.8351e-01,3.2975e-03,-1.7055e-03,-1.9338e-01,1.6695e-02,-1.5312e-01,-2.7878e-01,3.3608e-02,-4.7986e-02,-2.0130e-01,-1.3246e-02,6.0569e-02,-4.9987e-02,-6.0273e-02,5.2078e-02,-3.6840e-02,-6.3185e-02,-4.0989e-02,1.4508e-01,1.0346e-01,-5.3846e-02,1.9861e-01,2.3372e-01,6.6208e-02,2.2566e-01,2.0413e-01,1.6281e-01,2.1685e-01,-3.5420e-02,7.9727e-02,6.1687e-02,1.8839e-01,-1.7463e-01,7.3972e-02,-2.4554e-01,-3.3278e-02,-1.4739e-01,3.1140e-01,-4.0185e-01,1.6782e-01,4.8533e-02,-2.3974e-01,-1.0367e-01
-6.9176e-02,-3.1142e-02,-2.8501e-01,-3.6436e-01,5.9586e-02,-2.0076e-02,5.9120e-02,3.3686e-01,2.5879e-02,-9.3920e-02,3.6615e-01,4.5417e-02,6.5052e-02,2.3275e-02,1.8303e-02,-2.8644e-01,-8.5365e-02,6.1373e-02,2.9749e-01,-8.9366e-02,6.9709e-02,-5.4310e-02,-4.6029e-02,8.5838e-03,7.6021e-02,2.6464e-01,1.8801e-01,1.8917e-02,-1.8604e-01,-2.5565e-02,1.0261e-02,3.5927e-02,-2.4787e-02,-2.1619e-01,-2.8923e-01,-2.6928e-02,-2.5172e-01,1.5866e-01,1.0000e-02,4.0756e-02,8.4626e-02,5.9868e-02,2.0976e-01
-7.5183e-02,-7.5438e-02,-1.2752e-01,-6.1911e-02,1.5025e-01,-1.0339e-01,-4.3846e-02,-3.5390e-02,1.2779e-03,1.1993e-01,-6.7248e-02,-1.3789e-01,2.3568e-01,-1.7256e-01,1.1064e-01,9.9178e-02,-5.1352e-02,4.3279e-02,1.2339e-03,6.3077e-02,8.1624e-02,-1.1653e-02,8.5122e-02,1.1816e-01,1.6311e-02,-3.6227e-02,8.7456e-02,3.5019e-04,-4.9515e-02,-4.2835e-02,6.3477e-02,-1.1895e-01,-1.4813e-02,-1.0425e-02,-6.1307e-02,-2.5900e-02,-8.5634e-02,2.2446e-02,3.0574e-01,1.1086e-01,2.0995e-04,-3.7002e-02,-1.2960e-01
-4.9174e-02,-1.2628e-02,-3.7018e-02,7.6084e-03,-4.4766e-02,3.6131e-02,2.3854e-02,1.2991e-02,-1.3136e-03,-5.7780e-03,-3.9025e-02,8.7474e-03,-3.4306e-02,2.8386e-02,4.2734e-02,3.5617e-02,-1.9472e-02,3.2367e-02,-3.5175e-02,-4.7530e-02,-2.8804e-02,-2.6415e-02,2.3341e-02,5.2666e-03,4.1516e-02,-2.3371e-03,-4.1415e-02,-9.0040e-03,3.5671e-02,7.6266e-03,-4.7616e-02,-7.9763e-03,-1.6399e-02,-3.0498e-02,-3.4492e-02,4.8660e-02,4.2390e-02,1.8800e-02,-3.9178e-02,4.8962e-02,-4.6058e-02,2.6626e-02,-1.1418e-02
-9.0648e-02,4.3711e-03,2.6693e-02,2.4928e-02,-6.0126e-04,1.3623e-01,-5.3641e-02,-5.7496e-02,-2.3349e-01,3.1889e-01,4.8951e-01,-1.7967e-01,-1.8683e-01,1.9650e-01,-9.5125e-02,-6.1039e-02,1.0837e-01,-4.2503e-01,-6.6761e-02,1.2634e-02,1.6784e-01,-1.9531e-01,-8.9372e-02,2.4477e-01,-6.6601e-02,-3.6692e-02,-2.0576e-01,-1.3003e-01,-8.1046e-02,-2.5154e-02,-1.1836e-01,-1.5043e-01,-1.1273e-01,-1.1778e-01,1.2477e-01,4.0948e-01,-1.3605e-01,-9.0852e-02,4.0134e-01,1.4927e-02,-2.1798e-03,1.5549e-01,8.4523e-02
3.5548e-01,-4.0838e-02,-2.8331e-01,-1.6734e-01,3.7855e-01,-1.1998e-01,2.0104e-01,-3.9137e-02,1.0341e-01,7.0921e-02,-2.5572e-01,-3.1788e-01,5.2944e-01,3.4635e-01,9.7040e-02,-3.1040e-02,2.8893e-02,5.6179e-02,-1.0453e-01,-2.3317e-01,1.4370e-02,-4.5374e-01,2.2544e-02,-2.9328e-01,-1.0184e-01,4.0763e-03,6.7114e-02,-2.9478e-01,9.7750e-02,-7.6575e-02,-1.2361e-01,-3.9039e-01,3.4458e-01,-6.7236e-02,-7.0948e-02,1.1840e-01,3.3591e-01,-1.6724e-01,2.0441e-01,-1.6651e-01,1.5212e-02,2.9110e-01,8.2523e-02
-8.4708e-02,-1.6895e-01,-1.5444e-01,3.5170e-02,-1.4124e-02,-8.7441e-02,1.2988e-01,4.1914e-01,2.7717e-01,3.6965e-01,3.6756e-03,-2.1960e-02,5.8432e-01,-2.0515e-01,7.1003e-02,2.1777e-01,3.7147e-01,-2.3757e-01,-1.7448e-01,-2.0389e-01,-1.0755e-01,-2.4967e-01,-2.8039e-01,-1.6035e-01,-1.8116e-01,1.8722e-01,-2.1209e-01,-1.3056e-01,-1.9408e-01,-1.9034e-01,-1.5576e-01,-4.2779e-02,1.5392e-01,-2.5091e-01,-2.0083e-01,-2.8391e-02,3.3455e-01,-1.8398e-01,5.2002e-02,-1.6040e-01,2.1460e-01,2.6484e-01,1.7335e-01
-1.7468e-01,-5.0496e-01,-1.0884e-01,8.2648e-02,-3.4833e-01,1.4295e-01,2.5168e-02,2.4143e-02,1.9045e-01,1.6059e-01,5.5999e-02,3.2069e-04,-5.7497e-02,-2.3138e-01,-1.8258e-01,4.8936e-02,3.0342e-01,-2.9058e-01,2.7972e-01,-1.8002e-01,2.4423e-01,-1.2542e-01,8.7071e-02,5.4882e-02,5.5098e-02,4.8812e-02,1.6536e-01,1.8400e-02,1.7024e-01,-1.1491e-01,9.9743e-02,-4.5391e-02,1.0612e-01,-3.7773e-01,6.0664e-02,6.7260e-02,2.5764e-01,-2.9008e-01,5.1277e-01,-2.1909e-01,-8.4208e-02,2.1556e-01,4.3569e-02
7.2723e-02,2.0743e-01,4.8258e-01,1.5446e-01,1.9056e-01,1.8162e-01,7.5092e-02,1.1129e-01,5.4649e-02,-2.0778e-01,-2.9404e-01,-1.8760e-01,-4.3672e-01,-3.4749e-01,7.0180e-02,9.4538e-02,-2.3196e-01,2.0543e-01,1.7849e-01,3.5157e-02,-1.4182e-01,1.9929e-01,-8.8436e-03,-2.0321e-01,1.7850e-01,1.2089e-01,-1.0597e-01,-2.1495e-02,-1.2594e-01,9.2192e-02,-8.4039e-02,2.4731e-01,-2.6619e-03,-1.8620e-01,-1.8582e-02,-2.3718e-01,8.5726e-02,-3.8670e-02,-1.1372e-02,1.4435e-01,-1.5007e-01,-9.9503e-02,-1.6735e-01
-5.2714e-02,-8.8456e-02,-4.7162e-01,2.6863e-02,3.2605e-01,1.5583e-01,-3.5649e-02,2.1390e-01,3.1405e-01,2.3864e-01,-2.0764e-02,-2.4650e-01,-3.5209e-02,1.1793e-01,-1.4754e-01,-3.2804e-02,1.8263e-01,-1.4678e-01,-1.3879e-01,3.7559e-02,-8.2459e-02,-5.1767e-02,-3.5645e-02,7.0457e-02,-3.0512e-02,1.8603e-01,-2.8474e-02,-4.7796e-02,6.6941e-03,4.9585e-02,1.9144e-02,2.3185e-01,-3.2349e-02,-9.7083e-02,-2.8933e-01,2.1565e-01,8.3233e-02,-7.9207e-02,-1.6407e-01,1.2085e-01,-5.6813e-02,1.2421e-02,-1.1350e-02
4.4955e-03,7.1715e-02,3.8944e-01,-2.6995e-01,-9.8768e-02,-3.3540e-01,-1.2004e-01,2.2127e-01,1.6447e-01,-4.2642e-02,-2.1568e-01,1.1972e-01,2.4819e-01,-1.9621e-01,4.2562e-01,5.0916e-02,-2.0448e-01,3.4324e-01,3.7751e-01,-1.6393e-01,1.0503e-02,2.1676e-02,-1.4062e-01,-1.5269e-01,-6.9869e-02,-2.2595e-01,2.0289e-01,1.3460e-01,-3.2565e-01,-1.5683e-01,-7.7956e-02,1.0665e-01,4.1016e-02,6.2444e-02,-9.1273e-02,-4.6085e-01,-3.5877e-01,3.0798e-01,3.4390e-01,1.5744e-01,1.8531e-01,-1.2175e-01,-1.9919e-01
-1.4251e-01,-2.1469e-01,2.4514e-01,9.2292e-02,-1.1317e-01,-6.6672e-02,-1.6952e-01,1.7009e-01,1.5094e-02,6.7268e-02,-3.7603e-02,8.4714e-02,-2.8473e-01,-4.1425e-02,-1.2251e-01,7.3363e-03,-9.6699e-02,-1.5090e-01,-2.0004e-01,3.3340e-02,6.4122e-02,1.6173e-01,4.0147e-02,1.6432e-01,1.3157e-01,-4.7283e-02,-1.0997e-01,4.2290e-02,2.1405e-01,1.1187e-01,2.9920e-02,1.8992e-01,-1.8317e-01,2.1553e-01,-7.6953e-02,8.6763e-02,-2.1701e-01,1.9897e-01,-1.2911e-01,9.1488e-02,-6.1606e-02,-1.1593e-01,-2.0218e-01
-1.0188e-01,-1.7424e-01,-1.6650e-01,4.4107e-02,-4.1368e-01,-2.0051e-01,-8.2393e-02,-3.0274e-01,6.3670e-03,2.0931e-01,-1.0273e-01,-1.6570e-03,2.5512e-01,3.2727e-01,1.3330e-01,7.3279e-02,-2.0567e-02,-1.5476e-01,-1.8822e-01,-3.9710e-04,1.2612e-01,-1.2365e-01,1.4332e-01,6.6576e-02,-1.0713e-02,-3.5417e-02,-2.4834e-02,-4.2960e-02,1.2752e-01,5.3995e-02,2.1294e-01,-2.5678e-01,1.5877e-01,1.1914e-01,2.3678e-01,2.2023e-01,3.6456e-03,-1.2463e-01,-6.9304e-02,-2.0263e-01,-1.6921e-01,2.3890e-01,1.1449e-01
4.4518e-02,1.3565e-01,1.8493e-01,-2.1096e-01,3.7589e-02,-3.7390e-01,-2.1625e-01,2.9334e-01,1.9196e-01,6.6510e-02,-3.0799e-01,2.7135e-01,-1.2018e-03,1.8467e-01,-1.1143e-01,-1.1507e-02,-4.8753e-02,-9.0237e-02,5.7517e-02,1.2126e-01,-7.2705e-02,2.4373e-01,-1.7285e-01,-7.5882e-02,1.1937e-01,5.4924e-02,6.4191e-02,2.0894e-01,9.8058e-02,-2.8261e-03,8.9330e-02,2.6461e-01,-2.0208e-01,3.2154e-01,-2.6547e-01,-1.5321e-01,-4.4130e-01,1.7156e-01,-2.4361e-01,1.9802e-01,1.4542e-01,-6.3078e-02,-2.2689e-01
-7.3668e-02,-1.9376e-02,7.3348e-02,-9.9129e-03,-6.5005e-02,-2.1289e-01,-3.7845e-01,-1.8849e-01,3.0567e-02,-2.6840e-01,-2.3177e-01,7.2759e-02,-2.8949e-01,1.6730e-01,-7.7418e-02,5.9953e-02,-3.2022e-01,2.2021e-01,1.2854e-01,1.6554e-01,6.7508e-02,2.2074e-01,2.4537e-01,1.2531e-01,2.3782e-01,-2.3422e-02,2.4334e-01,6.9564e-02,2.0875e-01,2.1979e-01,1.1690e-01,3.7167e-01,-3.2961e-01,2.1398e-01,-3.4315e-02,-2.2366e-01,-1.6168e-01,9.2201e-02,8.7342e-03,2.9647e-01,-4.8062e-02,-3.2513e-01,-3.8170e-01
-4.5148e-02,-1.1981e-03,-5.5684e-02,6.6103e-02,-1.2325e-01,2.0422e-01,1.1739e-01,-3.3002e-02,1.8053e-01,-6.7081e-02,6.8053e-02,-7.4339e-02,1.1314e-01,-7.7641e-02,-3.4372e-02,1.2071e-01,3.8014e-04,-1.0611e-02,-1.1435e-03,-2.7030e-02,1.0470e-01,1.5221e-04,6.5194e-02,1.2921e-01,-8.1307e-02,3.7727e-03,-1.3902e-03,-5.5921e-02,7.9850e-02,1.0532e-01,-1.0642e-02,2.2273e-01,-3.8008e-02,-1.0534e-01,-6.4772e-02,-7.8101e-02,-1.0362e-02,-6.0984e-02,-1.1583e-01,4.3734e-02,-9.8140e-02,-9.9223e-02,-4.4462e-02
3.3911e-01,1.6076e-01,3.0306e-01,-2.2418e-01,3.8888e-01,1.2537e-01,1.1476e-01,3.5917e-01,1.9395e-01,-2.9498e-01,1.0576e-01,-2.1844e-01,5.1405e-02,-3.3631e-01,1.0428e-01,1.2996e-02,-4.9221e-03,2.2515e-01,-5.5971e-02,1.0129e-02,-1.2955e-01,4.8745e-02,-1.4791e-01,-9.6789e-02,-6.9477e-02,-3.6096e-01,-3.4827e-02,3.2214e-02,-1.0046e-01,-1.4285e-01,-1.7506e-01,-6.4916e-03,8.4576e-02,-1.7470e-01,-4.9277e-01,-6.1611e-02,-8.3349e-02,2.6679e-01,-2.6876e-01,1.2260e-01,3.9058e-01,-7.3653e-03,7.3344e-02
2.2266e-01,-9.3922e-02,3.1338e-01,-2.0011e-01,3.4027e-03,-7.5487e-03,-1.2061e-01,6.1227e-02,4.0451e-02,-1.2186e-01,-2.7270e-01,7.2707e-02,-8.1043e-02,5.0414e-02,-2.1956e-01,9.5418e-02,-2.2452e-01,2.1245e-02,1.4688e-01,1.1393e-01,3.3259e-03,1.1183e-01,1.2186e-01,-5.5523e-02,1.7195e-01,-2.9753e-01,3.6052e-01,1.7044e-01,2.6641e-01,4.4349e-02,1.4863e-01,5.2359e-02,7.3744e-03,-3.1608e-02,-3.4759e-01,-3.5777e-01,-1.1374e-01,2.1054e-01,-3.6057e-01,4.6672e-02,1.5385e-01,-4.2785e-02,-3.3032e-02
-2.7126e-01,1.9453e-02,1.4484e-01,2.2024e-01,-1.7425e-01,1.8947e-01,7.5252e-02,-3.4680e-01,-2.5074e-01,-8.1883e-02,-8.6767e-02,-9.8460e-02,-3.8071e-01,-3.8199e-01,6.8363e-03,-5.5739e-02,-1.6571e-01,4.0859e-02,2.2149e-01,3.7752e-02,2.4067e-01,1.2573e-01,9.3763e-02,9.2568e-02,2.1387e-01,5.1844e-01,-2.0350e-02,5.7781e-02,4.0246e-02,8.2919e-02,8.5126e-02,3.2316e-01,-8.6162e-02,-1.8770e-01,6.3534e-04,-4.3291e-02,8.4792e-02,-3.1945e-01,3.6837e-01,-1.6221e-01,-2.0641e-01,6.6377e-02,-7.7521e-02
2.8509e-02,4.4842e-02,-1.8765e-01,1.3437e-02,1.1661e-01,1.5411e-01,3.4933e-02,-8.2156e-02,1.2479e-02,3.9926e-02,-9.2337e-03,3.1508e-02,1.4046e-02,-4.5603e-02,2.3376e-02,1.3768e-02,7.1360e-02,-2.7850e-02,-3.2695e-02,7.0834e-02,-2.1861e-03,-2.6678e-02,2.6559e-03,4.5111e-02,-6.0113e-03,-4.5111e-02,7.4137e-02,7.7020e-02,2.4745e-02,-4.1590e-02,3.3807e-02,-1.6962e-02,9.3105e-02,-1.8444e-02,-1.9432e-02,-1.4065e-02,2.4098e-02,-1.0058e-01,-1.3275e-02,8.8463e-03,5.0404e-02,7.0908e-02,1.1885e-02
-3.0494e-02,1.6872e-01,8.1642e-02,2.4220e-02,-1.1001e-01,1.8371e-01,-1.8195e-01,1.1937e-01,-5.5168e-02,3.6432e-01,2.2311e-01,-1.0301e-01,1.0543e-01,-1.5288e-01,1.3513e-01,1.8658e-01,1.0555e-01,-1.7186e-01,-2.6264e-02,-1.2982e-01,1.4344e-01,-1.4315e-01,-1.0601e-01,-8.1502e-02,-1.6794e-02,-1.8796e-01,-1.4591e-01,-4.6335e-02,-6.4314e-02,-1.2257e-01,-1.1949e-01,-3.2657e-01,6.0520e-02,-1.5879e-01,1.0928e-01,1.5214e-01,-8.7715e-02,2.1151e-01,2.5428e-01,4.5674e-03,-2.2885e-02,-2.9758e-02,-3.8478e-02
2.3631e-02,-2.5219e-01,-3.3641e-01,-2.3442e-01,2.6350e-01,8.2482e-02,-3.0334e-02,1.2383e-01,-7.6104e-02,1.1439e-01,2.9856e-01,-3.7250e-02,1.1310e-01,-1.0288e-02,-8.7938e-02,-9.9913e-02,2.3536e-01,-1.4473e-01,2.6847e-01,-9.7825e-02,4.9881e-02,-6.0319e-02,-9.6628e-02,7.0625e-02,-5.3588e-02,-2.4824e-01,1.9266e-01,5.4826e-02,9.1895e-02,-4.6861e-02,-6.6544e-02,-3.2473e-02,-6.7759e-03,-3.0139e-01,-2.1060e-01,-1.0674e-01,-7.8058e-02,-4.9030e-02,7.4231e-02,1.1224e-01,2.7775e-01,6.0235e-02,1.1352e-01
8.9199e-02,-1.7849e-02,4.4796e-02,2.2715e-01,3.6344e-02,2.5943e-01,1.0007e-01,3.9246e-01,1.1700e-01,4.1209e-02,2.5378e-01,-8.2752e-02,-2.3193e-01,-1.0058e-01,-1.3738e-01,-1.2922e-01,2.4229e-01,-2.2185e-01,-9.6956e-03,-6.9093e-02,1.1746e-01,-1.5219e-01,-2.3827e-01,-6.4671e-02,-1.8605e-01,3.8083e-02,-1.6371e-01,-1.7424e-01,3.1199e-02,-2.1059e-01,-1.1441e-01,-6.7037e-02,-1.1968e-01,-2.5810e-01,4.6792e-02,2.3449e-01,-2.0225e-02,4.9321e-02,2.8940e-01,-1.1028e-01,1.3063e-01,-6.8607e-03,3.3904e-02
2.0415e-02,2.3743e-01,3.5481e-02,-6.6881e-02,-1.7188e-01,1.9241e-02,6.2038e-02,-2.4724e-01,-2.8146e-01,-8.4072e-02,1.9593e-01,7.3631e-02,5.8500e-03,-1.1712e-01,1.5565e-01,-1.3979e-01,-9.0915e-02,8.7821e-02,3.1878e-02,3.9926e-03,-4.7744e-02,1.9780e-01,4.9076e-02,1.1462e-01,1.4387e-01,1.8867e-01,-6.6523e-02,-3.0433e-02,-4.5229e-02,1.3098e-01,2.8782e-01,1.5124e-01,-1.9964e-02,-7.7380e-02,-7.3493e-02,-3.6558e-02,-1.2941e-01,-1.8082e-01,-2.1808e-01,1.2992e-01,-5.8357e-02,-3.5160e-02,1.4210e-02
4.9946e-01,6.7296e-01,3.7042e-01,2.5432e-01,6.9477e-01,3.5636e-01,3.1639e-01,1.0709e-02,1.2616e-01,-2.0240e-01,-5.2032e-01,-1.6580e-01,5.8022e-02,-6.0523e-01,2.1886e-01,1.0355e-01,7.2181e-02,4.4806e-01,-4.3667e-02,-2.4040e-01,-1.3852e-01,-1.7570e-01,-2.8460e-01,-2.5595e-01,-2.3292e-01,-6.1078e-01,-1.8751e-01,-2.1052e-01,-1.9909e-02,-1.9251e-01,-3.9189e-01,-1.3987e-01,3.5412e-01,-3.5073e-01,1.5177e-01,-2.4583e-01,4.0263e-01,-2.2943e-01,2.9810e-01,-6.7952e-02,-2.6211e-02,2.2082e-02,-1.0462e-01
-1.3310e-01,3.5884e-03,-1.8754e-01,1.1213e-01,-6.4921e-02,-4.9416e-02,1.1616e-01,8.1005e-02,1.6162e-01,-1.1493e-02,1.1900e-01,-3.6749e-02,1.0628e-02,4.2225e-01,-4.0845e-02,-2.6193e-01,-6.6489e-03,-5.9419e-02,4.5454e-02,-7.1300e-02,1.1884e-01,-1.2046e-01,5.0674e-03,-5.5844e-02,-1.4585e-01,1.6912e-01,-1.0659e-01,-9.7896e-02,-4.4296e-02,7.3710e-02,4.0010e-02,-3.5116e-02,6.9513e-02,-3.4195e-02,-8.2063e-03,1.6971e-01,4.3625e-02,-3.9333e-03,3.3990e-02,-2.1984e-01,-1.0286e-01,9.5902e-02,1.8141e-01
-1.2595e-01,-3.5563e-01,-9.6553e-03,-9.4413e-02,-2.0303e-01,-8.1146e-02,5.0296e-02,3.3987e-02,2.3041e-01,-1.5135e-01,-8.1495e-02,5.0271e-01,1.3520e-01,1.8080e-01,-6.2359e-02,-7.2952e-02,-9.5490e-02,2.3816e-02,1.5155e-01,-3.2424e-03,6.6145e-02,4.1095e-02,-3.6158e-04,-6.4640e-02,6.6169e-02,-2.2961e-01,6.3262e-02,1.1191e-01,1.2859e-01,-3.0002e-03,3.0860e-01,-6.6589e-02,3.9070e-03,2.8030e-01,2.1178e-01,-2.1114e-01,-1.7913e-01,-1.1443e-01,-1.8298e-01,-2.8485e-01,-1.4057e-02,-1.3117e-02,1.0643e-01
4.3755e-02,9.3594e-03,3.0353e-02,1.0716e-02,-2.2873e-02,2.9357e-02,4.1882e-02,2.2553e-02,-4.5353e-02,4.6363e-02,-4.9547e-02,2.8763e-02,3.1777e-02,8.2777e-03,-2.7892e-02,-3.4992e-02,2.2840e-02,3.8118e-02,-2.2853e-02,-6.9096e-03,1.2901e-02,2.8207e-02,4.6378e-02,3.4348e-02,1.6483e-02,-3.3749e-02,2.9834e-03,-1.4176e-02,-1.3391e-02,1.2440e-02,1.2216e-02,4.0155e-02,4.7413e-02,3.6585e-02,2.8659e-02,2.5564e-02,-2.4855e-02,1.4599e-02,4.5823e-03,-2.1520e-02,1.4594e-03,-3.9764e-02,2.8842e-02
9.8299e-03,3.4734e-02,-3.3033e-02,-1.5787e-02,-3.2038e-02,4.5962e-02,1.3664e-02,-1.3839e-02,2.8982e-02,-2.1070e-02,4.3671e-02,4.6072e-02,4.1892e-02,4.4795e-02,-2.9272e-02,-2.8214e-02,3.6502e-02,-3.8998e-02,-4.0922e-02,-4.4771e-02,-3.1022e-02,1.6576e-02,2.3335e-02,-1.8917e-02,-2.6312e-02,1.9774e-02,2.9374e-02,1.7751e-02,-4.7082e-02,9.7852e-03,4.4752e-03,-2.2516e-02,4.2249e-02,3.9417e-02,-4.1607e-02,-5.7459e-03,1.2926e-02,-3.6312e-02,1.1217e-02,-3.4223e-02,-2.6870e-02,1.8643e-02,-4.3889e-02
-2.0828e-01,-2.0942e-01,6.7474e-02,1.0975e-01,-3.7197e-01,-3.2371e-02,1.5347e-01,-9.0605e-02,-8.9680e-02,-7.9310e-02,-9.0819e-02,-9.6580e-03,3.1421e-01,3.4915e-02,4.1455e-01,-9.4604e-02,-1.9103e-01,2.7403e-01,-1.1380e-01,-1.8176e-01,-2.7811e-02,-1.7712e-03,1.6105e-01,-8.5893e-02,-1.5413e-01,6.2872e-01,-1.8713e-01,-1.9224e-01,-1.9942e-01,-3.1022e-02,6.0685e-02,-2.2673e-02,4.0194e-02,-1.4485e-01,2.4226e-01,4.6121e-02,4.4702e-01,-2.3043e-01,3.3145e-01,-2.5664e-01,-2.4485e-01,-4.3167e-02,-3.8733e-02
-3.4889e-01,-3.6017e-01,-4.1002e-01,-1.8438e-01,-1.4981e-01,5.1485e-04,-1.9663e-01,-3.5921e-01,-3.0396e-01,2.7768e-02,1.1346e-01,3.1817e-01,-2.4074e-01,-3.2086e-01,-1.6926e-01,-1.1185e-01,-1.7320e-01,-3.6425e-01,1.3136e-01,3.9856e-01,3.8090e-01,2.8867e-01,9.7363e-02,4.7630e-01,2.7210e-01,3.6818e-01,3.0045e-01,3.6332e-01,2.6550e-01,2.4545e-01,1.7385e-01,2.6761e-01,-1.6630e-01,-2.0878e-02,-1.2684e-01,1.5851e-02,1.8886e-02,-1.0300e-01,-2.7126e-01,-3.8492e-02,-1.7849e-01,-6.0080e-02,-7.7336e-02
-1.4133e-01,1.2003e-01,-5.4738e-02,-8.4770e-02,-2.0879e-02,-2.3914e-01,-1.0328e-01,1.0070e-01,-5.4304e-03,1.2708e-02,-4.9901e-02,1.5179e-01,2.6402e-02,3.0594e-02,1.0856e-01,-4.8648e-02,2.7034e-02,3.2428e-02,8.7273e-02,-5.8688e-02,-1.5958e-02,1.9209e-02,-4.0806e-02,4.9769e-02,-6.3389e-02,4.4171e-02,-4.8488e-02,4.3164e-02,-1.3892e-02,4.7493e-02,1.1543e-01,5.1421e-02,-8.1948e-04,1.9242e-01,3.6973e-02,-1.2439e-01,-2.0118e-01,2.7995e-02,1.4592e-01,-6.8418e-03,9.0083e-03,-6.8955e-02,-1.2620e-01
-1.5053e-01,-3.1908e-01,-1.6393e-01,-8.3543e-02,-1.5456e-01,-1.9237e-01,-1.4482e-01,-5.3089e-02,1.2892e-01,1.8228e-01,-2.1254e-01,-6.9490e-02,1.0469e-01,1.9180e-01,9.4612e-02,1.7473e-02,-1.6383e-02,-1.0419e-01,9.5381e-02,-1.2866e-02,1.6387e-02,-8.3909e-02,1.7010e-01,5.6430e-02,-5.3600e-02,-1.0551e-02,1.7585e-01,4.3935e-02,1.0704e-01,8.4742e-02,1.5158e-01,6.0108e-03,-5.0627e-02,-4.5513e-02,1.1822e-01,-2.6824e-02,1.3353e-01,-1.1287e-01,-3.2197e-02,1.2097e-01,-1.0846e-01,8.9545e-02,-7.9277e-02
-2.3089e-02,-2.2967e-01,-5.1094e-02,2.8030e-01,-2.4410e-01,-1.9065e-01,1.0241e-01,3.7232e-02,-5.1448e-02,2.9653e-01,-1.1361e-01,2.2297e-01,2.2340e-01,2.7931e-01,-8.4955e-02,5.0071e-02,2.1652e-01,-2.3375e-01,-3.6955e-01,6.6483e-02,-6.2714e-03,-1.4472e-01,-2.0272e-02,1.3148e-01,-1.4107e-01,-1.2965e-01,-2.6205e-01,-3.1727e-02,2.6591e-01,7.6119e-02,1.8829e-01,-2.5394e-01,1.2686e-01,-3.3391e-03,3.5442e-01,1.4686e-01,1.5550e-01,-1.2659e-01,-2.4023e-01,-2.4874e-01,-1.3943e-01,2.4762e-01,1.5839e-01
9.4316e-02,-2.4114e-01,-7.1406e-02,-1.7828e-01,1.4751e-01,-1.3278e-02,-1.0892e-01,9.3268e-02,-2.1938e-01,1.3476e-01,1.7627e-01,-2.2335e-01,-2.0651e-01,8.9941e-02,-8.9183e-03,4.3131e-02,-2.8346e-02,-2.7213e-02,-3.2226e-02,5.2844e-02,-1.4014e-02,-1.0349e-02,2.1194e-01,9.8432e-02,7.7973e-02,-4.7535e-02,6.3683e-02,1.1147e-03,6.0751e-02,2.1465e-01,-8.7989e-02,2.8576e-02,-1.4660e-01,-1.5464e-01,-6.5870e-02,2.7873e-01,1.2032e-01,1.5403e-01,-2.4641e-01,1.9577e-01,-1.7927e-01,4.0584e-02,-7.6433e-02
2.1285e-02,2.8224e-01,1.7324e-02,-1.0412e-01,-7.9501e-02,-8.8787e-03,1.0945e-02,9.8792e-02,-1.6633e-01,-6.3002e-02,1.8224e-01,1.3541e-01,2.3766e-01,-1.3649e-01,-1.4033e-01,-2.8109e-01,3.8255e-01,-1.0136e-01,3.3827e-02,-4.8799e-02,9.4055e-03,1.1006e-01,-1.6742e-01,9.0764e-02,-1.9842e-02,-2.2549e-01,-5.3571e-02,6.2970e-02,-6.1476e-02,-6.7744e-02,-1.1395e-01,6.0263e-02,-1.9936e-02,-1.9151e-01,-2.1258e-01,1.0424e-01,-2.3740e-01,1.0092e-01,-1.8688e-01,4.3974e-02,2.5879e-01,1.0230e-01,2.3266e-01
-6.6534e-02,-1.1702e-01,1.6715e-01,1.5637e-01,3.8286e-03,9.6569e-02,2.0646e-02,5.5832e-04,4.5428e-02,-9.8397e-02,4.6122e-02,-8.8270e-02,-3.0853e-01,-1.4785e-01,5.3582e-02,-9.0722e-02,1.6680e-02,-7.7234e-02,-7.7111e-03,8.5966e-02,1.5776e-01,-3.5206e-02,-3.5410e-03,1.7980e-01,-3.3712e-02,4.6602e-02,-2.5097e-02,7.9360e-02,2.8863e-03,4.8737e-02,3.0396e-02,1.5446e-02,5.4781e-02,4.0102e-02,5.1768e-03,-6.4770e-02,1.0623e-02,1.6598e-02,-4.0180e-02,-8.3587e-02,1.1548e-02,3.2622e-02,-8.7333e-03
-5.6778e-02,-2.8434e-01,2.2713e-01,3.2175e-01,-1.7006e-01,1.1054e-01,9.1396e-03,-1.7796e-01,-2.8531e-01,3.9142e-01,3.1796e-01,5.4721e-02,-7.9767e-02,1.6950e-01,-2.0611e-01,1.5657e-02,8.8832e-02,-3.3874e-01,-2.2052e-01,2.3419e-01,-6.7701e-02,1.2374e-01,-1.0941e-01,1.2057e-01,5.8163e-02,2.7282e-02,-1.9082e-01,2.2208e-03,1.0088e-01,3.6327e-02,3.5953e-02,-4.8570e-02,-1.1917e-01,1.5747e-01,-1.5293e-01,2.5667e-02,-1.6779e-01,-1.2038e-01,-2.8698e-01,6.2795e-02,8.6630e-02,9.0869e-02,1.0071e-01
-1.4400e-01,-2.1428e-01,2.7668e-01,2.9087e-02,-2.0955e-01,1.2502e-01,-2.3580e-01,2.9441e-01,8.5212e-02,1.0324e-01,4.7167e-01,2.3103e-01,-5.4342e-02,2.0610e-01,2.3252e-01,1.8122e-01,9.3603e-02,-1.9055e-01,1.4764e-01,-8.9064e-02,-1.0750e-01,-1.6905e-01,-8.6564e-02,-4.6379e-02,-1.4925e-01,-6.6893e-03,-1.7937e-01,-8.0796e-02,-2.4071e-01,-1.8358e-02,-2.9077e-02,-1.7468e-03,-1.6351e-01,5.2639e-01,1.6079e-02,6.0056e-02,-2.3545e-01,2.7200e-01,-1.8901e-01,1.6396e-01,7.8429e-03,-2.5655e-01,-5.5179e-02
-2.5378e-02,3.0438e-02,-4.7928e-02,-2.1497e-03,9.3880e-03,3.2092e-02,-2.7678e-02,3.0001e-02,1.1351e-02,-2.9580e-02,-2.1606e-02,-1.7208e-02,-5.3347e-03,2.4489e-02,-2.1738e-03,-3.3366e-02,1.4756e-02,-2.1615e-02,3.9645e-02,2.2547e-02,4.1561e-02,-1.4220e-02,1.5011e-02,-5.0910e-03,4.9031e-02,3.2237e-02,1.8159e-02,7.5024e-05,2.5797e-02,1.4218e-02,-2.9897e-02,4.3350e-03,2.6777e-02,-3.9096e-02,4.8805e-02,-2.5468e-02,-2.9895e-02,3.2751e-02,1.2250e-02,-2.6058e-02,-1.7122e-02,-1.6199e-03,7.3280e-03
-1.6978e-01,8.3676e-02,1.9840e-01,1.5342e-02,-2.8137e-01,-1.3814e-02,-1.9435e-01,-1.1056e-02,-2.1544e-01,6.4668e-03,1.9306e-01,2.4972e-01,-1.7860e-01,-2.2548e-01,2.1040e-02,-1.7074e-01,-6.1452e-02,-1.3614e-01,9.1150e-02,7.3396e-02,1.6788e-01,2.3321e-01,-2.2920e-02,1.3483e-02,1.8034e-01,3.0244e-01,6.7574e-02,2.0784e-01,-1.5868e-02,-4.8538e-02,9.7619e-02,7.1536e-02,-1.2270e-01,7.5901e-02,-9.5677e-02,-1.7947e-01,-1.5973e-01,1.1449e-01,-1.1519e-01,-3.2948e-02,-1.9300e-01,3.6483e-04,4.4219e-02
-2.1591e-01,-3.3623e-01,-2.3577e-01,-4.8813e-02,1.9722e-01,-4.1243e-02,-2.8527e-01,-2.2224e-01,1.8258e-01,7.3936e-02,-2.3294e-01,-6.9422e-02,1.9514e-02,6.4179e-02,3.9482e-01,3.5865e-01,-3.3503e-01,3.1733e-01,1.3665e-01,-1.7870e-01,1.3784e-01,-2.8893e-01,2.1817e-01,1.8017e-02,1.6165e-02,2.2374e-01,1.9896e-01,-9.4564e-02,4.4154e-02,1.4822e-01,-8.8201e-02,4.9323e-02,-1.4496e-01,1.3184e-01,1.2299e-02,-1.2077e-01,4.3677e-01,-1.9435e-01,4.7404e-01,1.1786e-01,-1.3922e-01,-2.4342e-01,-2.7963e-01
5.3021e-02,1.1758e-01,1.0640e-01,-1.1952e-01,2.6303e-01,-2.6753e-01,3.8784e-02,2.6565e-03,2.4646e-01,-2.9961e-01,-3.2626e-01,-1.4818e-01,1.0713e-01,2.4550e-01,8.3170e-02,7.6501e-02,-3.3325e-01,3.6696e-01,8.0644e-02,-5.3065e-02,-1.3223e-01,2.3496e-02,1.1911e-01,-1.5547e-01,-3.1837e-02,-7.3011e-02,7.3983e-02,-1.1009e-01,1.0608e-02,-2.2244e-02,-1.6116e-02,2.3432e-01,1.2139e-01,2.0399e-02,-1.1418e-01,-2.3624e-01,8.8094e-02,-1.4923e-01,1.9548e-01,2.0533e-01,1.2502e-01,1.7590e-03,-9.3361e-02
4.6573e-02,-4.2669e-02,-1.1865e-02,-2.2906e-01,8.0248e-02,1.0637e-02,1.5988e-02,2.0962e-01,-1.3954e-02,1.9385e-01,4.5445e-01,-1.2105e-01,2.9110e-01,-3.0076e-02,7.6090e-02,1.8146e-02,8.2413e-02,-3.3409e-02,-1.2765e-01,-1.0325e-01,-1.1299e-01,-1.5443e-02,-6.5029e-02,-1.1598e-01,-2.3499e-01,-7.3294e-02,-1.6796e-01,-1.3649e-01,-1.7793e-01,-1.0196e-01,-1.4059e-01,-2.5154e-01,-6.5437e-03,1.4485e-01,2.1518e-03,2.3121e-01,1.5286e-01,6.4298e-03,-9.4882e-03,4.6962e-02,1.2181e-01,-2.6226e-02,8.8752e-02
4.1474e-02,-4.4806e-01,-6.5226e-02,-2.6480e-01,-2.1489e-03,-2.1449e-01,-3.2158e-01,-2.0263e-01,-1.9948e-01,2.0287e-01,-1.6191e-01,-1.8043e-01,-2.5051e-01,2.5653e-01,-1.5300e-01,2.0445e-01,-4.9944e-02,-1.9375e-01,3.8422e-02,7.3925e-02,1.3355e-01,3.8514e-02,3.6968e-01,1.0516e-01,1.8531e-01,-2.9160e-01,3.6784e-01,1.2633e-01,2.8728e-01,1.4870e-01,2.5760e-02,-2.0471e-01,-1.4409e-03,2.7475e-03,3.6686e-01,1.2128e-02,1.1887e-01,9.2833e-02,2.9833e-01,3.9028e-02,-4.1151e-02,9.3808e-02,-1.8466e-01
2.1826e-01,3.1932e-01,-2.6211e-01,2.5086e-01,2.3899e-01,2.4017e-01,1.1404e-01,2.5076e-01,3.8712e-01,1.0032e-01,-3.5847e-02,-1.6830e-01,-1.2359e-01,2.0030e-01,-2.9618e-01,1.4803e-01,-1.2346e-01,1.2584e-01,-3.1117e-01,-4.7265e-02,3.9354e-02,-1.1190e-01,-2.0477e-01,-1.9553e-01,-6.9271e-02,-1.7168e-01,-1.0431e-01,-1.2681e-01,1.1278e-01,-1.1508e-02,4.3535e-02,8.2566e-03,5.2545e-02,1.4932e-01,2.8935e-03,-3.9976e-02,7.4967e-02,-1.6767e-01,-1.0214e-01,1.1250e-02,-7.4957e-02,-1.1524e-01,-7.3620e-02
3.0810e-01,2.0470e-01,-2.2986e-01,-6.0722e-02,3.5063e-01,1.6900e-03,9.8039e-02,4.5732e-01,4.3439e-01,-5.1482e-02,1.2753e-01,-1.1627e-01,2.3060e-01,2.0880e-01,4.4592e-02,1.3111e-01,6.4884e-02,2.0254e-01,-1.4936e-01,-1.7330e-01,-2.8032e-01,-1.6084e-01,-2.2532e-01,-2.7609e-01,-2.8000e-01,-4.9514e-01,-1.0297e-01,-1.8222e-01,-1.7163e-01,-2.1173e-01,-1.9111e-01,-2.0999e-01,1.0400e-01,2.7454e-02,1.9234e-01,1.8732e-01,6.0206e-02,1.4476e-01,-1.2955e-01,1.6983e-01,2.0388e-02,-6.5025e-02,-2.1812e-02
-3.7441e-02,4.8911e-02,1.5676e-01,1.3545e-01,-6.5523e-02,3.4835e-01,2.3559e-01,5.0162e-02,1.4745e-02,-2.1083e-01,8.3101e-02,4.2401e-02,-2.6553e-01,-3.0326e-01,-2.1717e-01,-1.8130e-01,9.7937e-02,-8.1318e-02,9.4194e-02,-9.2620e-03,1.5478e-01,4.6786e-02,-2.3978e-01,6.3006e-02,7.1157e-02,1.3341e-01,-1.6406e-01,1.8721e-02,8.2684e-02,-3.9244e-02,-1.5968e-01,1.7670e-01,8.1958e-02,-4.4432e-01,-9.1977e-02,2.8015e-01,1.1752e-01,-2.7168e-01,4.8410e-01,-2.9521e-01,-9.5110e-02,1.2744e-01,1.7664e-01
7.8450e-02,1.4868e-01,-3.5245e-02,1.6011e-01,1.2474e-02,-4.7355e-02,4.7755e-02,-1.0900e-01,-5.2472e-02,1.0052e-01,-2.7085e-01,-1.2044e-01,-2.1536e-01,4.9185e-02,2.9223e-03,-1.4612e-02,2.2211e-01,-9.8548e-02,9.9740e-02,-1.4400e-01,1.1271e-01,-1.0804e-01,6.3835e-02,-5.3597e-02,-2.2925e-02,9.5207e-02,-2.5495e-01,-1.3839e-02,1.8330e-02,5.4019e-02,-1.5653e-01,-7.7177e-03,5.3454e-02,-9.4098e-02,1.8596e-01,5.9874e-02,-3.6605e-02,1.3663e-01,8.4527e-02,-2.2904e-03,9.8332e-02,-1.4227e-02,-7.7510e-02
-1.3513e-02,1.1736e-03,-1.7053e-01,-3.7498e-02,9.4670e-02,-7.8982e-02,6.6142e-02,1.3447e-01,1.2772e-01,4.4410e-02,-1.2237e-01,6.1611e-02,-5.7841e-02,2.0594e-02,-2.7524e-02,-4.4206e-02,1.0393e-01,6.7696e-03,-3.8276e-02,-1.9567e-02,-4.9678e-02,7.4155e-03,4.5399e-02,3.4680e-02,3.1817e-02,5.7694e-02,-3.6139e-02,-4.2246e-02,5.3009e-02,1.1821e-01,-6.4374e-02,2.3154e-02,8.7205e-02,-1.2867e-01,3.8984e-02,-2.8596e-02,5.1355e-02,-1.0400e-01,-4.0419e-02,-1.0306e-01,1.3510e-01,3.1053e-02,-2.4768e-02
1.7134e-03,-3.5233e-02,-3.7729e-02,2.5229e-03,4.3449e-03,4.3117e-02,-8.1417e-03,-1.7577e-02,4.8306e-02,6.7042e-04,-1.8537e-02,2.6088e-02,6.8020e-03,2.4379e-02,3.6997e-02,-3.6574e-02,-1.1717e-02,-1.3969e-02,1.9543e-02,-1.5205e-03,-4.0878e-02,7.7532e-03,6.8243e-03,4.6275e-02,2.6978e-02,-1.8186e-02,-2.7767e-02,1.3148e-02,1.9820e-02,2.7229e-02,-1.9082e-02,-9.5581e-03,-1.5097e-02,-3.6620e-03,8.0566e-03,3.3165e-03,1.4537e-02,2.0949e-02,-2.5148e-02,4.8970e-02,5.8013e-03,-4.4912e-02,-2.1515e-02
6.2962e-02,1.8373e-01,-1.9641e-01,-3.2389e-01,4.7843e-01,1.5068e-03,7.7483e-02,1.3416e-01,2.3111e-01,-1.0421e-01,2.1538e-02,-9.9313e-02,2.8170e-01,-1.1469e-02,1.0784e-01,-1.8158e-02,1.1295e-01,6.9007e-02,1.8505e-01,-1.0882e-01,-1.4061e-01,-2.2472e-01,-2.0142e-01,-1.7043e-01,-1.1607e-01,-3.4636e-01,-3.6042e-02,2.3583e-02,-2.2472e-01,-1.1059e-01,-3.4186e-01,6.1310e-02,-5.1303e-02,7.7510e-02,-1.2834e-01,7.5516e-02,-1.5043e-01,2.1506e-01,1.1889e-01,1.7312e-01,3.1917e-01,-9.3186e-02,8.7337e-02
-4.0675e-01,-3.5295e-01,2.2459e-01,1.5270e-01,-1.5092e-01,2.7174e-01,-1.2683e-01,-2.5175e-02,1.0090e-01,-2.2143e-02,4.4314e-01,-3.8385e-02,-2.5152e-01,-1.9907e-02,8.5195e-02,1.9944e-01,-2.3459e-01,-1.0696e-02,-9.4394e-02,-9.2591e-02,1.1580e-01,1.5034e-02,7.3159e-02,1.5100e-01,7.4625e-02,4.6896e-01,5.5501e-02,-1.8010e-01,-1.4537e-01,-1.3408e-02,-4.1838e-02,8.2860e-02,-2.1679e-01,-9.7085e-02,5.6514e-02,1.4616e-01,4.0864e-01,-9.9135e-02,3.7876e-01,-2.0607e-01,-3.8372e-01,-2.2850e-01,-1.1867e-02
1.0266e-01,-4.2893e-02,1.4169e-01,4.1389e-01,-3.6939e-01,9.5042e-02,-9.9376e-02,-2.4642e-01,4.1862e-02,2.3508e-01,2.1807e-03,-1.3550e-01,-1.5506e-01,2.9595e-01,-5.6914e-02,2.0555e-01,-1.3744e-02,-1.7899e-01,-5.3498e-01,1.0832e-01,4.9487e-02,-8.8596e-02,-2.5604e-02,7.8156e-02,-5.1826e-02,-3.3133e-02,-2.7869e-01,-2.1935e-01,2.3929e-01,6.9720e-02,3.8033e-02,-2.0691e-01,-2.9594e-02,2.6043e-01,2.0967e-01,4.4936e-01,2.8870e-02,-4.4039e-02,-8.5290e-02,-1.7945e-01,-1.2345e-01,1.1294e-03,9.2024e-02
-3.8783e-02,3.2898e-02,-4.9498e-03,1.7923e-02,-2.5400e-02,-4.6661e-02,2.3302e-02,2.2662e-02,1.3597e-02,6.8651e-02,-5.0512e-02,2.2456e-02,-1.0456e-02,7.7368e-02,-3.0826e-02,1.2107e-02,-5.0996e-02,-4.7770e-03,2.1233e-02,-3.8713e-02,1.4072e-02,-3.1588e-02,-1.2724e-02,-2.0648e-03,3.7434e-02,3.1882e-02,-2.6285e-02,2.7074e-02,-1.1837e-02,-2.0386e-02,-5.1698e-02,-3.6224e-03,3.6032e-02,9.3997e-03,1.6576e-02,-3.2813e-02,2.7762e-02,-2.9930e-02,2.6787e-02,2.3037e-02,1.2745e-02,2.3176e-02,-1.0443e-02
-1.0009e-01,2.3587e-01,2.8453e-01,-9.1535e-02,3.3280e-01,3.2357e-02,-2.4456e-01,-4.3257e-02,-6.8587e-02,1.6121e-02,1.4106e-01,2.0346e-01,1.8256e-01,-3.7827e-01,2.0643e-01,1.7322e-02,-5.2487e-02,1.2180e-01,-4.7793e-03,1.9139e-01,-2.0748e-01,2.0239e-01,-1.6923e-02,8.6165e-02,2.3610e-03,-1.5817e-01,-1.2973e-01,-1.3619e-02,9.7360e-02,8.8137e-02,2.1488e-01,7.7623e-02,-2.9572e-01,4.7232e-01,-1.7573e-01,-1.3305e-01,-4.0663e-01,2.1635e-01,-5.0732e-01,3.5567e-01,-3.2760e-02,-3.3974e-01,-1.9388e-01
2.8675e-01,3.9415e-01,3.2274e-01,5.3458e-01,1.4511e-01,4.3485e-01,3.1135e-01,8.0195e-02,1.4689e-01,-3.0540e-01,-3.5199e-01,-2.9830e-01,-5.8326e-01,9.7218e-02,-2.5073e-01,-1.0541e-01,-1.2189e-01,1.4437e-01,-2.9221e-02,-4.7179e-02,9.2829e-02,-1.9771e-01,3.5780e-02,-1.1505e-01,-4.1480e-02,-1.5902e-01,-2.3448e-01,-1.9000e-01,7.0621e-02,4.2683e-02,-6.6286e-02,6.2718e-02,8.5862e-02,-3.3073e-01,1.3743e-01,2.8421e-02,1.7200e-01,-1.5440e-01,2.0659e-01,-1.9212e-01,-2.0457e-01,7.8574e-02,1.7608e-02
-1.8751e-01,4.1488e-02,3.4465e-02,1.2119e-01,1.7403e-01,1.2318e-01,1.6486e-02,1.0336e-01,6.5235e-02,3.9911e-02,1.5210e-01,-1.9414e-01,-1.0214e-02,-3.2616e-01,-7.0129e-02,-7.9881e-02,-5.3861e-02,1.4227e-02,-1.2042e-02,-6.5277e-02,1.3574e-01,1.5453e-01,3.0867e-02,1.4953e-01,-2.0217e-01,-5.0643e-02,1.0631e-02,6.4147e-02,-7.8882e-02,-5.2874e-03,-1.2234e-01,6.5379e-02,1.4539e-01,1.6147e-02,7.0688e-02,-1.0563e-01,-2.0073e-02,-6.5841e-02,1.4383e-01,4.3560e-02,3.0179e-02,-3.8492e-02,1.4846e-01
3.9279e-02,-8.7864e-02,1.5721e-01,1.6135e-01,-1.2922e-01,-2.6214e-02,-6.8252e-02,-2.1411e-01,-3.1979e-01,1.0250e-01,1.3556e-01,-1.1648e-01,-3.3499e-02,3.8140e-03,1.3622e-01,-7.3944e-02,-4.7285e-02,-1.0387e-01,-1.8120e-01,2.4351e-02,6.7240e-02,5.9324e-03,-1.9298e-02,-9.1903e-03,-5.0308e-02,1.7386e-01,-1.6504e-01,-2.4678e-02,-1.8554e-02,1.6167e-01,-2.3737e-01,-7.3408e-02,-3.4365e-02,1.1451e-01,1.2606e-01,3.7544e-01,-2.2173e-02,9.3712e-02,6.0911e-02,9.5360e-02,1.7307e-02,4.9149e-02,-1.9528e-02
-1.4426e-01,1.2444e-01,1.6535e-01,-3.1316e-01,-1.1979e-01,-1.6795e-01,-4.2352e-01,-1.0331e-01,-2.1494e-01,9.8214e-02,7.4530e-02,1.1854e-01,1.9394e-01,-2.1745e-01,2.1038e-01,1.4001e-01,-1.6129e-02,-7.5116e-02,3.1907e-01,2.1766e-01,-1.6497e-01,3.0422e-01,1.3790e-01,-7.0712e-02,1.5546e-01,1.4903e-02,2.5449e-01,2.4456e-01,-2.3455e-01,-5.1030e-02,1.3175e-01,1.7828e-01,-2.2455e-01,4.0551e-01,-1.1127e-01,-2.9349e-01,-3.7318e-01,3.4049e-01,-2.7649e-01,4.2942e-01,3.9428e-02,-2.5585e-01,-2.6646e-01
-6.5688e-02,-4.2924e-02,-1.8183e-01,-2.8415e-01,-2.4190e-01,-1.6422e-01,-4.8884e-02,4.3377e-03,-2.1888e-01,-2.2590e-02,1.2693e-02,1.5535e-01,2.5539e-01,4.8195e-02,1.8891e-03,-6.2759e-02,-4.1941e-02,-1.1423e-01,1.7890e-01,-1.5072e-02,1.9856e-02,9.3403e-02,4.2427e-02,3.0926e-02,1.2066e-01,1.7598e-01,2.1858e-01,1.3525e-01,-6.0719e-02,3.5218e-02,8.6786e-02,3.2991e-02,-2.5856e-02,1.1099e-01,-6.2721e-02,-1.1822e-01,-3.8702e-02,3.7332e-02,-8.3026e-02,-2.4213e-03,2.5636e-02,1.0975e-03,-2.2785e-02
-2.6933e-01,-1.7436e-01,-4.2729e-01,-2.7196e-01,-3.7089e-01,-1.4319e-01,-1.4357e-01,-5.0918e-01,-4.8972e-01,1.0205e-01,-2.3950e-02,-7.5710e-02,1.6497e-01,3.4734e-01,1.2869e-01,-1.1377e-01,-1.4949e-01,-6.1513e-03,3.1748e-02,7.0097e-02,1.6574e-01,6.4264e-02,3.3728e-01,9.7810e-02,1.5377e-01,4.9783e-01,2.3145e-01,8.9220e-02,1.0833e-01,6.3579e-02,2.5050e-01,8.7768e-03,-6.2050e-02,7.1909e-02,3.6718e-01,1.2335e-01,4.3398e-02,-2.8208e-02,3.8781e-01,-1.0577e-02,-2.0655e-01,-3.6883e-02,-1.5463e-01
-1.1063e-02,-3.4410e-02,1.9319e-02,-3.4239e-02,-3.9497e-02,3.9682e-02,-1.6725e-02,-9.3065e-03,-5.9770e-02,1.8528e-02,-2.8781e-02,-3.1581e-02,7.3298e-03,-2.5961e-02,-3.6994e-02,1.5971e-02,4.7097e-02,2.2394e-03,3.9317e-02,-1.8127e-02,4.3090e-02,6.1864e-02,3.6306e-02,3.9214e-02,1.9857e-02,-2.2320e-02,6.4645e-03,4.2415e-02,1.9486e-02,4.9611e-03,4.6232e-02,-9.2530e-03,-4.2027e-02,-2.1224e-02,-1.4719e-02,-2.2735e-02,2.2304e-02,-4.4118e-02,4.2899e-02,1.3166e-02,4.2656e-02,-2.7137e-03,2.2692e-02
-8.2388e-02,-4.3785e-03,-1.3637e-01,-1.6211e-01,-1.4144e-01,1.3427e-02,4.4025e-02,2.7705e-01,-9.3803e-02,9.0641e-02,2.6099e-01,2.8288e-01,9.0869e-02,-1.4652e-01,-4.8520e-02,-6.4826e-02,4.2277e-01,-2.0412e-01,2.2679e-01,-7.3027e-02,3.8527e-02,-1.5510e-02,-2.9532e-01,1.3579e-01,4.2286e-02,-3.0603e-01,-2.8446e-02,1.6350e-01,-1.6245e-01,-2.2773e-01,5.6604e-02,-9.4409e-02,-8.0564e-02,-8.0207e-02,4.0065e-02,-2.8273e-01,-2.6431e-01,9.7747e-02,6.5306e-02,-1.1843e-02,2.0909e-01,1.9849e-02,1.7639e-01
-2.8462e-03,-4.2110e-02,-4.0936e-02,-4.5600e-02,2.9559e-03,1.1734e-02,3.5915e-02,3.0129e-02,-2.7794e-02,1.6079e-02,-3.6369e-02,3.6873e-02,-4.6663e-02,3.4148e-02,-2.8044e-02,7.7693e-03,2.4662e-02,7.2641e-03,-2.0226e-02,4.8104e-02,1.2840e-02,-1.4546e-03,-5.5562e-03,-3.0953e-02,2.2381e-02,1.9897e-02,1.7084e-02,-1.9634e-02,2.6842e-02,-4.4871e-02,3.6071e-02,-1.2193e-02,-2.8955e-02,2.2656e-02,-2.2815e-02,-2.6613e-02,-2.7253e-02,-4.1666e-02,-3.6624e-02,4.0340e-02,6.2948e-03,3.1000e-02,-2.4816e-02
-7.6209e-02,-2.8132e-02,2.9348e-01,-1.2189e-01,-6.2217e-02,-1.4096e-01,2.3385e-04,-1.9638e-01,-2.1103e-01,-1.0520e-01,-1.0232e-01,2.1451e-01,-1.0931e-01,3.9795e-03,1.0917e-01,3.4926e-02,-1.2363e-02,8.0072e-02,4.1440e-01,5.7344e-02,-1.2324e-01,-2.5433e-02,2.3978e-01,-1.8464e-02,1.9927e-01,-4.5640e-02,1.1616e-01,1.7736e-01,-5.6109e-02,9.6854e-03,-3.7297e-02,-6.9105e-02,1.5344e-02,1.1237e-01,3.5179e-02,-3.5253e-01,2.0326e-02,2.6298e-01,-3.1828e-01,4.0519e-03,-5.7531e-02,-5.4982e-02,-4.6713e-02
-4.9141e-02,1.1227e-01,-8.4831e-02,1.0725e-01,-1.8345e-02,-2.2997e-02,6.7023e-02,6.2811e-02,4.3517e-02,-7.9755e-02,-1.2166e-01,-9.3130e-02,-1.1775e-01,7.1982e-02,-1.5096e-01,6.8798e-03,5.0640e-02,-5.7124e-03,-3.4055e-02,-3.2970e-02,8.6268e-03,-6.2538e-02,9.4952e-02,9.4852e-02,-1.1618e-02,1.1411e-02,-4.8851e-02,-2.1090e-02,1.1895e-01,3.8913e-02,-2.2548e-02,1.6112e-02,4.3720e-02,-5.4470e-02,-2.5030e-03,2.4103e-01,1.5691e-02,5.2644e-02,2.7065e-02,-4.5222e-02,6.2755e-03,-2.7086e-02,-2.4685e-02
-2.7244e-02,3.5080e-02,-3.9414e-02,3.2838e-02,3.1490e-03,3.3886e-02,-4.5453e-02,-6.8171e-03,-4.0145e-03,-3.0136e-02,-1.6569e-03,3.0217e-02,-3.6127e-02,4.6280e-02,-3.0827e-02,1.2878e-02,-4.2595e-02,3.3552e-02,-1.4191e-02,2.9534e-02,-3.0116e-02,-4.9448e-02,4.5679e-02,2.3327e-02,-3.7566e-02,-3.5986e-02,1.1574e-02,2.4782e-02,-4.5911e-02,2.4760e-02,2.9612e-02,4.6600e-02,2.6280e-02,2.1738e-02,1.6687e-02,2.2656e-02,4.3018e-02,-3.8142e-02,1.9542e-02,-3.4093e-03,1.0654e-03,1.6413e-04,-1.7078e-02
4.3407e-01,5.9378e-01,9.0794e-02,-4.9398e-02,4.4408e-01,1.7798e-01,2.2002e-01,-2.1680e-01,2.1809e-01,-4.7752e-01,-6.9870e-01,-1.9899e-01,-1.4137e-01,-2.3572e-01,1.1222e-01,-3.2198e-02,-1.9188e-01,5.9492e-01,2.5764e-02,-4.6225e-02,-1.6561e-01,-5.8132e-03,1.6470e-01,-2.7813e-01,8.6005e-02,2.2662e-01,8.4167e-02,-5.4476e-02,-5.4206e-02,1.6825e-01,-1.8892e-01,1.6653e-01,5.8853e-02,-1.8300e-01,-2.2174e-01,-1.7185e-01,1.0655e-01,1.4094e-01,-2.3222e-01,-2.8608e-02,2.9592e-02,-2.3996e-01,-1.8935e-01
-1.4727e-01,-2.1672e-01,-8.6712e-02,-1.0917e-01,-2.1111e-01,-2.6637e-01,-5.7398e-02,-2.0389e-01,-9.3891e-02,9.9690e-02,-1.0503e-01,3.3455e-02,3.8479e-01,-1.2691e-01,2.0135e-01,-7.4542e-02,1.4120e-01,-1.6933e-01,-2.3655e-02,3.8887e-02,9.0577e-02,-5.5050e-02,1.0053e-01,2.3568e-01,-6.2841e-02,2.7510e-01,6.4272e-02,9.9680e-02,-3.8315e-02,4.9697e-02,-1.2485e-01,-4.6349e-03,2.3877e-01,-3.1875e-01,-1.1181e-01,-8.5007e-02,1.3237e-01,-2.0223e-02,-2.5571e-02,-1.5308e-01,1.1816e-01,3.0472e-01,9.2398e-02
1.1944e-02,4.8649e-02,-3.3852e-01,-1.9143e-01,3.9719e-01,3.6995e-03,6.1631e-02,3.3159e-01,1.6871e-01,-9.2991e-02,3.5642e-01,-5.0528e-02,4.4804e-01,-1.6494e-01,-1.6290e-01,-1.1730e-01,2.4118e-01,1.2932e-01,3.6788e-01,-1.1395e-02,-1.4558e-01,4.4896e-02,-2.5825e-01,-8.7126e-02,-1.9304e-01,-6.7360e-02,1.3120e-01,-1.0170e-01,-1.5775e-01,-2.1904e-01,-2.7759e-02,2.1456e-01,-1.1621e-01,-1.9319e-01,-4.3979e-01,-3.0604e-01,-1.0388e-01,-1.2892e-01,8.8172e-02,2.7978e-01,3.7626e-01,-1.5092e-01,-1.1620e-04
-2.4467e-02,-7.6553e-02,-1.5366e-01,3.0903e-02,-1.5193e-01,9.3412e-02,1.0325e-01,-8.7143e-02,1.9121e-01,-2.5949e-02,1.7867e-01,-2.2032e-02,1.7738e-01,2.2977e-01,3.0586e-02,1.2090e-01,-1.2138e-01,9.0639e-02,5.9756e-02,-7.1133e-02,-9.7335e-02,-2.8230e-02,-1.7907e-02,-1.1867e-01,-1.3022e-01,1.0033e-01,-5.3037e-02,-1.5173e-01,-1.3614e-01,2.0814e-02,1.4590e-01,-1.1382e-01,2.8139e-02,7.9882e-02,1.1448e-01,-1.4695e-01,5.6780e-02,-1.0574e-01,1.4138e-01,-5.7662e-02,-1.3181e-01,-6.6522e-02,1.0160e-01
-2.6274e-01,-2.1041e-01,1.9276e-01,-3.6190e-02,-1.8733e-01,-3.1563e-02,-1.8460e-01,9.9833e-02,-7.1201e-02,2.5501e-01,-4.4297e-02,1.4716e-03,-1.0894e-01,-9.5935e-02,-4.2598e-01,-1.0063e-01,1.8612e-01,-4.0399e-01,2.5704e-01,2.3814e-01,2.8883e-01,9.5469e-02,3.7414e-02,2.0000e-01,1.5410e-01,2.9238e-01,1.6396e-01,1.7439e-01,1.5637e-01,8.5230e-02,1.6843e-02,1.9227e-01,-1.0452e-01,-3.2101e-01,-3.7995e-01,-2.1918e-01,6.1917e-02,-1.3748e-01,2.1261e-01,-7.0440e-02,5.3716e-02,1.4421e-01,-6.9566e-02
1.3093e-02,-6.5666e-02,3.5028e-02,3.2138e-02,-2.1915e-02,-3.1440e-02,4.9702e-02,6.6809e-03,2.2099e-02,4.3436e-02,-1.4433e-02,7.5576e-02,5.5539e-02,-2.7514e-02,2.1529e-02,4.6258e-02,-2.0599e-02,-3.2656e-02,2.5794e-02,-4.3267e-03,-2.3192e-02,1.2784e-02,-2.2554e-02,-1.7699e-02,-3.8902e-02,3.0303e-02,5.1682e-02,2.4229e-02,-5.2801e-02,2.5509e-02,-1.9302e-02,-5.1976e-02,-6.5306e-02,-1.4821e-02,4.1603e-02,4.8910e-02,1.5005e-02,2.9802e-02,-3.6590e-02,2.0110e-02,-7.4910e-03,-2.5635e-02,-4.4924e-02
-6.9495e-02,-1.3142e-01,-4.2099e-01,-1.2463e-01,1.2980e-01,-3.1111e-01,-2.1464e-01,-4.2252e-01,-3.5057e-02,-1.2901e-01,-2.7997e-01,-1.6234e-01,1.1447e-01,4.0261e-01,2.5195e-01,2.8095e-01,-2.4101e-01,4.4633e-01,8.3765e-02,2.4506e-02,-6.9239e-02,-9.6068e-02,4.1667e-01,-1.1437e-01,-2.1596e-02,6.4428e-02,1.9185e-01,-1.8952e-02,1.4215e-01,7.5562e-02,2.8767e-02,-1.4758e-01,-7.9943e-02,2.9222e-01,2.9267e-01,-4.6928e-02,2.2408e-02,2.7780e-02,2.0865e-01,2.1859e-01,6.8351e-02,-2.1374e-01,-2.8895e-01
-1.4878e-01,-1.0486e-01,6.2534e-02,3.2427e-01,-3.5805e-02,2.4936e-01,1.4914e-01,-1.0692e-01,1.1550e-01,9.4963e-02,3.2740e-01,-2.3423e-02,-1.8721e-01,3.9151e-01,-2.1058e-01,-7.9284e-02,-7.5408e-03,-2.1388e-01,-1.8913e-01,4.1191e-02,8.2583e-02,-2.4796e-02,-1.3750e-01,1.4134e-01,8.3912e-04,-1.4416e-01,-9.7939e-02,-1.3298e-01,7.6235e-02,5.8647e-02,2.9414e-01,-2.4490e-01,1.4132e-01,-4.7134e-02,1.6606e-01,-1.3919e-01,-1.8553e-01,-1.9296e-01,-2.1323e-01,-9.0427e-02,-9.4604e-02,1.8592e-01,2.4216e-01
-1.4658e-01,-4.9654e-01,-3.0473e-01,-1.3396e-02,-6.1984e-01,-3.3911e-01,-2.0407e-01,-1.2715e-01,-2.0641e-01,4.2077e-01,4.0643e-03,1.5834e-01,-5.1985e-02,4.1392e-01,5.8469e-02,1.0409e-01,-8.6979e-03,-2.4746e-01,-3.4588e-01,-6.9178e-03,1.7687e-01,-7.1389e-02,2.4018e-01,3.7095e-01,4.3778e-02,1.4269e-02,-1.3679e-01,4.1896e-02,4.1765e-01,2.3008e-01,3.5430e-01,-3.5233e-01,-5.7973e-02,1.5830e-01,5.9711e-01,1.8426e-01,1.5126e-01,-8.1024e-02,1.2832e-01,-1.3106e-01,-1.9048e-01,5.6194e-02,1.7424e-02
1.7956e-01,1.1134e-01,-5.6489e-02,-2.6328e-01,7.6876e-02,-1.9157e-01,2.5413e-02,-1.0262e-01,-1.3308e-01,-3.2257e-01,-1.1105e-01,-1.3614e-01,3.0050e-01,5.0345e-02,1.6062e-01,-1.0264e-02,-2.5864e-01,3.3392e-01,1.2905e-01,-8.9936e-02,-1.0720e-01,-1.3212e-02,1.2049e-01,-8.8716e-02,-4.5527e-03,1.1870e-01,4.2735e-02,-3.7397e-02,-2.1307e-01,-7.3389e-02,-6.2688e-03,-2.5273e-02,1.5182e-01,-2.7014e-02,-4.6526e-02,-1.3113e-01,7.6169e-02,1.6204e-01,-1.0534e-01,1.2807e-01,1.2624e-01,-6.2841e-02,1.4136e-02
-2.0468e-02,-2.7953e-02,4.1316e-02,4.4802e-02,1.8617e-02,-3.5341e-02,2.7575e-02,1.6154e-02,-4.5804e-02,5.5897e-02,3.2198e-02,-2.6708e-02,-2.1916e-02,-1.3801e-02,-4.6104e-02,-1.8480e-02,-2.7679e-02,5.3784e-02,4.8114e-02,-1.8383e-02,1.6532e-02,-3.8078e-02,2.9322e-02,6.2918e-03,-2.6573e-02,2.8938e-02,-3.5406e-02,5.2198e-02,2.6230e-02,-2.8759e-02,3.2990e-02,2.8718e-02,-3.6714e-02,-4.8162e-02,2.9220e-02,4.1210e-03,-8.4271e-03,7.8340e-03,-2.8540e-02,1.4344e-02,1.6829e-02,7.6301e-03,2.6644e-02
7.1693e-02,2.3554e-01,-7.7328e-03,2.2310e-01,4.8024e-02,-7.6040e-02,-4.8125e-02,-5.0495e-02,1.7187e-01,4.6156e-02,-5.0087e-01,7.9452e-02,-1.8254e-01,1.0095e-01,1.1582e-01,4.4026e-02,-1.5333e-01,1.8945e-01,-2.1353e-01,2.7099e-02,-1.1679e-01,-1.0283e-01,-2.3906e-02,-8.7749e-02,4.6937e-03,1.9762e-01,-1.3966e-01,-1.5692e-01,9.2088e-02,1.1053e-01,1.5699e-01,1.2175e-01,7.3792e-02,1.6523e-01,1.9760e-01,-1.6502e-01,1.3408e-01,-1.6276e-01,2.9838e-03,6.5968e-03,-2.9329e-01,-1.0472e-01,-2.4015e-01
-5.2563e-02,-6.1935e-02,1.3544e-01,2.2436e-02,3.6162e-02,1.1288e-01,1.3592e-01,-2.2218e-01,-3.4606e-01,-4.3728e-02,1.0195e-01,-8.4023e-02,1.1704e-01,-7.4488e-02,7.5299e-02,-1.3741e-02,3.0679e-02,-5.6337e-02,-1.7613e-02,5.9805e-02,-8.2142e-02,1.0099e-01,-2.0238e-02,-5.0820e-03,2.2671e-02,8.9851e-02,-1.2649e-01,-1.6870e-02,-1.0429e-01,-9.3989e-02,-1.0349e-01,8.0645e-02,2.4007e-02,-1.5563e-01,1.7899e-02,4.1366e-02,2.5101e-01,-2.0419e-01,8.0639e-02,6.9165e-04,-4.5058e-02,5.9059e-03,-5.6441e-03
-2.3356e-02,3.6260e-02,5.8016e-02,2.1137e-03,-4.6840e-02,-5.0959e-02,-1.0122e-02,-8.6491e-02,-8.1388e-03,9.4415e-02,-5.2554e-04,2.5751e-02,9.9178e-02,-2.1524e-02,-3.5424e-02,-9.6109e-02,-3.4263e-02,-2.0139e-02,-8.8612e-02,6.0660e-03,-8.0129e-02,-8.0130e-03,-1.7396e-02,-5.8049e-02,-2.3897e-02,4.2739e-02,1.2456e-02,-5.3940e-02,-4.8266e-02,1.2406e-02,2.3185e-02,3.5755e-03,4.9337e-02,8.8220e-03,-9.3979e-03,2.3085e-02,5.0672e-02,-4.7430e-02,-4.1175e-02,5.5898e-02,2.1638e-02,-4.1371e-02,6.7843e-02
3.1012e-01,5.0540e-01,2.3033e-01,3.4957e-01,6.2823e-02,1.9317e-01,3.8292e-01,-6.7174e-02,-1.4607e-01,-2.4934e-01,-3.0558e-01,-1.4962e-01,-1.4109e-01,-3.4989e-02,9.8499e-02,-4.2572e-02,-1.4974e-01,2.4377e-01,-1.0791e-01,-8.3202e-02,1.0924e-01,-2.8290e-01,1.1739e-03,-1.9991e-01,-7.2071e-04,1.6979e-01,-2.6307e-01,-1.5037e-01,2.7695e-02,-1.8906e-01,-1.1794e-01,-1.3235e-01,3.2018e-01,-3.0369e-01,7.1873e-02,7.1980e-02,3.0490e-01,-2.7445e-01,2.2834e-01,-3.0191e-01,-1.2894e-01,1.8704e-01,1.4535e-01
2.1365e-02,-2.0700e-02,4.4260e-03,4.0811e-02,-4.4584e-02,2.1124e-03,7.7867e-03,-2.3483e-02,4.1802e-02,-1.7604e-02,2.0700e-02,-3.4117e-03,7.2351e-03,4.7725e-02,1.7620e-02,2.4377e-02,2.8147e-02,-1.2284e-03,3.6285e-02,-3.4373e-02,-1.9610e-02,-1.4151e-02,-1.0259e-02,-3.3680e-02,-1.0151e-02,-2.3760e-02,1.1868e-02,1.4437e-02,4.1506e-02,4.4819e-02,-1.2043e-02,-1.4211e-02,4.3765e-02,2.9614e-02,3.4479e-02,3.6358e-02,-1.3985e-02,4.4688e-02,-1.4773e-03,2.1823e-02,2.5628e-02,8.8596e-03,3.2560e-02
-7.7857e-02,-5.8967e-02,1.1787e-01,-3.3322e-03,5.6532e-02,7.8998e-02,1.9288e-02,2.2908e-01,1.6047e-01,8.2709e-02,9.0103e-02,1.2313e-01,1.0422e-01,-4.7521e-02,-3.1278e-01,-3.9189e-02,1.3346e-01,-2.6627e-01,-2.5303e-01,5.7630e-02,9.2235e-02,4.3739e-02,-1.8539e-01,1.2187e-01,1.5622e-01,-8.7534e-02,2.9826e-02,8.0060e-02,1.9335e-01,-6.2043e-02,1.0873e-01,-3.3274e-02,-1.2106e-03,-6.8055e-02,-2.3795e-01,-1.3205e-01,8.1579e-03,-9.2164e-02,-1.7955e-01,-1.2454e-01,-2.0017e-02,8.5042e-02,1.5324e-01
-6.9081e-02,1.6693e-01,3.0644e-02,1.0936e-02,2.2214e-01,3.1367e-01,-1.6643e-01,-1.3420e-02,-2.7347e-03,2.5216e-02,2.6409e-01,-3.5023e-01,-4.4370e-02,2.8013e-01,2.7570e-01,1.1138e-01,-2.1393e-01,4.8194e-02,-2.3044e-01,4.5308e-02,-7.2678e-02,-6.9488e-02,1.6274e-01,-1.2259e-01,-7.3746e-02,5.1902e-01,-1.9874e-01,-2.8925e-01,-2.0030e-01,3.8574e-02,-1.3614e-01,5.8857e-02,-2.5602e-01,1.3753e-01,1.0487e-02,2.9776e-01,1.0080e-01,6.6116e-02,5.6641e-04,2.0049e-01,-3.2742e-01,-2.0926e-01,-2.1161e-01
-3.7047e-01,-1.8637e-01,-3.1513e-01,-5.8563e-02,2.1406e-01,-2.8348e-01,-3.8829e-01,-4.7039e-01,-3.6809e-01,1.0684e-01,4.3951e-02,-4.4495e-01,-1.9837e-01,2.5754e-01,1.6715e-01,1.7354e-02,-3.3858e-01,7.7198e-02,1.1797e-01,1.7784e-01,2.5954e-02,2.2294e-01,5.4762e-01,5.5927e-02,1.3606e-01,4.2155e-01,2.1306e-01,-9.1903e-02,3.8606e-02,3.5400e-01,1.5885e-01,2.6391e-01,-3.6775e-01,3.7406e-01,-6.3859e-03,2.6651e-01,-9.0976e-02,1.0410e-01,-2.4963e-02,5.4706e-01,-2.9291e-01,-3.0629e-01,-3.9654e-01
-2.7939e-03,-3.8391e-05,-4.8157e-02,-3.4578e-03,5.4990e-03,-3.4030e-02,2.9609e-02,2.9544e-03,-9.4656e-03,-1.7826e-02,-3.4046e-02,-1.5237e-02,4.3742e-03,6.5334e-03,-3.6505e-02,-1.0981e-02,-8.0113e-03,1.7184e-02,-1.1769e-02,1.9263e-02,-1.4870e-03,-2.8997e-02,-2.5775e-02,-3.5944e-02,1.7217e-02,4.3275e-02,-7.8439e-03,4.6250e-02,-1.9540e-02,-1.3695e-03,-2.7287e-02,1.1674e-02,-2.3754e-02,3.0229e-02,-4.9923e-02,-4.3011e-02,-7.9272e-03,-2.4370e-02,-4.2071e-02,-1.5603e-02,4.6325e-03,-3.3127e-02,2.4622e-02
2.9892e-02,-1.3616e-01,3.1186e-01,4.0010e-01,-2.6335e-01,7.5983e-02,-5.5714e-02,-1.6224e-01,-1.5305e-01,4.7408e-01,8.7662e-02,-2.6552e-01,2.8862e-01,2.5980e-01,1.6113e-01,1.2446e-01,1.4912e-01,-1.3875e-01,-2.6103e-01,-9.3799e-02,-1.4407e-02,-2.4950e-01,5.3330e-02,6.7144e-03,-2.4753e-01,3.0753e-01,-3.1697e-01,-3.5019e-01,-8.2458e-03,5.2316e-02,-3.5485e-01,-1.5225e-01,-6.3889e-02,5.6614e-02,1.2406e-01,4.5979e-01,3.4556e-01,-1.8844e-02,2.1086e-01,-5.0978e-02,-2.6546e-01,5.4779e-02,-3.3258e-02
1.3829e-02,-7.0294e-03,-4.1140e-02,2.3460e-02,2.3898e-02,-2.4962e-02,4.7736e-02,3.9720e-02,1.2822e-02,1.9382e-02,-2.1088e-02,2.8028e-02,-4.8211e-02,-4.5141e-02,1.6479e-02,-1.0318e-02,1.9184e-02,4.2659e-03,4.7696e-02,-9.8344e-03,-3.3025e-02,-3.0234e-02,2.9183e-02,-1.5854e-02,-1.9815e-02,-3.9153e-02,-6.6450e-03,3.7240e-02,4.0154e-02,-4.6258e-02,-8.1294e-03,4.3271e-02,-2.1306e-02,3.7633e-03,3.6061e-02,4.5554e-02,-4.4584e-02,-2.7942e-02,-1.5417e-04,5.3485e-03,2.6354e-02,3.1116e-02,6.2364e-03
